=== Run information ===

Scheme:       weka.classifiers.trees.J48 -C 0.01 -M 10
Relation:     R_data_frame-weka.filters.unsupervised.attribute.NumericToNominal-Rfirst-last
Instances:    28056
Attributes:   7
              V1
              V2
              V3
              V4
              V5
              V6
              Class
Test mode:    10-fold cross-validation

=== Classifier model (full training set) ===

J48 pruned tree
------------------

V2 = 1
|   V6 = 1
|   |   V1 = 1
|   |   |   V4 = 1: 11 (36.0/26.0)
|   |   |   V4 = 2: 8 (48.0/29.0)
|   |   |   V4 = 3: 10 (48.0/23.0)
|   |   |   V4 = 4: 12 (48.0/26.0)
|   |   |   V4 = 5: 11 (48.0/35.0)
|   |   |   V4 = 6: 14 (48.0/35.0)
|   |   |   V4 = 7: 14 (48.0/35.0)
|   |   |   V4 = 8: 11 (48.0/36.0)
|   |   V1 = 2: 9 (310.0/235.0)
|   |   V1 = 3
|   |   |   V5 = 1: 2 (62.0/20.0)
|   |   |   V5 = 2: 8 (0.0)
|   |   |   V5 = 3: 8 (0.0)
|   |   |   V5 = 4: 8 (0.0)
|   |   |   V5 = 5: 9 (62.0/41.0)
|   |   |   V5 = 6: 9 (62.0/46.0)
|   |   |   V5 = 7: 9 (62.0/46.0)
|   |   |   V5 = 8: 8 (62.0/27.0)
|   |   V1 = 4
|   |   |   V3 = 1: 6 (39.0/17.0)
|   |   |   V3 = 2: 6 (39.0/19.0)
|   |   |   V3 = 3: 6 (40.0/18.0)
|   |   |   V3 = 4: 6 (35.0/18.0)
|   |   |   V3 = 5: 5 (40.0/26.0)
|   |   |   V3 = 6: 5 (39.0/24.0)
|   |   |   V3 = 7: 5 (39.0/25.0)
|   |   |   V3 = 8: 5 (39.0/27.0)
|   V6 = 2
|   |   V5 = 1
|   |   |   V4 = 1: 8 (14.0/10.0)
|   |   |   V4 = 2: 11 (14.0/8.0)
|   |   |   V4 = 3: 1 (16.0/10.0)
|   |   |   V4 = 4: 5 (16.0/6.0)
|   |   |   V4 = 5: 8 (16.0/12.0)
|   |   |   V4 = 6: 12 (16.0/8.0)
|   |   |   V4 = 7: 11 (16.0/6.0)
|   |   |   V4 = 8: 11 (16.0/6.0)
|   |   V5 = 2: 11 (62.0/30.0)
|   |   V5 = 3: 14 (62.0/36.0)
|   |   V5 = 4: 14 (124.0/85.0)
|   |   V5 = 5
|   |   |   V4 = 1: 17 (21.0/13.0)
|   |   |   V4 = 2: 15 (21.0/16.0)
|   |   |   V4 = 3: 17 (24.0/15.0)
|   |   |   V4 = 4: 12 (24.0/13.0)
|   |   |   V4 = 5: 14 (24.0/13.0)
|   |   |   V4 = 6: 15 (24.0/14.0)
|   |   |   V4 = 7: 15 (24.0/13.0)
|   |   |   V4 = 8: 15 (24.0/15.0)
|   |   V5 = 6
|   |   |   V3 = 1: 12 (31.0/18.0)
|   |   |   V3 = 2: 12 (31.0/19.0)
|   |   |   V3 = 3: 14 (31.0/19.0)
|   |   |   V3 = 4: 15 (31.0/16.0)
|   |   |   V3 = 5: 13 (32.0/16.0)
|   |   |   V3 = 6: 17 (28.0/20.0)
|   |   |   V3 = 7: 17 (32.0/20.0)
|   |   |   V3 = 8: 12 (32.0/21.0)
|   |   V5 = 7
|   |   |   V3 = 1: 10 (31.0/18.0)
|   |   |   V3 = 2: 10 (31.0/18.0)
|   |   |   V3 = 3: 10 (31.0/19.0)
|   |   |   V3 = 4: 13 (31.0/19.0)
|   |   |   V3 = 5: 13 (32.0/14.0)
|   |   |   V3 = 6: 17 (32.0/20.0)
|   |   |   V3 = 7: 14 (28.0/19.0)
|   |   |   V3 = 8: 17 (32.0/20.0)
|   |   V5 = 8
|   |   |   V1 = 1: 12 (62.0/35.0)
|   |   |   V1 = 2: 11 (62.0/37.0)
|   |   |   V1 = 3: 9 (62.0/33.0)
|   |   |   V1 = 4: 8 (62.0/36.0)
|   V6 = 3
|   |   V4 = 1: 14 (210.0/126.0)
|   |   V4 = 2
|   |   |   V5 = 1: 12 (24.0/13.0)
|   |   |   V5 = 2: 13 (24.0/16.0)
|   |   |   V5 = 3: 14 (31.0/21.0)
|   |   |   V5 = 4: 15 (32.0/20.0)
|   |   |   V5 = 5: 15 (32.0/22.0)
|   |   |   V5 = 6: 17 (32.0/21.0)
|   |   |   V5 = 7: 17 (32.0/20.0)
|   |   |   V5 = 8: 13 (32.0/21.0)
|   |   V4 = 3
|   |   |   V1 = 1: 16 (40.0/24.0)
|   |   |   V1 = 2: 15 (56.0/33.0)
|   |   |   V1 = 3: 14 (56.0/31.0)
|   |   |   V1 = 4: 14 (56.0/30.0)
|   |   V4 = 4: 17 (237.0/156.0)
|   |   V4 = 5
|   |   |   V1 = 1: 15 (44.0/19.0)
|   |   |   V1 = 2: 15 (64.0/41.0)
|   |   |   V1 = 3: 14 (64.0/36.0)
|   |   |   V1 = 4: 13 (64.0/37.0)
|   |   V4 = 6
|   |   |   V5 = 1: 12 (24.0/6.0)
|   |   |   V5 = 2: 14 (24.0/6.0)
|   |   |   V5 = 3: 15 (27.0/14.0)
|   |   |   V5 = 4: 15 (32.0/13.0)
|   |   |   V5 = 5: 15 (32.0/13.0)
|   |   |   V5 = 6: 15 (32.0/17.0)
|   |   |   V5 = 7: 14 (32.0/19.0)
|   |   |   V5 = 8: 13 (32.0/15.0)
|   |   V4 = 7
|   |   |   V5 = 1: 12 (24.0/12.0)
|   |   |   V5 = 2: 13 (24.0/11.0)
|   |   |   V5 = 3: 15 (26.0/13.0)
|   |   |   V5 = 4: 15 (32.0/13.0)
|   |   |   V5 = 5: 15 (32.0/13.0)
|   |   |   V5 = 6: 15 (32.0/15.0)
|   |   |   V5 = 7: 14 (32.0/13.0)
|   |   |   V5 = 8: 12 (32.0/19.0)
|   |   V4 = 8: 14 (233.0/131.0)
|   V6 = 4
|   |   V5 = 1
|   |   |   V4 = 1: 13 (21.0/12.0)
|   |   |   V4 = 2: 12 (24.0/12.0)
|   |   |   V4 = 3: 13 (24.0/12.0)
|   |   |   V4 = 4: 13 (21.0/14.0)
|   |   |   V4 = 5: 10 (24.0/16.0)
|   |   |   V4 = 6: 14 (24.0/9.0)
|   |   |   V4 = 7: 12 (24.0/6.0)
|   |   |   V4 = 8: 12 (24.0/12.0)
|   |   V5 = 2: 14 (186.0/111.0)
|   |   V5 = 3
|   |   |   V3 = 1: 14 (24.0/4.0)
|   |   |   V3 = 2: 15 (23.0/13.0)
|   |   |   V3 = 3: 15 (20.0/9.0)
|   |   |   V3 = 4: 17 (23.0/14.0)
|   |   |   V3 = 5: 14 (24.0/8.0)
|   |   |   V3 = 6: 15 (24.0/9.0)
|   |   |   V3 = 7: 15 (24.0/11.0)
|   |   |   V3 = 8: 14 (24.0/8.0)
|   |   V5 = 4: 15 (220.0/122.0)
|   |   V5 = 5: 15 (248.0/139.0)
|   |   V5 = 6: 15 (248.0/148.0)
|   |   V5 = 7: 14 (248.0/155.0)
|   |   V5 = 8: 14 (248.0/179.0)
|   V6 = 5
|   |   V5 = 1
|   |   |   V3 = 1: 17 (21.0/15.0)
|   |   |   V3 = 2: 8 (23.0/12.0)
|   |   |   V3 = 3: 11 (23.0/11.0)
|   |   |   V3 = 4: 12 (23.0/8.0)
|   |   |   V3 = 5: 13 (24.0/16.0)
|   |   |   V3 = 6: 14 (24.0/15.0)
|   |   |   V3 = 7: 14 (24.0/15.0)
|   |   |   V3 = 8: 14 (24.0/15.0)
|   |   V5 = 2: 14 (186.0/115.0)
|   |   V5 = 3
|   |   |   V3 = 1: 14 (24.0/3.0)
|   |   |   V3 = 2: 15 (23.0/10.0)
|   |   |   V3 = 3: 15 (20.0/11.0)
|   |   |   V3 = 4: 12 (23.0/13.0)
|   |   |   V3 = 5: 14 (24.0/9.0)
|   |   |   V3 = 6: 15 (24.0/8.0)
|   |   |   V3 = 7: 15 (24.0/10.0)
|   |   |   V3 = 8: 14 (24.0/8.0)
|   |   V5 = 4: 15 (186.0/100.0)
|   |   V5 = 5: 15 (220.0/126.0)
|   |   V5 = 6: 15 (248.0/149.0)
|   |   V5 = 7: 14 (248.0/146.0)
|   |   V5 = 8: 14 (248.0/173.0)
|   V6 = 6
|   |   V5 = 1: 11 (186.0/135.0)
|   |   V5 = 2: 13 (186.0/119.0)
|   |   V5 = 3: 14 (186.0/103.0)
|   |   V5 = 4
|   |   |   V3 = 1: 14 (24.0/7.0)
|   |   |   V3 = 2: 15 (23.0/6.0)
|   |   |   V3 = 3: 15 (23.0/11.0)
|   |   |   V3 = 4: 15 (20.0/11.0)
|   |   |   V3 = 5: 14 (24.0/10.0)
|   |   |   V3 = 6: 15 (24.0/7.0)
|   |   |   V3 = 7: 15 (24.0/8.0)
|   |   |   V3 = 8: 14 (24.0/9.0)
|   |   V5 = 5
|   |   |   V3 = 1: 14 (24.0/7.0)
|   |   |   V3 = 2: 15 (23.0/8.0)
|   |   |   V3 = 3: 15 (23.0/7.0)
|   |   |   V3 = 4: 15 (23.0/14.0)
|   |   |   V3 = 5: 14 (21.0/7.0)
|   |   |   V3 = 6: 15 (24.0/11.0)
|   |   |   V3 = 7: 15 (24.0/7.0)
|   |   |   V3 = 8: 14 (24.0/9.0)
|   |   V5 = 6: 15 (220.0/130.0)
|   |   V5 = 7: 14 (248.0/150.0)
|   |   V5 = 8
|   |   |   V3 = 1: 14 (31.0/15.0)
|   |   |   V3 = 2: 14 (31.0/15.0)
|   |   |   V3 = 3: 14 (31.0/20.0)
|   |   |   V3 = 4: 13 (31.0/20.0)
|   |   |   V3 = 5: 12 (32.0/21.0)
|   |   |   V3 = 6: 13 (32.0/19.0)
|   |   |   V3 = 7: 17 (32.0/20.0)
|   |   |   V3 = 8: 17 (28.0/20.0)
|   V6 = 7
|   |   V4 = 1: 14 (182.0/82.0)
|   |   V4 = 2
|   |   |   V5 = 1: 11 (24.0/10.0)
|   |   |   V5 = 2: 13 (24.0/6.0)
|   |   |   V5 = 3: 14 (24.0/7.0)
|   |   |   V5 = 4: 14 (24.0/5.0)
|   |   |   V5 = 5: 14 (24.0/5.0)
|   |   |   V5 = 6: 14 (24.0/5.0)
|   |   |   V5 = 7: 14 (31.0/13.0)
|   |   |   V5 = 8: 12 (32.0/19.0)
|   |   V4 = 3
|   |   |   V5 = 1: 11 (24.0/6.0)
|   |   |   V5 = 2: 13 (24.0/6.0)
|   |   |   V5 = 3: 14 (24.0/8.0)
|   |   |   V5 = 4: 14 (24.0/8.0)
|   |   |   V5 = 5: 14 (24.0/8.0)
|   |   |   V5 = 6: 14 (24.0/8.0)
|   |   |   V5 = 7: 14 (30.0/18.0)
|   |   |   V5 = 8: 12 (32.0/20.0)
|   |   V4 = 4: 14 (205.0/100.0)
|   |   V4 = 5: 14 (204.0/99.0)
|   |   V4 = 6: 13 (203.0/119.0)
|   |   V4 = 7: 14 (176.0/113.0)
|   |   V4 = 8: 17 (201.0/132.0)
|   V6 = 8
|   |   V4 = 1: 14 (175.0/92.0)
|   |   V4 = 2
|   |   |   V5 = 1: 10 (24.0/11.0)
|   |   |   V5 = 2: 12 (24.0/6.0)
|   |   |   V5 = 3: 14 (24.0/8.0)
|   |   |   V5 = 4: 14 (24.0/4.0)
|   |   |   V5 = 5: 14 (24.0/4.0)
|   |   |   V5 = 6: 14 (24.0/7.0)
|   |   |   V5 = 7: 14 (24.0/10.0)
|   |   |   V5 = 8: 12 (31.0/17.0)
|   |   V4 = 3
|   |   |   V5 = 1: 10 (24.0/6.0)
|   |   |   V5 = 2: 12 (24.0/6.0)
|   |   |   V5 = 3: 14 (24.0/8.0)
|   |   |   V5 = 4: 14 (24.0/5.0)
|   |   |   V5 = 5: 14 (24.0/5.0)
|   |   |   V5 = 6: 14 (24.0/8.0)
|   |   |   V5 = 7: 14 (24.0/15.0)
|   |   |   V5 = 8: 12 (30.0/18.0)
|   |   V4 = 4
|   |   |   V5 = 1: 10 (24.0/6.0)
|   |   |   V5 = 2: 12 (24.0/6.0)
|   |   |   V5 = 3: 14 (24.0/8.0)
|   |   |   V5 = 4: 14 (24.0/6.0)
|   |   |   V5 = 5: 14 (24.0/6.0)
|   |   |   V5 = 6: 14 (24.0/9.0)
|   |   |   V5 = 7: 12 (24.0/11.0)
|   |   |   V5 = 8: 11 (29.0/21.0)
|   |   V4 = 5: 14 (196.0/111.0)
|   |   V4 = 6: 13 (195.0/67.0)
|   |   V4 = 7: 11 (194.0/114.0)
|   |   V4 = 8: 14 (168.0/105.0)
V2 = 2
|   V6 = 1
|   |   V1 = 1: 8 (0.0)
|   |   V1 = 2: 10 (310.0/221.0)
|   |   V1 = 3
|   |   |   V5 = 1: 1 (62.0/27.0)
|   |   |   V5 = 2: 8 (0.0)
|   |   |   V5 = 3: 8 (0.0)
|   |   |   V5 = 4: 8 (0.0)
|   |   |   V5 = 5: 8 (62.0/38.0)
|   |   |   V5 = 6: 8 (62.0/38.0)
|   |   |   V5 = 7: 8 (62.0/38.0)
|   |   |   V5 = 8: 8 (62.0/29.0)
|   |   V1 = 4
|   |   |   V5 = 1: 4 (62.0/21.0)
|   |   |   V5 = 2: 4 (62.0/22.0)
|   |   |   V5 = 3: 6 (0.0)
|   |   |   V5 = 4: 6 (0.0)
|   |   |   V5 = 5: 6 (0.0)
|   |   |   V5 = 6: 6 (62.0/23.0)
|   |   |   V5 = 7: 6 (62.0/24.0)
|   |   |   V5 = 8: 6 (62.0/27.0)
|   V6 = 2
|   |   V1 = 1: 8 (0.0)
|   |   V1 = 2
|   |   |   V4 = 1: 17 (40.0/27.0)
|   |   |   V4 = 2: 12 (30.0/21.0)
|   |   |   V4 = 3: 8 (40.0/27.0)
|   |   |   V4 = 4: 11 (40.0/19.0)
|   |   |   V4 = 5: 12 (40.0/21.0)
|   |   |   V4 = 6: 12 (40.0/27.0)
|   |   |   V4 = 7: 12 (40.0/29.0)
|   |   |   V4 = 8: 12 (40.0/26.0)
|   |   V1 = 3
|   |   |   V5 = 1: 2 (62.0/21.0)
|   |   |   V5 = 2: 10 (0.0)
|   |   |   V5 = 3: 10 (0.0)
|   |   |   V5 = 4: 10 (0.0)
|   |   |   V5 = 5: 10 (62.0/38.0)
|   |   |   V5 = 6: 10 (62.0/44.0)
|   |   |   V5 = 7: 10 (62.0/35.0)
|   |   |   V5 = 8: 9 (62.0/32.0)
|   |   V1 = 4: 8 (310.0/226.0)
|   V6 = 3
|   |   V5 = 1: 10 (124.0/80.0)
|   |   V5 = 2: 12 (62.0/42.0)
|   |   V5 = 3: 14 (0.0)
|   |   V5 = 4: 14 (62.0/38.0)
|   |   V5 = 5: 14 (124.0/62.0)
|   |   V5 = 6: 14 (186.0/107.0)
|   |   V5 = 7: 12 (186.0/127.0)
|   |   V5 = 8: 11 (186.0/141.0)
|   V6 = 4
|   |   V5 = 1
|   |   |   V4 = 1: 11 (16.0/9.0)
|   |   |   V4 = 2: 11 (14.0/8.0)
|   |   |   V4 = 3: 10 (16.0/6.0)
|   |   |   V4 = 4: 11 (14.0/6.0)
|   |   |   V4 = 5: 7 (16.0/6.0)
|   |   |   V4 = 6: 13 (16.0/8.0)
|   |   |   V4 = 7: 10 (16.0/9.0)
|   |   |   V4 = 8: 10 (16.0/9.0)
|   |   V5 = 2: 12 (124.0/79.0)
|   |   V5 = 3: 13 (124.0/69.0)
|   |   V5 = 4: 14 (158.0/84.0)
|   |   V5 = 5: 14 (186.0/112.0)
|   |   V5 = 6: 14 (186.0/103.0)
|   |   V5 = 7: 13 (186.0/110.0)
|   |   V5 = 8: 13 (186.0/134.0)
|   V6 = 5
|   |   V5 = 1: 11 (124.0/85.0)
|   |   V5 = 2: 12 (124.0/79.0)
|   |   V5 = 3: 13 (124.0/70.0)
|   |   V5 = 4: 14 (124.0/59.0)
|   |   V5 = 5: 14 (158.0/82.0)
|   |   V5 = 6: 14 (186.0/101.0)
|   |   V5 = 7: 13 (186.0/111.0)
|   |   V5 = 8: 12 (186.0/132.0)
|   V6 = 6: 13 (1150.0/692.0)
|   V6 = 7
|   |   V4 = 1: 13 (144.0/76.0)
|   |   V4 = 2: 13 (125.0/50.0)
|   |   V4 = 3: 13 (142.0/73.0)
|   |   V4 = 4
|   |   |   V5 = 1: 9 (16.0/4.0)
|   |   |   V5 = 2: 11 (16.0/4.0)
|   |   |   V5 = 3: 13 (16.0/4.0)
|   |   |   V5 = 4: 13 (16.0/4.0)
|   |   |   V5 = 5: 13 (16.0/4.0)
|   |   |   V5 = 6: 13 (16.0/4.0)
|   |   |   V5 = 7: 12 (21.0/13.0)
|   |   |   V5 = 8: 10 (24.0/16.0)
|   |   V4 = 5: 12 (140.0/79.0)
|   |   V4 = 6: 17 (139.0/90.0)
|   |   V4 = 7: 13 (120.0/77.0)
|   |   V4 = 8: 17 (137.0/90.0)
|   V6 = 8
|   |   V4 = 1: 13 (136.0/88.0)
|   |   V4 = 2: 13 (118.0/69.0)
|   |   V4 = 3
|   |   |   V5 = 1: 9 (16.0/8.0)
|   |   |   V5 = 2: 11 (16.0/4.0)
|   |   |   V5 = 3: 13 (16.0/8.0)
|   |   |   V5 = 4: 13 (16.0/6.0)
|   |   |   V5 = 5: 13 (16.0/6.0)
|   |   |   V5 = 6: 13 (16.0/6.0)
|   |   |   V5 = 7: 12 (16.0/9.0)
|   |   |   V5 = 8: 11 (22.0/14.0)
|   |   V4 = 4
|   |   |   V5 = 1: 9 (16.0/4.0)
|   |   |   V5 = 2: 11 (16.0/4.0)
|   |   |   V5 = 3: 13 (16.0/8.0)
|   |   |   V5 = 4: 13 (16.0/7.0)
|   |   |   V5 = 5: 13 (16.0/7.0)
|   |   |   V5 = 6: 13 (16.0/7.0)
|   |   |   V5 = 7: 11 (16.0/9.0)
|   |   |   V5 = 8: 11 (21.0/14.0)
|   |   V4 = 5: 12 (132.0/74.0)
|   |   V4 = 6: 12 (131.0/58.0)
|   |   V4 = 7: 9 (130.0/83.0)
|   |   V4 = 8: 13 (112.0/76.0)
V2 = 3
|   V6 = 1
|   |   V5 = 1
|   |   |   V1 = 1: 5 (0.0)
|   |   |   V1 = 2: 5 (0.0)
|   |   |   V1 = 3: 2 (34.0/12.0)
|   |   |   V1 = 4: 5 (62.0/24.0)
|   |   V5 = 2
|   |   |   V1 = 1: 2 (0.0)
|   |   |   V1 = 2: 2 (0.0)
|   |   |   V1 = 3: 2 (62.0/23.0)
|   |   |   V1 = 4: 5 (62.0/25.0)
|   |   V5 = 3
|   |   |   V1 = 1: 2 (0.0)
|   |   |   V1 = 2: 2 (0.0)
|   |   |   V1 = 3: 2 (62.0/22.0)
|   |   |   V1 = 4: 5 (62.0/25.0)
|   |   V5 = 4: 2 (124.0/84.0)
|   |   V5 = 5: 8 (124.0/80.0)
|   |   V5 = 6: 8 (124.0/84.0)
|   |   V5 = 7: 8 (124.0/83.0)
|   |   V5 = 8: 6 (124.0/90.0)
|   V6 = 2
|   |   V1 = 1: 8 (0.0)
|   |   V1 = 2: 8 (0.0)
|   |   V1 = 3: 10 (248.0/155.0)
|   |   V1 = 4
|   |   |   V5 = 1: 6 (62.0/20.0)
|   |   |   V5 = 2: 6 (62.0/21.0)
|   |   |   V5 = 3: 8 (0.0)
|   |   |   V5 = 4: 8 (0.0)
|   |   |   V5 = 5: 8 (0.0)
|   |   |   V5 = 6: 8 (62.0/25.0)
|   |   |   V5 = 7: 8 (62.0/25.0)
|   |   |   V5 = 8: 8 (62.0/23.0)
|   V6 = 3
|   |   V5 = 1: 7 (62.0/28.0)
|   |   V5 = 2: 7 (62.0/28.0)
|   |   V5 = 3: 9 (0.0)
|   |   V5 = 4: 9 (0.0)
|   |   V5 = 5: 12 (62.0/36.0)
|   |   V5 = 6: 9 (124.0/91.0)
|   |   V5 = 7: 12 (124.0/81.0)
|   |   V5 = 8: 11 (124.0/89.0)
|   V6 = 4
|   |   V5 = 1: 10 (62.0/38.0)
|   |   V5 = 2: 12 (62.0/44.0)
|   |   V5 = 3: 12 (0.0)
|   |   V5 = 4: 12 (0.0)
|   |   V5 = 5: 13 (62.0/20.0)
|   |   V5 = 6: 13 (124.0/75.0)
|   |   V5 = 7: 12 (124.0/59.0)
|   |   V5 = 8: 11 (124.0/73.0)
|   V6 = 5: 12 (716.0/424.0)
|   V6 = 6: 12 (654.0/396.0)
|   V6 = 7
|   |   V5 = 1: 9 (62.0/27.0)
|   |   V5 = 2: 10 (62.0/32.0)
|   |   V5 = 3: 12 (62.0/27.0)
|   |   V5 = 4: 12 (62.0/28.0)
|   |   V5 = 5: 12 (62.0/28.0)
|   |   V5 = 6: 12 (62.0/28.0)
|   |   V5 = 7: 11 (96.0/63.0)
|   |   V5 = 8: 11 (124.0/77.0)
|   V6 = 8: 11 (530.0/340.0)
V2 = 4
|   V5 = 1: 7 (34.0/13.0)
|   V5 = 2: 8 (96.0/27.0)
|   V5 = 3: 8 (124.0/47.0)
|   V5 = 4: 8 (124.0/49.0)
|   V5 = 5: 9 (124.0/83.0)
|   V5 = 6
|   |   V6 = 1: 9 (62.0/29.0)
|   |   V6 = 2: 10 (62.0/30.0)
|   |   V6 = 3: 10 (62.0/38.0)
|   |   V6 = 4: 11 (62.0/22.0)
|   |   V6 = 5: 11 (62.0/26.0)
|   |   V6 = 6: 11 (34.0/11.0)
|   |   V6 = 7: 11 (0.0)
|   |   V6 = 8: 11 (0.0)
|   V5 = 7
|   |   V6 = 1: 9 (62.0/37.0)
|   |   V6 = 2: 10 (62.0/31.0)
|   |   V6 = 3: 10 (62.0/33.0)
|   |   V6 = 4: 11 (62.0/24.0)
|   |   V6 = 5: 11 (62.0/28.0)
|   |   V6 = 6: 11 (62.0/26.0)
|   |   V6 = 7: 11 (34.0/22.0)
|   |   V6 = 8: 11 (0.0)
|   V5 = 8
|   |   V6 = 1: 7 (62.0/24.0)
|   |   V6 = 2: 8 (62.0/27.0)
|   |   V6 = 3: 9 (62.0/25.0)
|   |   V6 = 4: 9 (62.0/27.0)
|   |   V6 = 5: 9 (62.0/25.0)
|   |   V6 = 6: 9 (62.0/22.0)
|   |   V6 = 7: 9 (62.0/19.0)
|   |   V6 = 8: 9 (34.0/10.0)

Number of Leaves  : 	412

Size of the tree : 	477


Time taken to build model: 0.04 seconds

=== Stratified cross-validation ===
=== Summary ===

Correctly Classified Instances       11511               41.0287 %
Incorrectly Classified Instances     16545               58.9713 %
Kappa statistic                          0.3355
Mean absolute error                      0.0798
Root mean squared error                  0.2014
Relative absolute error                 80.2241 %
Root relative squared error             90.2976 %
Total Number of Instances            28056     

=== Detailed Accuracy By Class ===

                 TP Rate  FP Rate  Precision  Recall   F-Measure  MCC      ROC Area  PRC Area  Class
                 0,000    0,000    ?          0,000    ?          ?        0,993     0,063     0
                 0,410    0,001    0,478      0,410    0,441      0,441    0,993     0,313     1
                 0,850    0,008    0,496      0,850    0,627      0,646    0,990     0,520     2
                 0,049    0,000    0,800      0,049    0,093      0,198    0,948     0,280     3
                 0,409    0,002    0,653      0,409    0,503      0,514    0,964     0,332     4
                 0,297    0,009    0,356      0,297    0,324      0,315    0,953     0,300     5
                 0,527    0,011    0,499      0,527    0,513      0,502    0,929     0,388     6
                 0,193    0,004    0,564      0,193    0,288      0,321    0,871     0,226     7
                 0,507    0,035    0,437      0,507    0,469      0,440    0,906     0,417     8
                 0,321    0,030    0,407      0,321    0,359      0,325    0,866     0,350     9
                 0,317    0,040    0,375      0,317    0,344      0,300    0,829     0,295     10
                 0,356    0,069    0,370      0,356    0,363      0,293    0,825     0,349     11
                 0,429    0,094    0,401      0,429    0,414      0,325    0,818     0,373     12
                 0,437    0,115    0,399      0,437    0,417      0,310    0,813     0,395     13
                 0,638    0,161    0,435      0,638    0,517      0,414    0,866     0,493     14
                 0,529    0,061    0,422      0,529    0,469      0,423    0,920     0,419     15
                 0,023    0,001    0,333      0,023    0,043      0,085    0,928     0,126     16
                 0,087    0,026    0,272      0,087    0,132      0,105    0,695     0,191     17
Weighted Avg.    0,410    0,077    ?          0,410    ?          ?        0,840     0,366     

=== Confusion Matrix ===

    a    b    c    d    e    f    g    h    i    j    k    l    m    n    o    p    q    r   <-- classified as
    0    4   21    0    0    0    0    0    2    0    0    0    0    0    0    0    0    0 |    a = 0
    0   32   15    0    0    9    0    0   12    4    6    0    0    0    0    0    0    0 |    b = 1
    0   15  209    0    1   16    1    0    3    1    0    0    0    0    0    0    0    0 |    c = 2
    0    0   27    4   12   27    4    4    3    0    0    0    0    0    0    0    0    0 |    d = 3
    0    5   13    0   81   27   33    3   23    3    0    5    5    0    0    0    0    0 |    e = 4
    0    4   47    1   16  140   85   25   95   25    7    8    8    0    1    1    0    8 |    f = 5
    0    0   10    0    8   31  312   19   90   32   25   30   12   13    4    0    0    6 |    g = 6
    0    0   12    0    0   11   56  132  163   71   72   68   38   33    9    6    0   12 |    h = 7
    0    0   15    0    0   47   43    5  727  154  100  152   79   39   40    6    0   26 |    i = 8
    0    0   15    0    0   12   40   15  196  550  259  226  203   96   47    8    0   45 |    j = 9
    0    0   15    0    0   18   11   11  113  185  630  388  277  189   95   14    0   39 |    k = 10
    0    0    0    0    0   14    3    0   50   61  232 1017  649  444  273   20    0   91 |    l = 11
    0    0    0    0    0   12    1    0   17   86  117  351 1542  844  479   37    0  111 |    m = 12
    0    0    0    0    0    3    0    0    5   38   59  156  550 1831 1311  140    0  101 |    n = 13
    0    0    0    0    0    0    0    0    0   11   30   71  136  549 2906  725    4  121 |    o = 14
    0    0    0    0    0    0    0    0    0    0    0   15   16   53  848 1145    7   82 |    p = 15
    0    0    0    0    0    0    0    0    0    0    0    0    0    3   89  278    9   11 |    q = 16
    0    7   22    0    6   26   36   20  165  130  141  259  332  491  577  333    7  244 |    r = 17

