=== Run information ===

Scheme:       weka.classifiers.trees.J48 -C 0.25 -M 0
Relation:     R_data_frame-weka.filters.unsupervised.attribute.NumericToNominal-Rfirst-last
Instances:    28056
Attributes:   7
              V1
              V2
              V3
              V4
              V5
              V6
              Class
Test mode:    10-fold cross-validation

=== Classifier model (full training set) ===

J48 pruned tree
------------------

V2 = 1
|   V6 = 1
|   |   V1 = 1
|   |   |   V4 = 1
|   |   |   |   V5 = 1: 11 (0.0)
|   |   |   |   V5 = 2: 11 (0.0)
|   |   |   |   V5 = 3
|   |   |   |   |   V3 = 1: 11 (0.0)
|   |   |   |   |   V3 = 2: 15 (1.0)
|   |   |   |   |   V3 = 3: 11 (0.0)
|   |   |   |   |   V3 = 4: 17 (1.0)
|   |   |   |   |   V3 = 5: 15 (1.0)
|   |   |   |   |   V3 = 6: 12 (1.0)
|   |   |   |   |   V3 = 7: 11 (1.0)
|   |   |   |   |   V3 = 8: 11 (1.0)
|   |   |   |   V5 = 4
|   |   |   |   |   V3 = 1: 17 (0.0)
|   |   |   |   |   V3 = 2: 15 (1.0)
|   |   |   |   |   V3 = 3: 17 (1.0)
|   |   |   |   |   V3 = 4: 17 (0.0)
|   |   |   |   |   V3 = 5: 17 (1.0)
|   |   |   |   |   V3 = 6: 14 (1.0)
|   |   |   |   |   V3 = 7: 12 (1.0)
|   |   |   |   |   V3 = 8: 11 (1.0)
|   |   |   |   V5 = 5
|   |   |   |   |   V3 = 1: 11 (0.0)
|   |   |   |   |   V3 = 2: 11 (1.0)
|   |   |   |   |   V3 = 3: 14 (1.0)
|   |   |   |   |   V3 = 4: 17 (1.0)
|   |   |   |   |   V3 = 5: 11 (0.0)
|   |   |   |   |   V3 = 6: 17 (1.0)
|   |   |   |   |   V3 = 7: 14 (1.0)
|   |   |   |   |   V3 = 8: 11 (1.0)
|   |   |   |   V5 = 6
|   |   |   |   |   V3 = 1: 11 (0.0)
|   |   |   |   |   V3 = 2: 11 (1.0)
|   |   |   |   |   V3 = 3: 11 (1.0)
|   |   |   |   |   V3 = 4: 13 (1.0)
|   |   |   |   |   V3 = 5: 17 (1.0)
|   |   |   |   |   V3 = 6: 11 (0.0)
|   |   |   |   |   V3 = 7: 17 (1.0)
|   |   |   |   |   V3 = 8: 13 (1.0)
|   |   |   |   V5 = 7: 11 (6.0/3.0)
|   |   |   |   V5 = 8: 10 (6.0/3.0)
|   |   |   V4 = 2: 8 (48.0/29.0)
|   |   |   V4 = 3: 10 (48.0/23.0)
|   |   |   V4 = 4: 12 (48.0/26.0)
|   |   |   V4 = 5
|   |   |   |   V3 = 1: 12 (6.0/3.0)
|   |   |   |   V3 = 2: 11 (6.0/3.0)
|   |   |   |   V3 = 3: 14 (6.0/3.0)
|   |   |   |   V3 = 4: 13 (6.0/2.0)
|   |   |   |   V3 = 5: 12 (6.0/3.0)
|   |   |   |   V3 = 6: 14 (6.0/3.0)
|   |   |   |   V3 = 7: 14 (6.0/3.0)
|   |   |   |   V3 = 8: 11 (6.0/3.0)
|   |   |   V4 = 6
|   |   |   |   V3 = 1: 12 (6.0/3.0)
|   |   |   |   V3 = 2: 11 (6.0/3.0)
|   |   |   |   V3 = 3: 14 (6.0/3.0)
|   |   |   |   V3 = 4: 13 (6.0/2.0)
|   |   |   |   V3 = 5: 15 (6.0/3.0)
|   |   |   |   V3 = 6: 14 (6.0/3.0)
|   |   |   |   V3 = 7: 14 (6.0/3.0)
|   |   |   |   V3 = 8: 11 (6.0/3.0)
|   |   |   V4 = 7
|   |   |   |   V3 = 1: 12 (6.0/3.0)
|   |   |   |   V3 = 2: 11 (6.0/3.0)
|   |   |   |   V3 = 3: 14 (6.0/3.0)
|   |   |   |   V3 = 4: 13 (6.0/2.0)
|   |   |   |   V3 = 5: 15 (6.0/3.0)
|   |   |   |   V3 = 6: 12 (6.0/3.0)
|   |   |   |   V3 = 7: 14 (6.0/3.0)
|   |   |   |   V3 = 8: 11 (6.0/3.0)
|   |   |   V4 = 8
|   |   |   |   V3 = 1: 12 (6.0/3.0)
|   |   |   |   V3 = 2: 11 (6.0/3.0)
|   |   |   |   V3 = 3: 14 (6.0/3.0)
|   |   |   |   V3 = 4: 13 (6.0/2.0)
|   |   |   |   V3 = 5: 15 (6.0/3.0)
|   |   |   |   V3 = 6: 12 (6.0/3.0)
|   |   |   |   V3 = 7: 14 (6.0/3.0)
|   |   |   |   V3 = 8: 11 (6.0/3.0)
|   |   V1 = 2
|   |   |   V4 = 1
|   |   |   |   V3 = 1: 10 (5.0/2.0)
|   |   |   |   V3 = 2: 10 (0.0)
|   |   |   |   V3 = 3
|   |   |   |   |   V5 = 1: 9 (0.0)
|   |   |   |   |   V5 = 2: 9 (0.0)
|   |   |   |   |   V5 = 3: 9 (0.0)
|   |   |   |   |   V5 = 4: 14 (1.0)
|   |   |   |   |   V5 = 5: 14 (1.0)
|   |   |   |   |   V5 = 6: 10 (1.0)
|   |   |   |   |   V5 = 7: 9 (1.0)
|   |   |   |   |   V5 = 8: 9 (1.0)
|   |   |   |   V3 = 4: 9 (4.0/2.0)
|   |   |   |   V3 = 5: 17 (4.0/2.0)
|   |   |   |   V3 = 6: 17 (4.0/2.0)
|   |   |   |   V3 = 7: 17 (4.0/2.0)
|   |   |   |   V3 = 8: 10 (4.0/2.0)
|   |   |   V4 = 2
|   |   |   |   V3 = 1: 6 (5.0/2.0)
|   |   |   |   V3 = 2: 6 (5.0/2.0)
|   |   |   |   V3 = 3: 6 (5.0/2.0)
|   |   |   |   V3 = 4: 6 (5.0/2.0)
|   |   |   |   V3 = 5: 17 (5.0/2.0)
|   |   |   |   V3 = 6: 17 (5.0/2.0)
|   |   |   |   V3 = 7: 17 (5.0/2.0)
|   |   |   |   V3 = 8: 7 (5.0/2.0)
|   |   |   V4 = 3
|   |   |   |   V3 = 1: 8 (5.0/2.0)
|   |   |   |   V3 = 2: 8 (5.0/2.0)
|   |   |   |   V3 = 3: 8 (5.0/2.0)
|   |   |   |   V3 = 4: 8 (5.0)
|   |   |   |   V3 = 5: 9 (5.0/1.0)
|   |   |   |   V3 = 6: 10 (5.0/2.0)
|   |   |   |   V3 = 7: 9 (5.0/1.0)
|   |   |   |   V3 = 8: 9 (5.0)
|   |   |   V4 = 4: 10 (40.0/21.0)
|   |   |   V4 = 5
|   |   |   |   V3 = 1: 10 (5.0/2.0)
|   |   |   |   V3 = 2: 10 (5.0/2.0)
|   |   |   |   V3 = 3
|   |   |   |   |   V5 = 1: 9 (0.0)
|   |   |   |   |   V5 = 2: 9 (0.0)
|   |   |   |   |   V5 = 3: 9 (0.0)
|   |   |   |   |   V5 = 4: 14 (1.0)
|   |   |   |   |   V5 = 5: 14 (1.0)
|   |   |   |   |   V5 = 6: 10 (1.0)
|   |   |   |   |   V5 = 7: 9 (1.0)
|   |   |   |   |   V5 = 8: 9 (1.0)
|   |   |   |   V3 = 4: 13 (5.0/2.0)
|   |   |   |   V3 = 5
|   |   |   |   |   V5 = 1: 11 (0.0)
|   |   |   |   |   V5 = 2: 11 (0.0)
|   |   |   |   |   V5 = 3: 11 (0.0)
|   |   |   |   |   V5 = 4: 14 (1.0)
|   |   |   |   |   V5 = 5: 14 (1.0)
|   |   |   |   |   V5 = 6: 11 (1.0)
|   |   |   |   |   V5 = 7: 11 (1.0)
|   |   |   |   |   V5 = 8: 10 (1.0)
|   |   |   |   V3 = 6: 13 (5.0/2.0)
|   |   |   |   V3 = 7: 12 (5.0/2.0)
|   |   |   |   V3 = 8: 12 (5.0/2.0)
|   |   |   V4 = 6
|   |   |   |   V3 = 1: 10 (5.0/2.0)
|   |   |   |   V3 = 2: 10 (5.0/2.0)
|   |   |   |   V3 = 3
|   |   |   |   |   V5 = 1: 9 (0.0)
|   |   |   |   |   V5 = 2: 9 (0.0)
|   |   |   |   |   V5 = 3: 9 (0.0)
|   |   |   |   |   V5 = 4: 14 (1.0)
|   |   |   |   |   V5 = 5: 14 (1.0)
|   |   |   |   |   V5 = 6: 10 (1.0)
|   |   |   |   |   V5 = 7: 9 (1.0)
|   |   |   |   |   V5 = 8: 9 (1.0)
|   |   |   |   V3 = 4: 13 (5.0/2.0)
|   |   |   |   V3 = 5
|   |   |   |   |   V5 = 1: 12 (0.0)
|   |   |   |   |   V5 = 2: 12 (0.0)
|   |   |   |   |   V5 = 3: 12 (0.0)
|   |   |   |   |   V5 = 4: 14 (1.0)
|   |   |   |   |   V5 = 5: 14 (1.0)
|   |   |   |   |   V5 = 6: 12 (1.0)
|   |   |   |   |   V5 = 7: 12 (1.0)
|   |   |   |   |   V5 = 8: 10 (1.0)
|   |   |   |   V3 = 6: 13 (5.0/2.0)
|   |   |   |   V3 = 7: 12 (5.0/2.0)
|   |   |   |   V3 = 8: 12 (5.0/2.0)
|   |   |   V4 = 7
|   |   |   |   V3 = 1: 10 (5.0/2.0)
|   |   |   |   V3 = 2: 10 (5.0/2.0)
|   |   |   |   V3 = 3
|   |   |   |   |   V5 = 1: 9 (0.0)
|   |   |   |   |   V5 = 2: 9 (0.0)
|   |   |   |   |   V5 = 3: 9 (0.0)
|   |   |   |   |   V5 = 4: 14 (1.0)
|   |   |   |   |   V5 = 5: 14 (1.0)
|   |   |   |   |   V5 = 6: 10 (1.0)
|   |   |   |   |   V5 = 7: 9 (1.0)
|   |   |   |   |   V5 = 8: 9 (1.0)
|   |   |   |   V3 = 4: 13 (5.0/2.0)
|   |   |   |   V3 = 5
|   |   |   |   |   V5 = 1: 12 (0.0)
|   |   |   |   |   V5 = 2: 12 (0.0)
|   |   |   |   |   V5 = 3: 12 (0.0)
|   |   |   |   |   V5 = 4: 14 (1.0)
|   |   |   |   |   V5 = 5: 14 (1.0)
|   |   |   |   |   V5 = 6: 12 (1.0)
|   |   |   |   |   V5 = 7: 12 (1.0)
|   |   |   |   |   V5 = 8: 10 (1.0)
|   |   |   |   V3 = 6: 13 (5.0/2.0)
|   |   |   |   V3 = 7: 12 (5.0/2.0)
|   |   |   |   V3 = 8: 12 (5.0/2.0)
|   |   |   V4 = 8
|   |   |   |   V3 = 1: 10 (5.0/2.0)
|   |   |   |   V3 = 2: 10 (5.0/2.0)
|   |   |   |   V3 = 3
|   |   |   |   |   V5 = 1: 9 (0.0)
|   |   |   |   |   V5 = 2: 9 (0.0)
|   |   |   |   |   V5 = 3: 9 (0.0)
|   |   |   |   |   V5 = 4: 14 (1.0)
|   |   |   |   |   V5 = 5: 14 (1.0)
|   |   |   |   |   V5 = 6: 10 (1.0)
|   |   |   |   |   V5 = 7: 9 (1.0)
|   |   |   |   |   V5 = 8: 9 (1.0)
|   |   |   |   V3 = 4: 13 (5.0/2.0)
|   |   |   |   V3 = 5
|   |   |   |   |   V5 = 1: 12 (0.0)
|   |   |   |   |   V5 = 2: 12 (0.0)
|   |   |   |   |   V5 = 3: 12 (0.0)
|   |   |   |   |   V5 = 4: 14 (1.0)
|   |   |   |   |   V5 = 5: 14 (1.0)
|   |   |   |   |   V5 = 6: 12 (1.0)
|   |   |   |   |   V5 = 7: 12 (1.0)
|   |   |   |   |   V5 = 8: 10 (1.0)
|   |   |   |   V3 = 6: 13 (5.0/2.0)
|   |   |   |   V3 = 7: 12 (5.0/2.0)
|   |   |   |   V3 = 8: 12 (5.0/2.0)
|   |   V1 = 3
|   |   |   V5 = 1
|   |   |   |   V3 = 1: 0 (7.0/1.0)
|   |   |   |   V3 = 2: 7 (8.0/4.0)
|   |   |   |   V3 = 3: 2 (7.0/1.0)
|   |   |   |   V3 = 4: 2 (8.0/1.0)
|   |   |   |   V3 = 5: 2 (8.0/1.0)
|   |   |   |   V3 = 6: 2 (8.0/1.0)
|   |   |   |   V3 = 7: 2 (8.0/1.0)
|   |   |   |   V3 = 8: 2 (8.0/1.0)
|   |   |   V5 = 2: 8 (0.0)
|   |   |   V5 = 3: 8 (0.0)
|   |   |   V5 = 4: 8 (0.0)
|   |   |   V5 = 5
|   |   |   |   V3 = 1: 9 (8.0/3.0)
|   |   |   |   V3 = 2: 9 (8.0/3.0)
|   |   |   |   V3 = 3: 9 (7.0/3.0)
|   |   |   |   V3 = 4: 12 (8.0/3.0)
|   |   |   |   V3 = 5: 11 (7.0/3.0)
|   |   |   |   V3 = 6: 13 (8.0/4.0)
|   |   |   |   V3 = 7: 12 (8.0/4.0)
|   |   |   |   V3 = 8: 9 (8.0/2.0)
|   |   |   V5 = 6
|   |   |   |   V3 = 1: 9 (8.0/3.0)
|   |   |   |   V3 = 2: 9 (8.0/3.0)
|   |   |   |   V3 = 3: 9 (7.0/3.0)
|   |   |   |   V3 = 4: 12 (8.0/3.0)
|   |   |   |   V3 = 5: 11 (8.0/4.0)
|   |   |   |   V3 = 6: 13 (7.0/3.0)
|   |   |   |   V3 = 7
|   |   |   |   |   V4 = 1: 17 (1.0)
|   |   |   |   |   V4 = 2: 17 (1.0)
|   |   |   |   |   V4 = 3: 8 (1.0)
|   |   |   |   |   V4 = 4: 9 (1.0)
|   |   |   |   |   V4 = 5: 11 (1.0)
|   |   |   |   |   V4 = 6: 12 (1.0)
|   |   |   |   |   V4 = 7: 12 (1.0)
|   |   |   |   |   V4 = 8: 12 (1.0)
|   |   |   |   V3 = 8: 10 (8.0/3.0)
|   |   |   V5 = 7
|   |   |   |   V3 = 1: 9 (8.0/3.0)
|   |   |   |   V3 = 2: 9 (8.0/3.0)
|   |   |   |   V3 = 3: 9 (7.0/3.0)
|   |   |   |   V3 = 4: 8 (8.0/2.0)
|   |   |   |   V3 = 5: 11 (8.0/3.0)
|   |   |   |   V3 = 6: 10 (8.0/5.0)
|   |   |   |   V3 = 7: 12 (7.0/4.0)
|   |   |   |   V3 = 8: 10 (8.0/4.0)
|   |   |   V5 = 8: 8 (62.0/27.0)
|   |   V1 = 4
|   |   |   V5 = 1: 5 (62.0/30.0)
|   |   |   V5 = 2: 5 (62.0/29.0)
|   |   |   V5 = 3: 6 (0.0)
|   |   |   V5 = 4: 6 (0.0)
|   |   |   V5 = 5: 6 (0.0)
|   |   |   V5 = 6: 6 (62.0/31.0)
|   |   |   V5 = 7: 6 (62.0/32.0)
|   |   |   V5 = 8: 6 (62.0/31.0)
|   V6 = 2
|   |   V5 = 1
|   |   |   V4 = 1
|   |   |   |   V1 = 1: 8 (0.0)
|   |   |   |   V1 = 2: 8 (0.0)
|   |   |   |   V1 = 3: 12 (7.0/3.0)
|   |   |   |   V1 = 4: 8 (7.0/3.0)
|   |   |   V4 = 2
|   |   |   |   V1 = 1: 11 (0.0)
|   |   |   |   V1 = 2: 11 (0.0)
|   |   |   |   V1 = 3: 11 (7.0/2.0)
|   |   |   |   V1 = 4: 8 (7.0/3.0)
|   |   |   V4 = 3
|   |   |   |   V1 = 1: 1 (0.0)
|   |   |   |   V1 = 2: 1 (0.0)
|   |   |   |   V1 = 3: 1 (8.0/2.0)
|   |   |   |   V1 = 4: 4 (8.0/3.0)
|   |   |   V4 = 4: 5 (16.0/6.0)
|   |   |   V4 = 5
|   |   |   |   V3 = 1: 12 (2.0)
|   |   |   |   V3 = 2: 9 (2.0)
|   |   |   |   V3 = 3: 11 (2.0)
|   |   |   |   V3 = 4: 12 (2.0)
|   |   |   |   V3 = 5
|   |   |   |   |   V1 = 1: 8 (0.0)
|   |   |   |   |   V1 = 2: 8 (0.0)
|   |   |   |   |   V1 = 3: 10 (1.0)
|   |   |   |   |   V1 = 4: 8 (1.0)
|   |   |   |   V3 = 6
|   |   |   |   |   V1 = 1: 8 (0.0)
|   |   |   |   |   V1 = 2: 8 (0.0)
|   |   |   |   |   V1 = 3: 10 (1.0)
|   |   |   |   |   V1 = 4: 8 (1.0)
|   |   |   |   V3 = 7
|   |   |   |   |   V1 = 1: 8 (0.0)
|   |   |   |   |   V1 = 2: 8 (0.0)
|   |   |   |   |   V1 = 3: 10 (1.0)
|   |   |   |   |   V1 = 4: 8 (1.0)
|   |   |   |   V3 = 8
|   |   |   |   |   V1 = 1: 8 (0.0)
|   |   |   |   |   V1 = 2: 8 (0.0)
|   |   |   |   |   V1 = 3: 10 (1.0)
|   |   |   |   |   V1 = 4: 8 (1.0)
|   |   |   V4 = 6
|   |   |   |   V1 = 1: 12 (0.0)
|   |   |   |   V1 = 2: 12 (0.0)
|   |   |   |   V1 = 3: 12 (8.0/2.0)
|   |   |   |   V1 = 4: 8 (8.0/4.0)
|   |   |   V4 = 7: 11 (16.0/6.0)
|   |   |   V4 = 8
|   |   |   |   V1 = 1: 11 (0.0)
|   |   |   |   V1 = 2: 11 (0.0)
|   |   |   |   V1 = 3: 11 (8.0/1.0)
|   |   |   |   V1 = 4: 8 (8.0/3.0)
|   |   V5 = 2
|   |   |   V3 = 1: 12 (8.0/4.0)
|   |   |   V3 = 2
|   |   |   |   V4 = 1: 17 (1.0)
|   |   |   |   V4 = 2: 13 (0.0)
|   |   |   |   V4 = 3: 17 (1.0)
|   |   |   |   V4 = 4: 11 (1.0)
|   |   |   |   V4 = 5: 14 (1.0)
|   |   |   |   V4 = 6: 14 (1.0)
|   |   |   |   V4 = 7: 13 (1.0)
|   |   |   |   V4 = 8: 13 (1.0)
|   |   |   V3 = 3: 11 (8.0/2.0)
|   |   |   V3 = 4: 13 (7.0/3.0)
|   |   |   V3 = 5: 11 (8.0/2.0)
|   |   |   V3 = 6: 11 (8.0/2.0)
|   |   |   V3 = 7: 11 (8.0/2.0)
|   |   |   V3 = 8: 11 (8.0/2.0)
|   |   V5 = 3
|   |   |   V3 = 1: 14 (7.0/3.0)
|   |   |   V3 = 2: 15 (8.0/3.0)
|   |   |   V3 = 3: 16 (7.0/4.0)
|   |   |   V3 = 4
|   |   |   |   V4 = 1: 17 (1.0)
|   |   |   |   V4 = 2: 17 (1.0)
|   |   |   |   V4 = 3: 17 (1.0)
|   |   |   |   V4 = 4: 14 (1.0)
|   |   |   |   V4 = 5: 14 (1.0)
|   |   |   |   V4 = 6: 13 (1.0)
|   |   |   |   V4 = 7: 13 (1.0)
|   |   |   |   V4 = 8: 12 (1.0)
|   |   |   V3 = 5: 15 (8.0/3.0)
|   |   |   V3 = 6: 14 (8.0/2.0)
|   |   |   V3 = 7: 14 (8.0/2.0)
|   |   |   V3 = 8: 14 (8.0/2.0)
|   |   V5 = 4
|   |   |   V4 = 1
|   |   |   |   V3 = 1: 14 (1.0)
|   |   |   |   V3 = 2: 15 (1.0)
|   |   |   |   V3 = 3
|   |   |   |   |   V1 = 1: 17 (1.0)
|   |   |   |   |   V1 = 2: 15 (1.0)
|   |   |   |   |   V1 = 3: 15 (0.0)
|   |   |   |   |   V1 = 4: 15 (0.0)
|   |   |   |   V3 = 4: 17 (2.0)
|   |   |   |   V3 = 5: 17 (2.0)
|   |   |   |   V3 = 6: 15 (2.0)
|   |   |   |   V3 = 7: 14 (2.0)
|   |   |   |   V3 = 8
|   |   |   |   |   V1 = 1: 14 (1.0)
|   |   |   |   |   V1 = 2: 13 (1.0)
|   |   |   |   |   V1 = 3: 13 (0.0)
|   |   |   |   |   V1 = 4: 13 (0.0)
|   |   |   V4 = 2
|   |   |   |   V3 = 1: 14 (2.0)
|   |   |   |   V3 = 2
|   |   |   |   |   V1 = 1: 16 (1.0)
|   |   |   |   |   V1 = 2: 15 (1.0)
|   |   |   |   |   V1 = 3: 15 (0.0)
|   |   |   |   |   V1 = 4: 15 (0.0)
|   |   |   |   V3 = 3
|   |   |   |   |   V1 = 1: 17 (1.0)
|   |   |   |   |   V1 = 2: 16 (1.0)
|   |   |   |   |   V1 = 3: 16 (0.0)
|   |   |   |   |   V1 = 4: 16 (0.0)
|   |   |   |   V3 = 4: 14 (0.0)
|   |   |   |   V3 = 5: 17 (2.0)
|   |   |   |   V3 = 6: 16 (2.0)
|   |   |   |   V3 = 7: 14 (2.0)
|   |   |   |   V3 = 8
|   |   |   |   |   V1 = 1: 14 (1.0)
|   |   |   |   |   V1 = 2: 13 (1.0)
|   |   |   |   |   V1 = 3: 13 (0.0)
|   |   |   |   |   V1 = 4: 13 (0.0)
|   |   |   V4 = 3
|   |   |   |   V3 = 1
|   |   |   |   |   V1 = 1: 11 (1.0)
|   |   |   |   |   V1 = 2: 8 (1.0)
|   |   |   |   |   V1 = 3: 8 (0.0)
|   |   |   |   |   V1 = 4: 8 (0.0)
|   |   |   |   V3 = 2
|   |   |   |   |   V1 = 1: 10 (1.0)
|   |   |   |   |   V1 = 2: 8 (1.0)
|   |   |   |   |   V1 = 3: 8 (0.0)
|   |   |   |   |   V1 = 4: 8 (0.0)
|   |   |   |   V3 = 3: 17 (2.0)
|   |   |   |   V3 = 4: 17 (2.0)
|   |   |   |   V3 = 5: 17 (2.0)
|   |   |   |   V3 = 6
|   |   |   |   |   V1 = 1: 11 (1.0)
|   |   |   |   |   V1 = 2: 10 (1.0)
|   |   |   |   |   V1 = 3: 10 (0.0)
|   |   |   |   |   V1 = 4: 10 (0.0)
|   |   |   |   V3 = 7
|   |   |   |   |   V1 = 1: 10 (1.0)
|   |   |   |   |   V1 = 2: 9 (1.0)
|   |   |   |   |   V1 = 3: 9 (0.0)
|   |   |   |   |   V1 = 4: 9 (0.0)
|   |   |   |   V3 = 8
|   |   |   |   |   V1 = 1: 10 (1.0)
|   |   |   |   |   V1 = 2: 9 (1.0)
|   |   |   |   |   V1 = 3: 9 (0.0)
|   |   |   |   |   V1 = 4: 9 (0.0)
|   |   |   V4 = 4: 13 (16.0/6.0)
|   |   |   V4 = 5
|   |   |   |   V3 = 1: 14 (2.0)
|   |   |   |   V3 = 2
|   |   |   |   |   V1 = 1: 15 (1.0)
|   |   |   |   |   V1 = 2: 14 (1.0)
|   |   |   |   |   V1 = 3: 14 (0.0)
|   |   |   |   |   V1 = 4: 14 (0.0)
|   |   |   |   V3 = 3: 15 (2.0)
|   |   |   |   V3 = 4
|   |   |   |   |   V1 = 1: 15 (1.0)
|   |   |   |   |   V1 = 2: 14 (1.0)
|   |   |   |   |   V1 = 3: 14 (0.0)
|   |   |   |   |   V1 = 4: 14 (0.0)
|   |   |   |   V3 = 5: 15 (2.0)
|   |   |   |   V3 = 6: 15 (2.0)
|   |   |   |   V3 = 7: 14 (2.0)
|   |   |   |   V3 = 8
|   |   |   |   |   V1 = 1: 14 (1.0)
|   |   |   |   |   V1 = 2: 13 (1.0)
|   |   |   |   |   V1 = 3: 13 (0.0)
|   |   |   |   |   V1 = 4: 13 (0.0)
|   |   |   V4 = 6
|   |   |   |   V3 = 1: 14 (2.0)
|   |   |   |   V3 = 2
|   |   |   |   |   V1 = 1: 15 (1.0)
|   |   |   |   |   V1 = 2: 14 (1.0)
|   |   |   |   |   V1 = 3: 14 (0.0)
|   |   |   |   |   V1 = 4: 14 (0.0)
|   |   |   |   V3 = 3: 16 (2.0)
|   |   |   |   V3 = 4: 15 (2.0)
|   |   |   |   V3 = 5: 15 (2.0)
|   |   |   |   V3 = 6: 16 (2.0)
|   |   |   |   V3 = 7: 14 (2.0)
|   |   |   |   V3 = 8
|   |   |   |   |   V1 = 1: 14 (1.0)
|   |   |   |   |   V1 = 2: 13 (1.0)
|   |   |   |   |   V1 = 3: 13 (0.0)
|   |   |   |   |   V1 = 4: 13 (0.0)
|   |   |   V4 = 7
|   |   |   |   V3 = 1: 14 (2.0)
|   |   |   |   V3 = 2
|   |   |   |   |   V1 = 1: 15 (1.0)
|   |   |   |   |   V1 = 2: 14 (1.0)
|   |   |   |   |   V1 = 3: 14 (0.0)
|   |   |   |   |   V1 = 4: 14 (0.0)
|   |   |   |   V3 = 3
|   |   |   |   |   V1 = 1: 16 (1.0)
|   |   |   |   |   V1 = 2: 15 (1.0)
|   |   |   |   |   V1 = 3: 15 (0.0)
|   |   |   |   |   V1 = 4: 15 (0.0)
|   |   |   |   V3 = 4: 15 (2.0)
|   |   |   |   V3 = 5: 15 (2.0)
|   |   |   |   V3 = 6
|   |   |   |   |   V1 = 1: 16 (1.0)
|   |   |   |   |   V1 = 2: 15 (1.0)
|   |   |   |   |   V1 = 3: 15 (0.0)
|   |   |   |   |   V1 = 4: 15 (0.0)
|   |   |   |   V3 = 7: 14 (2.0)
|   |   |   |   V3 = 8
|   |   |   |   |   V1 = 1: 14 (1.0)
|   |   |   |   |   V1 = 2: 13 (1.0)
|   |   |   |   |   V1 = 3: 13 (0.0)
|   |   |   |   |   V1 = 4: 13 (0.0)
|   |   |   V4 = 8: 14 (16.0/8.0)
|   |   V5 = 5
|   |   |   V3 = 1: 14 (23.0/12.0)
|   |   |   V3 = 2
|   |   |   |   V1 = 1: 15 (8.0/2.0)
|   |   |   |   V1 = 2: 14 (7.0/2.0)
|   |   |   |   V1 = 3: 13 (8.0/2.0)
|   |   |   |   V1 = 4: 13 (0.0)
|   |   |   V3 = 3: 15 (23.0/14.0)
|   |   |   V3 = 4: 15 (24.0/12.0)
|   |   |   V3 = 5: 15 (21.0/14.0)
|   |   |   V3 = 6: 17 (24.0/15.0)
|   |   |   V3 = 7: 14 (24.0/15.0)
|   |   |   V3 = 8: 13 (24.0/12.0)
|   |   V5 = 6
|   |   |   V3 = 1
|   |   |   |   V1 = 1: 13 (7.0/2.0)
|   |   |   |   V1 = 2: 12 (8.0/2.0)
|   |   |   |   V1 = 3: 11 (8.0/2.0)
|   |   |   |   V1 = 4: 12 (8.0/2.0)
|   |   |   V3 = 2
|   |   |   |   V1 = 1: 13 (8.0/2.0)
|   |   |   |   V1 = 2: 12 (7.0/2.0)
|   |   |   |   V1 = 3: 12 (8.0/2.0)
|   |   |   |   V1 = 4: 11 (8.0/2.0)
|   |   |   V3 = 3
|   |   |   |   V1 = 1: 14 (8.0/2.0)
|   |   |   |   V1 = 2: 14 (8.0/2.0)
|   |   |   |   V1 = 3: 13 (7.0/2.0)
|   |   |   |   V1 = 4: 11 (8.0/2.0)
|   |   |   V3 = 4: 15 (31.0/16.0)
|   |   |   V3 = 5
|   |   |   |   V4 = 1: 17 (4.0/1.0)
|   |   |   |   V4 = 2: 17 (4.0/1.0)
|   |   |   |   V4 = 3: 17 (4.0)
|   |   |   |   V4 = 4: 10 (4.0/2.0)
|   |   |   |   V4 = 5: 13 (4.0/1.0)
|   |   |   |   V4 = 6: 13 (4.0/1.0)
|   |   |   |   V4 = 7: 13 (4.0/1.0)
|   |   |   |   V4 = 8: 13 (4.0)
|   |   |   V3 = 6
|   |   |   |   V4 = 1: 17 (4.0)
|   |   |   |   V4 = 2: 17 (0.0)
|   |   |   |   V4 = 3: 17 (4.0)
|   |   |   |   V4 = 4: 11 (4.0/2.0)
|   |   |   |   V4 = 5: 14 (4.0/2.0)
|   |   |   |   V4 = 6: 16 (4.0/2.0)
|   |   |   |   V4 = 7: 15 (4.0/2.0)
|   |   |   |   V4 = 8: 15 (4.0/2.0)
|   |   |   V3 = 7
|   |   |   |   V4 = 1: 17 (4.0)
|   |   |   |   V4 = 2: 17 (4.0)
|   |   |   |   V4 = 3: 17 (4.0)
|   |   |   |   V4 = 4: 11 (4.0/1.0)
|   |   |   |   V4 = 5: 14 (4.0)
|   |   |   |   V4 = 6: 15 (4.0/2.0)
|   |   |   |   V4 = 7: 14 (4.0/2.0)
|   |   |   |   V4 = 8: 14 (4.0/2.0)
|   |   |   V3 = 8
|   |   |   |   V4 = 1: 12 (4.0/2.0)
|   |   |   |   V4 = 2: 14 (4.0/1.0)
|   |   |   |   V4 = 3
|   |   |   |   |   V1 = 1: 10 (1.0)
|   |   |   |   |   V1 = 2: 9 (1.0)
|   |   |   |   |   V1 = 3: 8 (1.0)
|   |   |   |   |   V1 = 4: 7 (1.0)
|   |   |   |   V4 = 4: 10 (4.0/2.0)
|   |   |   |   V4 = 5: 12 (4.0/1.0)
|   |   |   |   V4 = 6: 13 (4.0/2.0)
|   |   |   |   V4 = 7: 12 (4.0/2.0)
|   |   |   |   V4 = 8: 12 (4.0/2.0)
|   |   V5 = 7
|   |   |   V3 = 1
|   |   |   |   V1 = 1: 13 (7.0/2.0)
|   |   |   |   V1 = 2: 11 (8.0/2.0)
|   |   |   |   V1 = 3: 10 (8.0/2.0)
|   |   |   |   V1 = 4: 10 (8.0/2.0)
|   |   |   V3 = 2
|   |   |   |   V1 = 1: 13 (8.0/2.0)
|   |   |   |   V1 = 2: 11 (7.0/2.0)
|   |   |   |   V1 = 3: 10 (8.0/2.0)
|   |   |   |   V1 = 4: 10 (8.0/2.0)
|   |   |   V3 = 3
|   |   |   |   V1 = 1: 13 (8.0/2.0)
|   |   |   |   V1 = 2: 11 (8.0/2.0)
|   |   |   |   V1 = 3: 10 (7.0/2.0)
|   |   |   |   V1 = 4: 10 (8.0/2.0)
|   |   |   V3 = 4
|   |   |   |   V1 = 1: 13 (8.0/2.0)
|   |   |   |   V1 = 2: 13 (8.0/2.0)
|   |   |   |   V1 = 3: 12 (8.0/2.0)
|   |   |   |   V1 = 4: 12 (7.0/2.0)
|   |   |   V3 = 5: 13 (32.0/14.0)
|   |   |   V3 = 6
|   |   |   |   V4 = 1: 17 (4.0)
|   |   |   |   V4 = 2: 17 (4.0)
|   |   |   |   V4 = 3: 17 (4.0)
|   |   |   |   V4 = 4
|   |   |   |   |   V1 = 1: 12 (1.0)
|   |   |   |   |   V1 = 2: 11 (1.0)
|   |   |   |   |   V1 = 3: 9 (1.0)
|   |   |   |   |   V1 = 4: 8 (1.0)
|   |   |   |   V4 = 5: 11 (4.0/2.0)
|   |   |   |   V4 = 6: 11 (4.0/2.0)
|   |   |   |   V4 = 7: 11 (4.0/1.0)
|   |   |   |   V4 = 8: 11 (4.0/1.0)
|   |   |   V3 = 7
|   |   |   |   V4 = 1: 17 (4.0)
|   |   |   |   V4 = 2: 14 (0.0)
|   |   |   |   V4 = 3: 17 (4.0)
|   |   |   |   V4 = 4: 10 (4.0/2.0)
|   |   |   |   V4 = 5: 14 (4.0)
|   |   |   |   V4 = 6: 15 (4.0/2.0)
|   |   |   |   V4 = 7: 14 (4.0/2.0)
|   |   |   |   V4 = 8: 14 (4.0/2.0)
|   |   |   V3 = 8
|   |   |   |   V4 = 1: 17 (4.0)
|   |   |   |   V4 = 2: 17 (4.0)
|   |   |   |   V4 = 3: 17 (4.0)
|   |   |   |   V4 = 4: 9 (4.0/2.0)
|   |   |   |   V4 = 5: 12 (4.0/1.0)
|   |   |   |   V4 = 6: 13 (4.0/2.0)
|   |   |   |   V4 = 7: 12 (4.0/2.0)
|   |   |   |   V4 = 8: 12 (4.0/2.0)
|   |   V5 = 8
|   |   |   V1 = 1
|   |   |   |   V3 = 1: 12 (7.0/2.0)
|   |   |   |   V3 = 2: 12 (8.0/2.0)
|   |   |   |   V3 = 3: 12 (8.0/2.0)
|   |   |   |   V3 = 4: 12 (8.0/2.0)
|   |   |   |   V3 = 5: 14 (8.0/3.0)
|   |   |   |   V3 = 6: 13 (8.0/3.0)
|   |   |   |   V3 = 7: 11 (8.0/4.0)
|   |   |   |   V3 = 8: 14 (7.0/4.0)
|   |   |   V1 = 2
|   |   |   |   V3 = 1: 11 (8.0/2.0)
|   |   |   |   V3 = 2: 11 (7.0/2.0)
|   |   |   |   V3 = 3: 11 (8.0/2.0)
|   |   |   |   V3 = 4: 11 (8.0/2.0)
|   |   |   |   V3 = 5: 12 (8.0/2.0)
|   |   |   |   V3 = 6: 12 (8.0/4.0)
|   |   |   |   V3 = 7
|   |   |   |   |   V4 = 1: 17 (1.0)
|   |   |   |   |   V4 = 2: 17 (1.0)
|   |   |   |   |   V4 = 3: 17 (1.0)
|   |   |   |   |   V4 = 4: 10 (1.0)
|   |   |   |   |   V4 = 5: 10 (1.0)
|   |   |   |   |   V4 = 6: 9 (1.0)
|   |   |   |   |   V4 = 7: 9 (1.0)
|   |   |   |   |   V4 = 8: 8 (1.0)
|   |   |   |   V3 = 8: 13 (7.0/4.0)
|   |   |   V1 = 3
|   |   |   |   V3 = 1: 9 (8.0/2.0)
|   |   |   |   V3 = 2: 9 (8.0/2.0)
|   |   |   |   V3 = 3: 9 (7.0/2.0)
|   |   |   |   V3 = 4: 9 (8.0/2.0)
|   |   |   |   V3 = 5: 11 (8.0/2.0)
|   |   |   |   V3 = 6: 11 (8.0/3.0)
|   |   |   |   V3 = 7: 9 (8.0/4.0)
|   |   |   |   V3 = 8: 12 (7.0/4.0)
|   |   |   V1 = 4
|   |   |   |   V3 = 1: 8 (8.0/2.0)
|   |   |   |   V3 = 2: 8 (8.0/2.0)
|   |   |   |   V3 = 3: 8 (8.0/2.0)
|   |   |   |   V3 = 4: 8 (7.0/2.0)
|   |   |   |   V3 = 5: 11 (8.0/2.0)
|   |   |   |   V3 = 6: 11 (8.0/2.0)
|   |   |   |   V3 = 7
|   |   |   |   |   V4 = 1: 17 (1.0)
|   |   |   |   |   V4 = 2: 17 (1.0)
|   |   |   |   |   V4 = 3: 17 (1.0)
|   |   |   |   |   V4 = 4: 7 (1.0)
|   |   |   |   |   V4 = 5: 9 (1.0)
|   |   |   |   |   V4 = 6: 9 (1.0)
|   |   |   |   |   V4 = 7: 9 (1.0)
|   |   |   |   |   V4 = 8: 8 (1.0)
|   |   |   |   V3 = 8: 12 (7.0/3.0)
|   V6 = 3
|   |   V4 = 1
|   |   |   V5 = 1
|   |   |   |   V1 = 1: 13 (0.0)
|   |   |   |   V1 = 2: 12 (7.0/2.0)
|   |   |   |   V1 = 3: 13 (7.0/2.0)
|   |   |   |   V1 = 4: 13 (7.0/3.0)
|   |   |   V5 = 2
|   |   |   |   V1 = 1: 14 (0.0)
|   |   |   |   V1 = 2: 13 (7.0/3.0)
|   |   |   |   V1 = 3: 14 (7.0/2.0)
|   |   |   |   V1 = 4: 14 (7.0/1.0)
|   |   |   V5 = 3
|   |   |   |   V1 = 1: 15 (7.0/1.0)
|   |   |   |   V1 = 2: 15 (7.0/3.0)
|   |   |   |   V1 = 3: 14 (7.0/2.0)
|   |   |   |   V1 = 4: 14 (7.0/1.0)
|   |   |   V5 = 4: 15 (28.0/11.0)
|   |   |   V5 = 5
|   |   |   |   V1 = 1: 15 (7.0)
|   |   |   |   V1 = 2: 15 (7.0/2.0)
|   |   |   |   V1 = 3: 14 (7.0/2.0)
|   |   |   |   V1 = 4: 14 (7.0/2.0)
|   |   |   V5 = 6
|   |   |   |   V3 = 1: 14 (3.0)
|   |   |   |   V3 = 2: 14 (3.0/1.0)
|   |   |   |   V3 = 3: 15 (3.0)
|   |   |   |   V3 = 4: 15 (3.0)
|   |   |   |   V3 = 5: 13 (4.0/1.0)
|   |   |   |   V3 = 6: 15 (4.0/1.0)
|   |   |   |   V3 = 7: 14 (4.0/1.0)
|   |   |   |   V3 = 8: 14 (4.0/1.0)
|   |   |   V5 = 7
|   |   |   |   V1 = 1: 15 (7.0/2.0)
|   |   |   |   V1 = 2: 14 (7.0/2.0)
|   |   |   |   V1 = 3: 14 (7.0/2.0)
|   |   |   |   V1 = 4: 14 (7.0/2.0)
|   |   |   V5 = 8
|   |   |   |   V3 = 1: 13 (3.0)
|   |   |   |   V3 = 2: 13 (3.0/1.0)
|   |   |   |   V3 = 3
|   |   |   |   |   V1 = 1: 14 (1.0)
|   |   |   |   |   V1 = 2: 12 (1.0)
|   |   |   |   |   V1 = 3: 12 (0.0)
|   |   |   |   |   V1 = 4: 13 (1.0)
|   |   |   |   V3 = 4: 12 (3.0/1.0)
|   |   |   |   V3 = 5: 12 (4.0/1.0)
|   |   |   |   V3 = 6: 11 (4.0/2.0)
|   |   |   |   V3 = 7: 9 (4.0/2.0)
|   |   |   |   V3 = 8: 12 (4.0/2.0)
|   |   V4 = 2
|   |   |   V5 = 1
|   |   |   |   V1 = 1: 12 (0.0)
|   |   |   |   V1 = 2: 12 (8.0/2.0)
|   |   |   |   V1 = 3: 11 (8.0/3.0)
|   |   |   |   V1 = 4: 12 (8.0/3.0)
|   |   |   V5 = 2
|   |   |   |   V3 = 1: 17 (3.0/1.0)
|   |   |   |   V3 = 2
|   |   |   |   |   V1 = 1: 14 (0.0)
|   |   |   |   |   V1 = 2: 15 (1.0)
|   |   |   |   |   V1 = 3: 14 (1.0)
|   |   |   |   |   V1 = 4: 17 (1.0)
|   |   |   |   V3 = 3
|   |   |   |   |   V1 = 1: 9 (0.0)
|   |   |   |   |   V1 = 2: 9 (1.0)
|   |   |   |   |   V1 = 3: 10 (1.0)
|   |   |   |   |   V1 = 4: 11 (1.0)
|   |   |   |   V3 = 4: 12 (3.0/1.0)
|   |   |   |   V3 = 5: 14 (3.0/1.0)
|   |   |   |   V3 = 6: 13 (3.0/1.0)
|   |   |   |   V3 = 7: 13 (3.0/1.0)
|   |   |   |   V3 = 8: 13 (3.0/1.0)
|   |   |   V5 = 3
|   |   |   |   V1 = 1: 16 (7.0/4.0)
|   |   |   |   V1 = 2: 15 (8.0/4.0)
|   |   |   |   V1 = 3: 14 (8.0/3.0)
|   |   |   |   V1 = 4: 14 (8.0/4.0)
|   |   |   V5 = 4
|   |   |   |   V1 = 1: 16 (8.0/4.0)
|   |   |   |   V1 = 2: 15 (8.0/4.0)
|   |   |   |   V1 = 3: 15 (8.0/3.0)
|   |   |   |   V1 = 4: 14 (8.0/3.0)
|   |   |   V5 = 5
|   |   |   |   V1 = 1: 16 (8.0/4.0)
|   |   |   |   V1 = 2: 15 (8.0/4.0)
|   |   |   |   V1 = 3: 15 (8.0/4.0)
|   |   |   |   V1 = 4: 14 (8.0/2.0)
|   |   |   V5 = 6
|   |   |   |   V3 = 1: 14 (4.0/2.0)
|   |   |   |   V3 = 2: 15 (4.0/2.0)
|   |   |   |   V3 = 3: 15 (4.0/2.0)
|   |   |   |   V3 = 4: 15 (4.0/2.0)
|   |   |   |   V3 = 5: 17 (4.0/1.0)
|   |   |   |   V3 = 6: 17 (4.0)
|   |   |   |   V3 = 7: 17 (4.0)
|   |   |   |   V3 = 8: 14 (4.0/2.0)
|   |   |   V5 = 7
|   |   |   |   V3 = 1: 14 (4.0/1.0)
|   |   |   |   V3 = 2: 14 (4.0/2.0)
|   |   |   |   V3 = 3: 14 (4.0/2.0)
|   |   |   |   V3 = 4: 14 (4.0/2.0)
|   |   |   |   V3 = 5: 13 (4.0/2.0)
|   |   |   |   V3 = 6: 17 (4.0)
|   |   |   |   V3 = 7: 17 (4.0)
|   |   |   |   V3 = 8: 17 (4.0)
|   |   |   V5 = 8
|   |   |   |   V1 = 1: 14 (8.0/3.0)
|   |   |   |   V1 = 2: 13 (8.0/3.0)
|   |   |   |   V1 = 3: 13 (8.0/3.0)
|   |   |   |   V1 = 4: 12 (8.0/3.0)
|   |   V4 = 3
|   |   |   V1 = 1
|   |   |   |   V3 = 1: 15 (5.0/1.0)
|   |   |   |   V3 = 2: 16 (5.0/2.0)
|   |   |   |   V3 = 3: 16 (5.0/2.0)
|   |   |   |   V3 = 4
|   |   |   |   |   V5 = 1: 15 (0.0)
|   |   |   |   |   V5 = 2: 15 (0.0)
|   |   |   |   |   V5 = 3: 17 (1.0)
|   |   |   |   |   V5 = 4: 15 (0.0)
|   |   |   |   |   V5 = 5: 17 (1.0)
|   |   |   |   |   V5 = 6: 16 (1.0)
|   |   |   |   |   V5 = 7: 15 (1.0)
|   |   |   |   |   V5 = 8: 15 (1.0)
|   |   |   |   V3 = 5: 15 (5.0/2.0)
|   |   |   |   V3 = 6
|   |   |   |   |   V5 = 1: 16 (0.0)
|   |   |   |   |   V5 = 2: 16 (0.0)
|   |   |   |   |   V5 = 3: 16 (1.0)
|   |   |   |   |   V5 = 4: 16 (1.0)
|   |   |   |   |   V5 = 5: 17 (1.0)
|   |   |   |   |   V5 = 6: 16 (0.0)
|   |   |   |   |   V5 = 7: 17 (1.0)
|   |   |   |   |   V5 = 8: 14 (1.0)
|   |   |   |   V3 = 7: 16 (5.0/2.0)
|   |   |   |   V3 = 8: 16 (5.0/1.0)
|   |   |   V1 = 2
|   |   |   |   V5 = 1: 13 (7.0/3.0)
|   |   |   |   V5 = 2: 15 (7.0/4.0)
|   |   |   |   V5 = 3: 15 (7.0/3.0)
|   |   |   |   V5 = 4: 15 (7.0/3.0)
|   |   |   |   V5 = 5: 15 (7.0/3.0)
|   |   |   |   V5 = 6: 15 (7.0/2.0)
|   |   |   |   V5 = 7: 15 (7.0/4.0)
|   |   |   |   V5 = 8: 13 (7.0/2.0)
|   |   |   V1 = 3: 14 (56.0/31.0)
|   |   |   V1 = 4: 14 (56.0/30.0)
|   |   V4 = 4
|   |   |   V1 = 1
|   |   |   |   V5 = 1: 17 (0.0)
|   |   |   |   V5 = 2: 17 (0.0)
|   |   |   |   V5 = 3: 13 (5.0/1.0)
|   |   |   |   V5 = 4
|   |   |   |   |   V3 = 1: 13 (1.0)
|   |   |   |   |   V3 = 2: 14 (1.0)
|   |   |   |   |   V3 = 3: 17 (1.0)
|   |   |   |   |   V3 = 4: 17 (1.0)
|   |   |   |   |   V3 = 5: 17 (1.0)
|   |   |   |   |   V3 = 6: 13 (1.0)
|   |   |   |   |   V3 = 7: 13 (1.0)
|   |   |   |   |   V3 = 8: 12 (1.0)
|   |   |   |   V5 = 5
|   |   |   |   |   V3 = 1: 12 (1.0)
|   |   |   |   |   V3 = 2: 11 (1.0)
|   |   |   |   |   V3 = 3: 13 (1.0)
|   |   |   |   |   V3 = 4: 17 (1.0)
|   |   |   |   |   V3 = 5: 17 (1.0)
|   |   |   |   |   V3 = 6: 17 (1.0)
|   |   |   |   |   V3 = 7: 13 (1.0)
|   |   |   |   |   V3 = 8: 12 (1.0)
|   |   |   |   V5 = 6: 12 (8.0/3.0)
|   |   |   |   V5 = 7: 11 (8.0/4.0)
|   |   |   |   V5 = 8: 11 (8.0/4.0)
|   |   |   V1 = 2
|   |   |   |   V5 = 1: 12 (8.0/4.0)
|   |   |   |   V5 = 2
|   |   |   |   |   V3 = 1: 17 (1.0)
|   |   |   |   |   V3 = 2: 17 (1.0)
|   |   |   |   |   V3 = 3: 17 (1.0)
|   |   |   |   |   V3 = 4: 12 (1.0)
|   |   |   |   |   V3 = 5: 13 (1.0)
|   |   |   |   |   V3 = 6: 13 (1.0)
|   |   |   |   |   V3 = 7: 13 (1.0)
|   |   |   |   |   V3 = 8: 12 (1.0)
|   |   |   |   V5 = 3
|   |   |   |   |   V3 = 1: 13 (1.0)
|   |   |   |   |   V3 = 2: 17 (1.0)
|   |   |   |   |   V3 = 3: 17 (1.0)
|   |   |   |   |   V3 = 4: 17 (1.0)
|   |   |   |   |   V3 = 5: 13 (1.0)
|   |   |   |   |   V3 = 6: 12 (1.0)
|   |   |   |   |   V3 = 7: 12 (1.0)
|   |   |   |   |   V3 = 8: 12 (1.0)
|   |   |   |   V5 = 4: 13 (8.0/4.0)
|   |   |   |   V5 = 5
|   |   |   |   |   V3 = 1: 11 (1.0)
|   |   |   |   |   V3 = 2: 11 (1.0)
|   |   |   |   |   V3 = 3: 13 (1.0)
|   |   |   |   |   V3 = 4: 17 (1.0)
|   |   |   |   |   V3 = 5: 17 (1.0)
|   |   |   |   |   V3 = 6: 17 (1.0)
|   |   |   |   |   V3 = 7: 12 (1.0)
|   |   |   |   |   V3 = 8: 11 (1.0)
|   |   |   |   V5 = 6
|   |   |   |   |   V3 = 1: 10 (1.0)
|   |   |   |   |   V3 = 2: 10 (1.0)
|   |   |   |   |   V3 = 3: 10 (1.0)
|   |   |   |   |   V3 = 4: 12 (1.0)
|   |   |   |   |   V3 = 5: 17 (1.0)
|   |   |   |   |   V3 = 6: 17 (1.0)
|   |   |   |   |   V3 = 7: 17 (1.0)
|   |   |   |   |   V3 = 8: 11 (1.0)
|   |   |   |   V5 = 7: 10 (8.0/4.0)
|   |   |   |   V5 = 8: 9 (8.0/3.0)
|   |   |   V1 = 3
|   |   |   |   V5 = 1: 5 (8.0/3.0)
|   |   |   |   V5 = 2: 11 (8.0/4.0)
|   |   |   |   V5 = 3: 12 (8.0/4.0)
|   |   |   |   V5 = 4
|   |   |   |   |   V3 = 1: 12 (1.0)
|   |   |   |   |   V3 = 2: 12 (1.0)
|   |   |   |   |   V3 = 3: 17 (1.0)
|   |   |   |   |   V3 = 4: 17 (1.0)
|   |   |   |   |   V3 = 5: 17 (1.0)
|   |   |   |   |   V3 = 6: 11 (1.0)
|   |   |   |   |   V3 = 7: 11 (1.0)
|   |   |   |   |   V3 = 8: 11 (1.0)
|   |   |   |   V5 = 5
|   |   |   |   |   V3 = 1: 10 (1.0)
|   |   |   |   |   V3 = 2: 11 (1.0)
|   |   |   |   |   V3 = 3: 12 (1.0)
|   |   |   |   |   V3 = 4: 17 (1.0)
|   |   |   |   |   V3 = 5: 17 (1.0)
|   |   |   |   |   V3 = 6: 17 (1.0)
|   |   |   |   |   V3 = 7: 12 (1.0)
|   |   |   |   |   V3 = 8: 11 (1.0)
|   |   |   |   V5 = 6
|   |   |   |   |   V3 = 1: 9 (1.0)
|   |   |   |   |   V3 = 2: 9 (1.0)
|   |   |   |   |   V3 = 3: 9 (1.0)
|   |   |   |   |   V3 = 4: 11 (1.0)
|   |   |   |   |   V3 = 5: 17 (1.0)
|   |   |   |   |   V3 = 6: 17 (1.0)
|   |   |   |   |   V3 = 7: 17 (1.0)
|   |   |   |   |   V3 = 8: 10 (1.0)
|   |   |   |   V5 = 7: 8 (8.0/4.0)
|   |   |   |   V5 = 8: 8 (8.0/3.0)
|   |   |   V1 = 4
|   |   |   |   V5 = 1: 5 (8.0/3.0)
|   |   |   |   V5 = 2: 7 (8.0/4.0)
|   |   |   |   V5 = 3: 10 (8.0/4.0)
|   |   |   |   V5 = 4
|   |   |   |   |   V3 = 1: 9 (1.0)
|   |   |   |   |   V3 = 2: 11 (1.0)
|   |   |   |   |   V3 = 3: 17 (1.0)
|   |   |   |   |   V3 = 4: 17 (1.0)
|   |   |   |   |   V3 = 5: 17 (1.0)
|   |   |   |   |   V3 = 6: 11 (1.0)
|   |   |   |   |   V3 = 7: 11 (1.0)
|   |   |   |   |   V3 = 8: 10 (1.0)
|   |   |   |   V5 = 5: 10 (8.0/4.0)
|   |   |   |   V5 = 6
|   |   |   |   |   V3 = 1: 9 (1.0)
|   |   |   |   |   V3 = 2: 9 (1.0)
|   |   |   |   |   V3 = 3: 9 (1.0)
|   |   |   |   |   V3 = 4: 11 (1.0)
|   |   |   |   |   V3 = 5: 17 (1.0)
|   |   |   |   |   V3 = 6: 17 (1.0)
|   |   |   |   |   V3 = 7: 17 (1.0)
|   |   |   |   |   V3 = 8: 10 (1.0)
|   |   |   |   V5 = 7: 7 (8.0/4.0)
|   |   |   |   V5 = 8: 6 (8.0/3.0)
|   |   V4 = 5
|   |   |   V1 = 1: 15 (44.0/19.0)
|   |   |   V1 = 2
|   |   |   |   V5 = 1: 14 (8.0/3.0)
|   |   |   |   V5 = 2
|   |   |   |   |   V3 = 1: 14 (1.0)
|   |   |   |   |   V3 = 2: 15 (1.0)
|   |   |   |   |   V3 = 3: 11 (1.0)
|   |   |   |   |   V3 = 4: 13 (1.0)
|   |   |   |   |   V3 = 5: 14 (1.0)
|   |   |   |   |   V3 = 6: 15 (1.0)
|   |   |   |   |   V3 = 7: 15 (1.0)
|   |   |   |   |   V3 = 8: 14 (1.0)
|   |   |   |   V5 = 3: 15 (8.0/3.0)
|   |   |   |   V5 = 4: 15 (8.0/2.0)
|   |   |   |   V5 = 5: 15 (8.0/3.0)
|   |   |   |   V5 = 6: 15 (8.0/4.0)
|   |   |   |   V5 = 7: 12 (8.0/4.0)
|   |   |   |   V5 = 8: 11 (8.0/4.0)
|   |   |   V1 = 3
|   |   |   |   V5 = 1: 10 (8.0/4.0)
|   |   |   |   V5 = 2: 13 (8.0/3.0)
|   |   |   |   V5 = 3: 14 (8.0/2.0)
|   |   |   |   V5 = 4: 14 (8.0/2.0)
|   |   |   |   V5 = 5: 14 (8.0/2.0)
|   |   |   |   V5 = 6: 13 (8.0/4.0)
|   |   |   |   V5 = 7: 12 (8.0/4.0)
|   |   |   |   V5 = 8: 10 (8.0/4.0)
|   |   |   V1 = 4: 13 (64.0/37.0)
|   |   V4 = 6
|   |   |   V5 = 1: 12 (24.0/6.0)
|   |   |   V5 = 2: 14 (24.0/6.0)
|   |   |   V5 = 3
|   |   |   |   V3 = 1: 14 (3.0)
|   |   |   |   V3 = 2: 15 (3.0)
|   |   |   |   V3 = 3: 15 (3.0/1.0)
|   |   |   |   V3 = 4: 13 (3.0)
|   |   |   |   V3 = 5: 15 (3.0)
|   |   |   |   V3 = 6: 15 (4.0/2.0)
|   |   |   |   V3 = 7: 14 (4.0/2.0)
|   |   |   |   V3 = 8: 14 (4.0/2.0)
|   |   |   V5 = 4
|   |   |   |   V1 = 1: 16 (8.0/2.0)
|   |   |   |   V1 = 2: 15 (8.0/3.0)
|   |   |   |   V1 = 3: 15 (8.0/2.0)
|   |   |   |   V1 = 4: 15 (8.0/2.0)
|   |   |   V5 = 5
|   |   |   |   V1 = 1: 16 (8.0/2.0)
|   |   |   |   V1 = 2: 15 (8.0/3.0)
|   |   |   |   V1 = 3: 15 (8.0/2.0)
|   |   |   |   V1 = 4: 15 (8.0/2.0)
|   |   |   V5 = 6
|   |   |   |   V1 = 1: 16 (8.0/2.0)
|   |   |   |   V1 = 2: 15 (8.0/4.0)
|   |   |   |   V1 = 3: 15 (8.0/3.0)
|   |   |   |   V1 = 4: 15 (8.0/4.0)
|   |   |   V5 = 7
|   |   |   |   V1 = 1: 15 (8.0/4.0)
|   |   |   |   V1 = 2: 15 (8.0/3.0)
|   |   |   |   V1 = 3: 14 (8.0/3.0)
|   |   |   |   V1 = 4: 14 (8.0/2.0)
|   |   |   V5 = 8
|   |   |   |   V1 = 1: 14 (8.0/2.0)
|   |   |   |   V1 = 2: 13 (8.0/4.0)
|   |   |   |   V1 = 3: 13 (8.0/2.0)
|   |   |   |   V1 = 4: 13 (8.0/2.0)
|   |   V4 = 7
|   |   |   V5 = 1
|   |   |   |   V1 = 1: 12 (0.0)
|   |   |   |   V1 = 2: 11 (8.0/2.0)
|   |   |   |   V1 = 3: 12 (8.0/2.0)
|   |   |   |   V1 = 4: 12 (8.0/2.0)
|   |   |   V5 = 2
|   |   |   |   V1 = 1: 13 (0.0)
|   |   |   |   V1 = 2: 13 (8.0/2.0)
|   |   |   |   V1 = 3: 13 (8.0/2.0)
|   |   |   |   V1 = 4: 14 (8.0/2.0)
|   |   |   V5 = 3
|   |   |   |   V3 = 1: 14 (3.0)
|   |   |   |   V3 = 2: 15 (3.0)
|   |   |   |   V3 = 3: 15 (3.0)
|   |   |   |   V3 = 4: 12 (3.0)
|   |   |   |   V3 = 5: 14 (3.0/1.0)
|   |   |   |   V3 = 6: 15 (3.0)
|   |   |   |   V3 = 7: 14 (4.0/2.0)
|   |   |   |   V3 = 8: 14 (4.0/2.0)
|   |   |   V5 = 4: 15 (32.0/13.0)
|   |   |   V5 = 5: 15 (32.0/13.0)
|   |   |   V5 = 6
|   |   |   |   V1 = 1: 16 (8.0/3.0)
|   |   |   |   V1 = 2: 15 (8.0/1.0)
|   |   |   |   V1 = 3: 15 (8.0/3.0)
|   |   |   |   V1 = 4: 14 (8.0/4.0)
|   |   |   V5 = 7: 14 (32.0/13.0)
|   |   |   V5 = 8
|   |   |   |   V1 = 1: 14 (8.0/2.0)
|   |   |   |   V1 = 2: 13 (8.0/4.0)
|   |   |   |   V1 = 3: 12 (8.0/2.0)
|   |   |   |   V1 = 4: 12 (8.0/2.0)
|   |   V4 = 8
|   |   |   V5 = 1
|   |   |   |   V1 = 1: 12 (0.0)
|   |   |   |   V1 = 2: 11 (8.0/2.0)
|   |   |   |   V1 = 3: 12 (8.0/2.0)
|   |   |   |   V1 = 4: 12 (8.0/2.0)
|   |   |   V5 = 2
|   |   |   |   V1 = 1: 14 (0.0)
|   |   |   |   V1 = 2: 14 (8.0/2.0)
|   |   |   |   V1 = 3: 13 (8.0/2.0)
|   |   |   |   V1 = 4: 14 (8.0/2.0)
|   |   |   V5 = 3
|   |   |   |   V1 = 1: 15 (1.0)
|   |   |   |   V1 = 2: 15 (8.0/3.0)
|   |   |   |   V1 = 3: 14 (8.0/2.0)
|   |   |   |   V1 = 4: 14 (8.0/1.0)
|   |   |   V5 = 4
|   |   |   |   V1 = 1: 16 (8.0/3.0)
|   |   |   |   V1 = 2: 15 (8.0/2.0)
|   |   |   |   V1 = 3: 14 (8.0/3.0)
|   |   |   |   V1 = 4: 14 (8.0)
|   |   |   V5 = 5
|   |   |   |   V1 = 1: 16 (8.0/3.0)
|   |   |   |   V1 = 2: 15 (8.0/2.0)
|   |   |   |   V1 = 3: 14 (8.0/1.0)
|   |   |   |   V1 = 4: 14 (8.0)
|   |   |   V5 = 6
|   |   |   |   V1 = 1: 16 (8.0/3.0)
|   |   |   |   V1 = 2: 14 (8.0/3.0)
|   |   |   |   V1 = 3: 14 (8.0/3.0)
|   |   |   |   V1 = 4: 14 (8.0/1.0)
|   |   |   V5 = 7
|   |   |   |   V1 = 1: 15 (8.0/2.0)
|   |   |   |   V1 = 2: 14 (8.0/2.0)
|   |   |   |   V1 = 3: 14 (8.0/2.0)
|   |   |   |   V1 = 4: 14 (8.0/2.0)
|   |   |   V5 = 8
|   |   |   |   V1 = 1: 14 (8.0/2.0)
|   |   |   |   V1 = 2: 12 (8.0/2.0)
|   |   |   |   V1 = 3: 12 (8.0/2.0)
|   |   |   |   V1 = 4: 12 (8.0/2.0)
|   V6 = 4
|   |   V5 = 1
|   |   |   V4 = 1
|   |   |   |   V1 = 1: 13 (0.0)
|   |   |   |   V1 = 2: 12 (7.0/2.0)
|   |   |   |   V1 = 3: 13 (7.0/2.0)
|   |   |   |   V1 = 4: 13 (7.0/3.0)
|   |   |   V4 = 2
|   |   |   |   V1 = 1: 12 (0.0)
|   |   |   |   V1 = 2: 12 (8.0/2.0)
|   |   |   |   V1 = 3: 11 (8.0/2.0)
|   |   |   |   V1 = 4: 12 (8.0/2.0)
|   |   |   V4 = 3
|   |   |   |   V3 = 1: 17 (3.0)
|   |   |   |   V3 = 2: 17 (3.0)
|   |   |   |   V3 = 3: 10 (3.0)
|   |   |   |   V3 = 4: 12 (3.0)
|   |   |   |   V3 = 5: 13 (3.0)
|   |   |   |   V3 = 6: 13 (3.0)
|   |   |   |   V3 = 7: 13 (3.0)
|   |   |   |   V3 = 8: 13 (3.0)
|   |   |   V4 = 4
|   |   |   |   V3 = 1: 13 (0.0)
|   |   |   |   V3 = 2: 17 (3.0)
|   |   |   |   V3 = 3: 11 (3.0/1.0)
|   |   |   |   V3 = 4: 11 (3.0/1.0)
|   |   |   |   V3 = 5: 13 (3.0)
|   |   |   |   V3 = 6: 14 (3.0/1.0)
|   |   |   |   V3 = 7: 14 (3.0/1.0)
|   |   |   |   V3 = 8: 14 (3.0/1.0)
|   |   |   V4 = 5
|   |   |   |   V3 = 1: 17 (3.0)
|   |   |   |   V3 = 2: 17 (3.0)
|   |   |   |   V3 = 3: 11 (3.0/1.0)
|   |   |   |   V3 = 4: 12 (3.0)
|   |   |   |   V3 = 5: 10 (3.0/1.0)
|   |   |   |   V3 = 6: 10 (3.0/1.0)
|   |   |   |   V3 = 7: 10 (3.0/1.0)
|   |   |   |   V3 = 8: 10 (3.0/1.0)
|   |   |   V4 = 6
|   |   |   |   V3 = 1: 14 (3.0)
|   |   |   |   V3 = 2: 9 (3.0/1.0)
|   |   |   |   V3 = 3: 11 (3.0)
|   |   |   |   V3 = 4: 13 (3.0)
|   |   |   |   V3 = 5: 14 (3.0)
|   |   |   |   V3 = 6: 14 (3.0)
|   |   |   |   V3 = 7: 14 (3.0)
|   |   |   |   V3 = 8: 14 (3.0)
|   |   |   V4 = 7: 12 (24.0/6.0)
|   |   |   V4 = 8
|   |   |   |   V1 = 1: 12 (0.0)
|   |   |   |   V1 = 2: 11 (8.0/2.0)
|   |   |   |   V1 = 3: 12 (8.0/2.0)
|   |   |   |   V1 = 4: 12 (8.0/2.0)
|   |   V5 = 2
|   |   |   V3 = 1
|   |   |   |   V4 = 1: 14 (3.0)
|   |   |   |   V4 = 2: 14 (3.0/1.0)
|   |   |   |   V4 = 3: 17 (3.0)
|   |   |   |   V4 = 4: 17 (3.0)
|   |   |   |   V4 = 5: 17 (3.0)
|   |   |   |   V4 = 6: 14 (3.0/1.0)
|   |   |   |   V4 = 7: 14 (3.0)
|   |   |   |   V4 = 8: 14 (3.0/1.0)
|   |   |   V3 = 2
|   |   |   |   V4 = 1
|   |   |   |   |   V1 = 1: 14 (0.0)
|   |   |   |   |   V1 = 2: 14 (0.0)
|   |   |   |   |   V1 = 3: 15 (1.0)
|   |   |   |   |   V1 = 4: 14 (1.0)
|   |   |   |   V4 = 2
|   |   |   |   |   V1 = 1: 13 (0.0)
|   |   |   |   |   V1 = 2: 15 (1.0)
|   |   |   |   |   V1 = 3: 14 (1.0)
|   |   |   |   |   V1 = 4: 13 (1.0)
|   |   |   |   V4 = 3: 17 (3.0)
|   |   |   |   V4 = 4: 14 (0.0)
|   |   |   |   V4 = 5: 17 (3.0)
|   |   |   |   V4 = 6: 15 (3.0/1.0)
|   |   |   |   V4 = 7: 14 (3.0)
|   |   |   |   V4 = 8: 14 (3.0/1.0)
|   |   |   V3 = 3
|   |   |   |   V4 = 1: 11 (2.0)
|   |   |   |   V4 = 2: 11 (3.0/1.0)
|   |   |   |   V4 = 3: 17 (3.0)
|   |   |   |   V4 = 4: 17 (3.0)
|   |   |   |   V4 = 5: 17 (3.0)
|   |   |   |   V4 = 6: 11 (3.0)
|   |   |   |   V4 = 7: 11 (3.0/1.0)
|   |   |   |   V4 = 8: 11 (3.0/1.0)
|   |   |   V3 = 4: 13 (23.0/10.0)
|   |   |   V3 = 5
|   |   |   |   V4 = 1: 14 (3.0/1.0)
|   |   |   |   V4 = 2: 14 (3.0/1.0)
|   |   |   |   V4 = 3: 14 (3.0)
|   |   |   |   V4 = 4: 13 (3.0)
|   |   |   |   V4 = 5: 13 (3.0/1.0)
|   |   |   |   V4 = 6: 15 (3.0)
|   |   |   |   V4 = 7: 14 (3.0)
|   |   |   |   V4 = 8: 14 (3.0/1.0)
|   |   |   V3 = 6: 14 (24.0/11.0)
|   |   |   V3 = 7: 14 (24.0/10.0)
|   |   |   V3 = 8: 14 (24.0/8.0)
|   |   V5 = 3
|   |   |   V3 = 1: 14 (24.0/4.0)
|   |   |   V3 = 2
|   |   |   |   V4 = 1: 15 (2.0)
|   |   |   |   V4 = 2: 15 (3.0/1.0)
|   |   |   |   V4 = 3: 17 (3.0)
|   |   |   |   V4 = 4: 17 (3.0)
|   |   |   |   V4 = 5: 17 (3.0)
|   |   |   |   V4 = 6: 15 (3.0/1.0)
|   |   |   |   V4 = 7: 15 (3.0)
|   |   |   |   V4 = 8: 14 (3.0/1.0)
|   |   |   V3 = 3
|   |   |   |   V4 = 1: 15 (2.0)
|   |   |   |   V4 = 2
|   |   |   |   |   V1 = 1: 14 (0.0)
|   |   |   |   |   V1 = 2: 16 (1.0)
|   |   |   |   |   V1 = 3: 15 (1.0)
|   |   |   |   |   V1 = 4: 14 (1.0)
|   |   |   |   V4 = 3: 17 (3.0)
|   |   |   |   V4 = 4: 15 (0.0)
|   |   |   |   V4 = 5: 17 (3.0)
|   |   |   |   V4 = 6: 15 (3.0/1.0)
|   |   |   |   V4 = 7: 15 (3.0)
|   |   |   |   V4 = 8: 15 (3.0)
|   |   |   V3 = 4
|   |   |   |   V4 = 1
|   |   |   |   |   V1 = 1: 12 (0.0)
|   |   |   |   |   V1 = 2: 12 (1.0)
|   |   |   |   |   V1 = 3: 13 (1.0)
|   |   |   |   |   V1 = 4: 12 (0.0)
|   |   |   |   V4 = 2: 12 (3.0/1.0)
|   |   |   |   V4 = 3: 17 (3.0)
|   |   |   |   V4 = 4: 17 (3.0)
|   |   |   |   V4 = 5: 17 (3.0)
|   |   |   |   V4 = 6: 13 (3.0)
|   |   |   |   V4 = 7: 12 (3.0/1.0)
|   |   |   |   V4 = 8: 13 (3.0/1.0)
|   |   |   V3 = 5: 14 (24.0/8.0)
|   |   |   V3 = 6: 15 (24.0/9.0)
|   |   |   V3 = 7
|   |   |   |   V4 = 1: 15 (3.0)
|   |   |   |   V4 = 2: 15 (3.0/1.0)
|   |   |   |   V4 = 3: 14 (3.0/1.0)
|   |   |   |   V4 = 4: 14 (3.0)
|   |   |   |   V4 = 5: 14 (3.0/1.0)
|   |   |   |   V4 = 6: 15 (3.0)
|   |   |   |   V4 = 7: 15 (3.0)
|   |   |   |   V4 = 8: 14 (3.0/1.0)
|   |   |   V3 = 8
|   |   |   |   V1 = 1: 14 (0.0)
|   |   |   |   V1 = 2: 15 (8.0/2.0)
|   |   |   |   V1 = 3: 14 (8.0/1.0)
|   |   |   |   V1 = 4: 14 (8.0/1.0)
|   |   V5 = 4
|   |   |   V3 = 1: 14 (24.0/6.0)
|   |   |   V3 = 2: 15 (25.0/6.0)
|   |   |   V3 = 3
|   |   |   |   V4 = 1: 15 (3.0)
|   |   |   |   V4 = 2: 15 (4.0/2.0)
|   |   |   |   V4 = 3: 17 (4.0)
|   |   |   |   V4 = 4: 17 (3.0)
|   |   |   |   V4 = 5: 17 (3.0)
|   |   |   |   V4 = 6: 15 (3.0/1.0)
|   |   |   |   V4 = 7: 15 (3.0)
|   |   |   |   V4 = 8: 15 (3.0)
|   |   |   V3 = 4
|   |   |   |   V4 = 1: 15 (3.0)
|   |   |   |   V4 = 2: 15 (4.0/2.0)
|   |   |   |   V4 = 3: 17 (4.0)
|   |   |   |   V4 = 4: 15 (0.0)
|   |   |   |   V4 = 5: 17 (3.0)
|   |   |   |   V4 = 6: 15 (3.0/1.0)
|   |   |   |   V4 = 7: 15 (3.0/1.0)
|   |   |   |   V4 = 8: 15 (3.0/1.0)
|   |   |   V3 = 5
|   |   |   |   V4 = 1: 14 (4.0)
|   |   |   |   V4 = 2: 14 (4.0/2.0)
|   |   |   |   V4 = 3: 17 (4.0)
|   |   |   |   V4 = 4: 17 (4.0)
|   |   |   |   V4 = 5: 17 (4.0)
|   |   |   |   V4 = 6: 15 (3.0)
|   |   |   |   V4 = 7: 14 (3.0/1.0)
|   |   |   |   V4 = 8: 14 (3.0)
|   |   |   V3 = 6: 15 (30.0/10.0)
|   |   |   V3 = 7: 15 (31.0/13.0)
|   |   |   V3 = 8
|   |   |   |   V1 = 1: 16 (8.0/3.0)
|   |   |   |   V1 = 2: 15 (8.0/2.0)
|   |   |   |   V1 = 3: 14 (8.0/1.0)
|   |   |   |   V1 = 4: 14 (8.0/1.0)
|   |   V5 = 5
|   |   |   V1 = 1
|   |   |   |   V4 = 1: 15 (7.0/1.0)
|   |   |   |   V4 = 2: 16 (8.0/1.0)
|   |   |   |   V4 = 3: 16 (8.0/4.0)
|   |   |   |   V4 = 4: 15 (7.0/4.0)
|   |   |   |   V4 = 5: 15 (8.0/4.0)
|   |   |   |   V4 = 6: 16 (8.0/2.0)
|   |   |   |   V4 = 7: 16 (8.0/3.0)
|   |   |   |   V4 = 8: 16 (8.0/3.0)
|   |   |   V1 = 2: 15 (62.0/26.0)
|   |   |   V1 = 3
|   |   |   |   V3 = 1: 14 (8.0/1.0)
|   |   |   |   V3 = 2: 14 (8.0/4.0)
|   |   |   |   V3 = 3: 15 (7.0/2.0)
|   |   |   |   V3 = 4: 15 (8.0/3.0)
|   |   |   |   V3 = 5: 14 (7.0/3.0)
|   |   |   |   V3 = 6: 15 (8.0/3.0)
|   |   |   |   V3 = 7: 15 (8.0/2.0)
|   |   |   |   V3 = 8: 14 (8.0/2.0)
|   |   |   V1 = 4
|   |   |   |   V3 = 1: 14 (8.0/1.0)
|   |   |   |   V3 = 2: 15 (8.0/4.0)
|   |   |   |   V3 = 3: 15 (8.0/2.0)
|   |   |   |   V3 = 4: 14 (7.0/4.0)
|   |   |   |   V3 = 5: 14 (7.0/3.0)
|   |   |   |   V3 = 6: 15 (8.0/3.0)
|   |   |   |   V3 = 7: 15 (8.0/2.0)
|   |   |   |   V3 = 8: 14 (8.0/1.0)
|   |   V5 = 6
|   |   |   V3 = 1
|   |   |   |   V1 = 1: 15 (7.0/1.0)
|   |   |   |   V1 = 2: 15 (8.0/4.0)
|   |   |   |   V1 = 3: 14 (8.0/1.0)
|   |   |   |   V1 = 4: 14 (8.0/1.0)
|   |   |   V3 = 2: 15 (31.0/16.0)
|   |   |   V3 = 3: 15 (31.0/14.0)
|   |   |   V3 = 4: 15 (31.0/12.0)
|   |   |   V3 = 5
|   |   |   |   V4 = 1: 13 (4.0/1.0)
|   |   |   |   V4 = 2: 13 (4.0/2.0)
|   |   |   |   V4 = 3: 17 (4.0)
|   |   |   |   V4 = 4: 17 (4.0)
|   |   |   |   V4 = 5: 17 (4.0)
|   |   |   |   V4 = 6: 14 (4.0/2.0)
|   |   |   |   V4 = 7: 13 (4.0/1.0)
|   |   |   |   V4 = 8: 13 (4.0/1.0)
|   |   |   V3 = 6
|   |   |   |   V4 = 1: 15 (4.0)
|   |   |   |   V4 = 2: 15 (4.0/2.0)
|   |   |   |   V4 = 3: 17 (4.0)
|   |   |   |   V4 = 4: 15 (0.0)
|   |   |   |   V4 = 5: 17 (4.0)
|   |   |   |   V4 = 6: 15 (4.0/2.0)
|   |   |   |   V4 = 7: 15 (4.0/1.0)
|   |   |   |   V4 = 8: 15 (4.0/1.0)
|   |   |   V3 = 7
|   |   |   |   V4 = 1: 15 (4.0)
|   |   |   |   V4 = 2: 15 (4.0/1.0)
|   |   |   |   V4 = 3: 17 (4.0)
|   |   |   |   V4 = 4: 17 (4.0)
|   |   |   |   V4 = 5: 17 (4.0)
|   |   |   |   V4 = 6: 15 (4.0/2.0)
|   |   |   |   V4 = 7: 15 (4.0/1.0)
|   |   |   |   V4 = 8: 14 (4.0/2.0)
|   |   |   V3 = 8
|   |   |   |   V1 = 1: 16 (8.0/3.0)
|   |   |   |   V1 = 2: 15 (8.0/2.0)
|   |   |   |   V1 = 3: 14 (8.0/2.0)
|   |   |   |   V1 = 4: 14 (8.0/1.0)
|   |   V5 = 7
|   |   |   V3 = 1
|   |   |   |   V1 = 1: 15 (7.0/1.0)
|   |   |   |   V1 = 2: 14 (8.0/1.0)
|   |   |   |   V1 = 3: 14 (8.0/1.0)
|   |   |   |   V1 = 4: 14 (8.0/1.0)
|   |   |   V3 = 2
|   |   |   |   V1 = 1: 15 (8.0/1.0)
|   |   |   |   V1 = 2: 15 (7.0/3.0)
|   |   |   |   V1 = 3: 14 (8.0/1.0)
|   |   |   |   V1 = 4: 14 (8.0/1.0)
|   |   |   V3 = 3
|   |   |   |   V4 = 1: 14 (3.0/1.0)
|   |   |   |   V4 = 2: 14 (4.0/2.0)
|   |   |   |   V4 = 3: 14 (4.0/2.0)
|   |   |   |   V4 = 4: 14 (4.0/1.0)
|   |   |   |   V4 = 5: 12 (4.0/1.0)
|   |   |   |   V4 = 6: 15 (4.0/1.0)
|   |   |   |   V4 = 7: 15 (4.0/2.0)
|   |   |   |   V4 = 8: 14 (4.0/1.0)
|   |   |   V3 = 4: 14 (31.0/18.0)
|   |   |   V3 = 5
|   |   |   |   V1 = 1: 15 (8.0/2.0)
|   |   |   |   V1 = 2: 14 (8.0/3.0)
|   |   |   |   V1 = 3: 13 (8.0/3.0)
|   |   |   |   V1 = 4: 13 (8.0/2.0)
|   |   |   V3 = 6
|   |   |   |   V4 = 1: 11 (4.0/1.0)
|   |   |   |   V4 = 2: 13 (4.0/2.0)
|   |   |   |   V4 = 3: 17 (4.0)
|   |   |   |   V4 = 4: 17 (4.0)
|   |   |   |   V4 = 5: 17 (4.0)
|   |   |   |   V4 = 6: 12 (4.0/2.0)
|   |   |   |   V4 = 7: 11 (4.0/2.0)
|   |   |   |   V4 = 8: 11 (4.0/1.0)
|   |   |   V3 = 7
|   |   |   |   V4 = 1: 14 (4.0/1.0)
|   |   |   |   V4 = 2: 15 (4.0/2.0)
|   |   |   |   V4 = 3: 17 (4.0)
|   |   |   |   V4 = 4: 14 (0.0)
|   |   |   |   V4 = 5: 17 (4.0)
|   |   |   |   V4 = 6: 15 (4.0/2.0)
|   |   |   |   V4 = 7: 15 (4.0/2.0)
|   |   |   |   V4 = 8: 14 (4.0/1.0)
|   |   |   V3 = 8
|   |   |   |   V4 = 1: 14 (4.0/1.0)
|   |   |   |   V4 = 2: 14 (4.0/2.0)
|   |   |   |   V4 = 3: 17 (4.0)
|   |   |   |   V4 = 4: 17 (4.0)
|   |   |   |   V4 = 5: 17 (4.0)
|   |   |   |   V4 = 6: 15 (4.0/2.0)
|   |   |   |   V4 = 7: 14 (4.0/2.0)
|   |   |   |   V4 = 8: 14 (4.0/1.0)
|   |   V5 = 8
|   |   |   V3 = 1: 14 (31.0/17.0)
|   |   |   V3 = 2: 14 (31.0/17.0)
|   |   |   V3 = 3
|   |   |   |   V4 = 1: 14 (3.0/1.0)
|   |   |   |   V4 = 2: 13 (4.0/2.0)
|   |   |   |   V4 = 3: 13 (4.0/2.0)
|   |   |   |   V4 = 4: 14 (4.0/1.0)
|   |   |   |   V4 = 5: 10 (4.0/2.0)
|   |   |   |   V4 = 6: 15 (4.0/1.0)
|   |   |   |   V4 = 7: 14 (4.0/2.0)
|   |   |   |   V4 = 8: 12 (4.0/2.0)
|   |   |   V3 = 4: 14 (31.0/19.0)
|   |   |   V3 = 5
|   |   |   |   V1 = 1: 14 (8.0/2.0)
|   |   |   |   V1 = 2: 13 (8.0/2.0)
|   |   |   |   V1 = 3: 13 (8.0/4.0)
|   |   |   |   V1 = 4: 12 (8.0/3.0)
|   |   |   V3 = 6
|   |   |   |   V1 = 1: 13 (8.0/2.0)
|   |   |   |   V1 = 2: 13 (8.0/3.0)
|   |   |   |   V1 = 3: 12 (8.0/3.0)
|   |   |   |   V1 = 4: 11 (8.0/3.0)
|   |   |   V3 = 7
|   |   |   |   V4 = 1: 10 (4.0/2.0)
|   |   |   |   V4 = 2: 9 (4.0/2.0)
|   |   |   |   V4 = 3: 17 (4.0)
|   |   |   |   V4 = 4: 17 (4.0)
|   |   |   |   V4 = 5: 17 (4.0)
|   |   |   |   V4 = 6: 9 (4.0/2.0)
|   |   |   |   V4 = 7: 9 (4.0/1.0)
|   |   |   |   V4 = 8: 9 (4.0/2.0)
|   |   |   V3 = 8
|   |   |   |   V4 = 1: 12 (4.0/2.0)
|   |   |   |   V4 = 2: 14 (4.0/1.0)
|   |   |   |   V4 = 3: 17 (4.0)
|   |   |   |   V4 = 4: 14 (0.0)
|   |   |   |   V4 = 5: 17 (4.0)
|   |   |   |   V4 = 6: 15 (4.0/2.0)
|   |   |   |   V4 = 7: 14 (4.0/2.0)
|   |   |   |   V4 = 8: 12 (4.0/2.0)
|   V6 = 5
|   |   V5 = 1
|   |   |   V3 = 1
|   |   |   |   V4 = 1: 13 (3.0/1.0)
|   |   |   |   V4 = 2: 12 (3.0/1.0)
|   |   |   |   V4 = 3: 13 (3.0)
|   |   |   |   V4 = 4: 17 (3.0)
|   |   |   |   V4 = 5: 17 (0.0)
|   |   |   |   V4 = 6: 17 (3.0)
|   |   |   |   V4 = 7: 14 (3.0)
|   |   |   |   V4 = 8: 12 (3.0/1.0)
|   |   |   V3 = 2
|   |   |   |   V4 = 1: 8 (2.0)
|   |   |   |   V4 = 2: 8 (3.0/1.0)
|   |   |   |   V4 = 3: 7 (3.0/1.0)
|   |   |   |   V4 = 4: 17 (3.0)
|   |   |   |   V4 = 5: 17 (3.0)
|   |   |   |   V4 = 6: 17 (3.0)
|   |   |   |   V4 = 7: 8 (3.0)
|   |   |   |   V4 = 8: 8 (3.0)
|   |   |   V3 = 3
|   |   |   |   V4 = 1
|   |   |   |   |   V1 = 1: 10 (0.0)
|   |   |   |   |   V1 = 2: 10 (1.0)
|   |   |   |   |   V1 = 3: 10 (0.0)
|   |   |   |   |   V1 = 4: 11 (1.0)
|   |   |   |   V4 = 2: 10 (3.0/1.0)
|   |   |   |   V4 = 3: 10 (3.0)
|   |   |   |   V4 = 4: 11 (3.0/1.0)
|   |   |   |   V4 = 5: 11 (3.0/1.0)
|   |   |   |   V4 = 6: 11 (3.0)
|   |   |   |   V4 = 7: 11 (3.0)
|   |   |   |   V4 = 8: 10 (3.0)
|   |   |   V3 = 4: 12 (23.0/8.0)
|   |   |   V3 = 5
|   |   |   |   V4 = 1: 13 (3.0/1.0)
|   |   |   |   V4 = 2: 12 (3.0/1.0)
|   |   |   |   V4 = 3: 13 (3.0)
|   |   |   |   V4 = 4: 13 (3.0)
|   |   |   |   V4 = 5: 12 (3.0/1.0)
|   |   |   |   V4 = 6: 14 (3.0)
|   |   |   |   V4 = 7: 14 (3.0)
|   |   |   |   V4 = 8: 12 (3.0/1.0)
|   |   |   V3 = 6
|   |   |   |   V4 = 1: 13 (3.0/1.0)
|   |   |   |   V4 = 2: 12 (3.0/1.0)
|   |   |   |   V4 = 3: 13 (3.0)
|   |   |   |   V4 = 4: 14 (3.0/1.0)
|   |   |   |   V4 = 5: 13 (3.0/1.0)
|   |   |   |   V4 = 6: 14 (3.0)
|   |   |   |   V4 = 7: 14 (3.0)
|   |   |   |   V4 = 8: 12 (3.0/1.0)
|   |   |   V3 = 7
|   |   |   |   V4 = 1: 13 (3.0/1.0)
|   |   |   |   V4 = 2: 12 (3.0/1.0)
|   |   |   |   V4 = 3: 13 (3.0)
|   |   |   |   V4 = 4: 14 (3.0/1.0)
|   |   |   |   V4 = 5: 13 (3.0/1.0)
|   |   |   |   V4 = 6: 14 (3.0)
|   |   |   |   V4 = 7: 14 (3.0)
|   |   |   |   V4 = 8: 12 (3.0/1.0)
|   |   |   V3 = 8
|   |   |   |   V4 = 1: 13 (3.0/1.0)
|   |   |   |   V4 = 2: 12 (3.0/1.0)
|   |   |   |   V4 = 3: 13 (3.0)
|   |   |   |   V4 = 4: 14 (3.0/1.0)
|   |   |   |   V4 = 5: 13 (3.0/1.0)
|   |   |   |   V4 = 6: 14 (3.0)
|   |   |   |   V4 = 7: 14 (3.0)
|   |   |   |   V4 = 8: 12 (3.0/1.0)
|   |   V5 = 2
|   |   |   V3 = 1
|   |   |   |   V4 = 1: 14 (3.0)
|   |   |   |   V4 = 2: 13 (3.0/1.0)
|   |   |   |   V4 = 3: 14 (3.0/1.0)
|   |   |   |   V4 = 4: 17 (3.0)
|   |   |   |   V4 = 5: 17 (3.0)
|   |   |   |   V4 = 6: 17 (3.0)
|   |   |   |   V4 = 7: 14 (3.0)
|   |   |   |   V4 = 8: 14 (3.0/1.0)
|   |   |   V3 = 2
|   |   |   |   V4 = 1: 14 (2.0)
|   |   |   |   V4 = 2: 13 (3.0/1.0)
|   |   |   |   V4 = 3: 15 (3.0)
|   |   |   |   V4 = 4: 17 (3.0)
|   |   |   |   V4 = 5: 15 (0.0)
|   |   |   |   V4 = 6: 17 (3.0)
|   |   |   |   V4 = 7: 15 (3.0)
|   |   |   |   V4 = 8: 14 (3.0/1.0)
|   |   |   V3 = 3
|   |   |   |   V4 = 1
|   |   |   |   |   V1 = 1: 10 (0.0)
|   |   |   |   |   V1 = 2: 10 (1.0)
|   |   |   |   |   V1 = 3: 10 (0.0)
|   |   |   |   |   V1 = 4: 11 (1.0)
|   |   |   |   V4 = 2
|   |   |   |   |   V1 = 1: 9 (0.0)
|   |   |   |   |   V1 = 2: 9 (1.0)
|   |   |   |   |   V1 = 3: 10 (1.0)
|   |   |   |   |   V1 = 4: 11 (1.0)
|   |   |   |   V4 = 3: 10 (3.0)
|   |   |   |   V4 = 4: 17 (3.0)
|   |   |   |   V4 = 5: 17 (3.0)
|   |   |   |   V4 = 6: 17 (3.0)
|   |   |   |   V4 = 7: 11 (3.0)
|   |   |   |   V4 = 8: 10 (3.0)
|   |   |   V3 = 4
|   |   |   |   V4 = 1: 12 (2.0)
|   |   |   |   V4 = 2: 12 (3.0)
|   |   |   |   V4 = 3: 12 (3.0)
|   |   |   |   V4 = 4: 13 (3.0/1.0)
|   |   |   |   V4 = 5: 13 (3.0)
|   |   |   |   V4 = 6: 13 (3.0)
|   |   |   |   V4 = 7: 13 (3.0)
|   |   |   |   V4 = 8: 12 (3.0)
|   |   |   V3 = 5
|   |   |   |   V4 = 1: 14 (3.0/1.0)
|   |   |   |   V4 = 2: 13 (3.0/1.0)
|   |   |   |   V4 = 3: 14 (3.0)
|   |   |   |   V4 = 4: 13 (3.0)
|   |   |   |   V4 = 5: 14 (3.0)
|   |   |   |   V4 = 6: 15 (3.0)
|   |   |   |   V4 = 7: 14 (3.0)
|   |   |   |   V4 = 8: 14 (3.0/1.0)
|   |   |   V3 = 6
|   |   |   |   V4 = 1: 14 (3.0/1.0)
|   |   |   |   V4 = 2: 13 (3.0/1.0)
|   |   |   |   V4 = 3: 14 (3.0/1.0)
|   |   |   |   V4 = 4: 14 (3.0)
|   |   |   |   V4 = 5: 14 (3.0/1.0)
|   |   |   |   V4 = 6: 15 (3.0)
|   |   |   |   V4 = 7: 15 (3.0)
|   |   |   |   V4 = 8: 14 (3.0/1.0)
|   |   |   V3 = 7: 14 (24.0/11.0)
|   |   |   V3 = 8: 14 (24.0/8.0)
|   |   V5 = 3
|   |   |   V3 = 1: 14 (24.0/3.0)
|   |   |   V3 = 2
|   |   |   |   V4 = 1: 15 (2.0)
|   |   |   |   V4 = 2: 15 (3.0/1.0)
|   |   |   |   V4 = 3: 15 (3.0)
|   |   |   |   V4 = 4: 17 (3.0)
|   |   |   |   V4 = 5: 17 (3.0)
|   |   |   |   V4 = 6: 17 (3.0)
|   |   |   |   V4 = 7: 15 (3.0)
|   |   |   |   V4 = 8: 15 (3.0)
|   |   |   V3 = 3
|   |   |   |   V4 = 1: 15 (2.0)
|   |   |   |   V4 = 2
|   |   |   |   |   V1 = 1: 14 (0.0)
|   |   |   |   |   V1 = 2: 16 (1.0)
|   |   |   |   |   V1 = 3: 15 (1.0)
|   |   |   |   |   V1 = 4: 14 (1.0)
|   |   |   |   V4 = 3: 14 (3.0/1.0)
|   |   |   |   V4 = 4: 17 (3.0)
|   |   |   |   V4 = 5: 15 (0.0)
|   |   |   |   V4 = 6: 17 (3.0)
|   |   |   |   V4 = 7: 15 (3.0/1.0)
|   |   |   |   V4 = 8: 15 (3.0)
|   |   |   V3 = 4
|   |   |   |   V4 = 1: 12 (2.0)
|   |   |   |   V4 = 2: 12 (3.0/1.0)
|   |   |   |   V4 = 3: 12 (3.0)
|   |   |   |   V4 = 4: 17 (3.0)
|   |   |   |   V4 = 5: 17 (3.0)
|   |   |   |   V4 = 6: 17 (3.0)
|   |   |   |   V4 = 7: 13 (3.0)
|   |   |   |   V4 = 8: 12 (3.0)
|   |   |   V3 = 5: 14 (24.0/9.0)
|   |   |   V3 = 6: 15 (24.0/8.0)
|   |   |   V3 = 7: 15 (24.0/10.0)
|   |   |   V3 = 8
|   |   |   |   V1 = 1: 14 (0.0)
|   |   |   |   V1 = 2: 15 (8.0/2.0)
|   |   |   |   V1 = 3: 14 (8.0/1.0)
|   |   |   |   V1 = 4: 14 (8.0/1.0)
|   |   V5 = 4
|   |   |   V3 = 1: 14 (24.0/6.0)
|   |   |   V3 = 2: 15 (23.0/3.0)
|   |   |   V3 = 3
|   |   |   |   V4 = 1: 15 (2.0)
|   |   |   |   V4 = 2: 15 (3.0/1.0)
|   |   |   |   V4 = 3: 14 (3.0/1.0)
|   |   |   |   V4 = 4: 17 (3.0)
|   |   |   |   V4 = 5: 17 (3.0)
|   |   |   |   V4 = 6: 17 (3.0)
|   |   |   |   V4 = 7: 15 (3.0/1.0)
|   |   |   |   V4 = 8: 15 (3.0)
|   |   |   V3 = 4
|   |   |   |   V4 = 1: 15 (2.0)
|   |   |   |   V4 = 2: 15 (3.0/1.0)
|   |   |   |   V4 = 3: 14 (3.0/1.0)
|   |   |   |   V4 = 4: 17 (3.0)
|   |   |   |   V4 = 5: 15 (0.0)
|   |   |   |   V4 = 6: 17 (3.0)
|   |   |   |   V4 = 7: 15 (3.0/1.0)
|   |   |   |   V4 = 8: 14 (3.0/1.0)
|   |   |   V3 = 5
|   |   |   |   V4 = 1: 14 (3.0/1.0)
|   |   |   |   V4 = 2: 13 (3.0/1.0)
|   |   |   |   V4 = 3: 14 (3.0/1.0)
|   |   |   |   V4 = 4: 17 (3.0)
|   |   |   |   V4 = 5: 17 (3.0)
|   |   |   |   V4 = 6: 17 (3.0)
|   |   |   |   V4 = 7: 15 (3.0)
|   |   |   |   V4 = 8: 14 (3.0)
|   |   |   V3 = 6: 15 (24.0/7.0)
|   |   |   V3 = 7: 15 (24.0/7.0)
|   |   |   V3 = 8
|   |   |   |   V1 = 1: 14 (0.0)
|   |   |   |   V1 = 2: 15 (8.0/2.0)
|   |   |   |   V1 = 3: 14 (8.0/1.0)
|   |   |   |   V1 = 4: 14 (8.0/1.0)
|   |   V5 = 5
|   |   |   V3 = 1: 14 (24.0/6.0)
|   |   |   V3 = 2
|   |   |   |   V4 = 1: 15 (3.0)
|   |   |   |   V4 = 2: 15 (4.0/2.0)
|   |   |   |   V4 = 3: 14 (3.0/1.0)
|   |   |   |   V4 = 4: 14 (3.0)
|   |   |   |   V4 = 5: 14 (3.0)
|   |   |   |   V4 = 6: 15 (3.0)
|   |   |   |   V4 = 7: 15 (3.0)
|   |   |   |   V4 = 8: 15 (3.0)
|   |   |   V3 = 3: 15 (26.0/9.0)
|   |   |   V3 = 4
|   |   |   |   V4 = 1: 15 (3.0)
|   |   |   |   V4 = 2: 15 (4.0/1.0)
|   |   |   |   V4 = 3: 14 (4.0/2.0)
|   |   |   |   V4 = 4: 17 (4.0)
|   |   |   |   V4 = 5: 17 (3.0)
|   |   |   |   V4 = 6: 17 (3.0)
|   |   |   |   V4 = 7: 15 (3.0/1.0)
|   |   |   |   V4 = 8: 14 (3.0/1.0)
|   |   |   V3 = 5
|   |   |   |   V4 = 1: 14 (4.0)
|   |   |   |   V4 = 2: 14 (4.0/1.0)
|   |   |   |   V4 = 3: 14 (4.0/2.0)
|   |   |   |   V4 = 4: 17 (4.0)
|   |   |   |   V4 = 5: 14 (0.0)
|   |   |   |   V4 = 6: 17 (3.0)
|   |   |   |   V4 = 7: 15 (3.0)
|   |   |   |   V4 = 8: 14 (3.0)
|   |   |   V3 = 6
|   |   |   |   V4 = 1: 15 (4.0)
|   |   |   |   V4 = 2: 15 (4.0/2.0)
|   |   |   |   V4 = 3: 16 (4.0/2.0)
|   |   |   |   V4 = 4: 17 (4.0)
|   |   |   |   V4 = 5: 17 (4.0)
|   |   |   |   V4 = 6: 17 (4.0)
|   |   |   |   V4 = 7: 15 (3.0/1.0)
|   |   |   |   V4 = 8: 15 (3.0)
|   |   |   V3 = 7: 15 (31.0/11.0)
|   |   |   V3 = 8
|   |   |   |   V1 = 1: 16 (8.0/3.0)
|   |   |   |   V1 = 2: 15 (8.0/2.0)
|   |   |   |   V1 = 3: 14 (8.0/2.0)
|   |   |   |   V1 = 4: 14 (8.0/1.0)
|   |   V5 = 6
|   |   |   V3 = 1
|   |   |   |   V1 = 1: 15 (7.0/1.0)
|   |   |   |   V1 = 2: 15 (8.0/4.0)
|   |   |   |   V1 = 3: 14 (8.0/1.0)
|   |   |   |   V1 = 4: 14 (8.0/1.0)
|   |   |   V3 = 2: 15 (31.0/16.0)
|   |   |   V3 = 3: 15 (31.0/14.0)
|   |   |   V3 = 4: 15 (31.0/13.0)
|   |   |   V3 = 5
|   |   |   |   V4 = 1: 13 (4.0/1.0)
|   |   |   |   V4 = 2: 13 (4.0/1.0)
|   |   |   |   V4 = 3
|   |   |   |   |   V1 = 1: 15 (1.0)
|   |   |   |   |   V1 = 2: 14 (1.0)
|   |   |   |   |   V1 = 3: 13 (1.0)
|   |   |   |   |   V1 = 4: 12 (1.0)
|   |   |   |   V4 = 4: 17 (4.0)
|   |   |   |   V4 = 5: 17 (4.0)
|   |   |   |   V4 = 6: 17 (4.0)
|   |   |   |   V4 = 7: 14 (4.0/2.0)
|   |   |   |   V4 = 8: 13 (4.0/2.0)
|   |   |   V3 = 6
|   |   |   |   V4 = 1: 15 (4.0)
|   |   |   |   V4 = 2: 15 (4.0/2.0)
|   |   |   |   V4 = 3: 16 (4.0/2.0)
|   |   |   |   V4 = 4: 17 (4.0)
|   |   |   |   V4 = 5: 15 (0.0)
|   |   |   |   V4 = 6: 17 (4.0)
|   |   |   |   V4 = 7: 15 (4.0/2.0)
|   |   |   |   V4 = 8: 15 (4.0/1.0)
|   |   |   V3 = 7
|   |   |   |   V4 = 1: 15 (4.0)
|   |   |   |   V4 = 2: 15 (4.0/1.0)
|   |   |   |   V4 = 3: 15 (4.0/2.0)
|   |   |   |   V4 = 4: 17 (4.0)
|   |   |   |   V4 = 5: 17 (4.0)
|   |   |   |   V4 = 6: 17 (4.0)
|   |   |   |   V4 = 7: 15 (4.0/2.0)
|   |   |   |   V4 = 8: 15 (4.0/1.0)
|   |   |   V3 = 8
|   |   |   |   V1 = 1: 16 (8.0/3.0)
|   |   |   |   V1 = 2: 15 (8.0/2.0)
|   |   |   |   V1 = 3: 14 (8.0/2.0)
|   |   |   |   V1 = 4: 14 (8.0)
|   |   V5 = 7
|   |   |   V3 = 1
|   |   |   |   V1 = 1: 15 (7.0/1.0)
|   |   |   |   V1 = 2: 14 (8.0/1.0)
|   |   |   |   V1 = 3: 14 (8.0/1.0)
|   |   |   |   V1 = 4: 14 (8.0/1.0)
|   |   |   V3 = 2
|   |   |   |   V1 = 1: 15 (8.0/1.0)
|   |   |   |   V1 = 2: 15 (7.0/3.0)
|   |   |   |   V1 = 3: 14 (8.0/1.0)
|   |   |   |   V1 = 4: 14 (8.0/1.0)
|   |   |   V3 = 3: 14 (31.0/15.0)
|   |   |   V3 = 4: 14 (31.0/17.0)
|   |   |   V3 = 5
|   |   |   |   V1 = 1: 15 (8.0/3.0)
|   |   |   |   V1 = 2: 14 (8.0/3.0)
|   |   |   |   V1 = 3: 13 (8.0/4.0)
|   |   |   |   V1 = 4: 13 (8.0/3.0)
|   |   |   V3 = 6
|   |   |   |   V4 = 1: 11 (4.0/2.0)
|   |   |   |   V4 = 2: 11 (4.0/2.0)
|   |   |   |   V4 = 3
|   |   |   |   |   V1 = 1: 14 (1.0)
|   |   |   |   |   V1 = 2: 13 (1.0)
|   |   |   |   |   V1 = 3: 12 (1.0)
|   |   |   |   |   V1 = 4: 11 (1.0)
|   |   |   |   V4 = 4: 17 (4.0)
|   |   |   |   V4 = 5: 17 (4.0)
|   |   |   |   V4 = 6: 17 (4.0)
|   |   |   |   V4 = 7: 13 (4.0/2.0)
|   |   |   |   V4 = 8: 11 (4.0/2.0)
|   |   |   V3 = 7
|   |   |   |   V4 = 1: 14 (4.0/1.0)
|   |   |   |   V4 = 2: 14 (4.0/2.0)
|   |   |   |   V4 = 3: 15 (4.0/2.0)
|   |   |   |   V4 = 4: 17 (4.0)
|   |   |   |   V4 = 5: 14 (0.0)
|   |   |   |   V4 = 6: 17 (4.0)
|   |   |   |   V4 = 7: 15 (4.0/2.0)
|   |   |   |   V4 = 8: 14 (4.0/1.0)
|   |   |   V3 = 8
|   |   |   |   V4 = 1: 14 (4.0/1.0)
|   |   |   |   V4 = 2: 14 (4.0/2.0)
|   |   |   |   V4 = 3: 14 (4.0/2.0)
|   |   |   |   V4 = 4: 17 (4.0)
|   |   |   |   V4 = 5: 17 (4.0)
|   |   |   |   V4 = 6: 17 (4.0)
|   |   |   |   V4 = 7: 15 (4.0/2.0)
|   |   |   |   V4 = 8: 14 (4.0/1.0)
|   |   V5 = 8
|   |   |   V3 = 1: 14 (31.0/14.0)
|   |   |   V3 = 2: 14 (31.0/14.0)
|   |   |   V3 = 3
|   |   |   |   V4 = 1: 14 (3.0/1.0)
|   |   |   |   V4 = 2: 13 (4.0/2.0)
|   |   |   |   V4 = 3: 13 (4.0/2.0)
|   |   |   |   V4 = 4: 14 (4.0/1.0)
|   |   |   |   V4 = 5: 13 (4.0/1.0)
|   |   |   |   V4 = 6: 15 (4.0/1.0)
|   |   |   |   V4 = 7: 15 (4.0/1.0)
|   |   |   |   V4 = 8: 12 (4.0/2.0)
|   |   |   V3 = 4: 14 (31.0/17.0)
|   |   |   V3 = 5
|   |   |   |   V1 = 1: 14 (8.0/4.0)
|   |   |   |   V1 = 2: 13 (8.0/2.0)
|   |   |   |   V1 = 3: 13 (8.0/4.0)
|   |   |   |   V1 = 4: 12 (8.0/3.0)
|   |   |   V3 = 6
|   |   |   |   V1 = 1: 13 (8.0/3.0)
|   |   |   |   V1 = 2: 13 (8.0/3.0)
|   |   |   |   V1 = 3: 12 (8.0/3.0)
|   |   |   |   V1 = 4: 11 (8.0/3.0)
|   |   |   V3 = 7
|   |   |   |   V4 = 1: 8 (4.0/2.0)
|   |   |   |   V4 = 2: 9 (4.0/2.0)
|   |   |   |   V4 = 3
|   |   |   |   |   V1 = 1: 11 (1.0)
|   |   |   |   |   V1 = 2: 10 (1.0)
|   |   |   |   |   V1 = 3: 9 (1.0)
|   |   |   |   |   V1 = 4: 8 (1.0)
|   |   |   |   V4 = 4: 17 (4.0)
|   |   |   |   V4 = 5: 17 (4.0)
|   |   |   |   V4 = 6: 17 (4.0)
|   |   |   |   V4 = 7: 8 (4.0/2.0)
|   |   |   |   V4 = 8: 8 (4.0/2.0)
|   |   |   V3 = 8
|   |   |   |   V4 = 1: 12 (4.0/2.0)
|   |   |   |   V4 = 2: 14 (4.0/2.0)
|   |   |   |   V4 = 3
|   |   |   |   |   V1 = 1: 16 (1.0)
|   |   |   |   |   V1 = 2: 15 (1.0)
|   |   |   |   |   V1 = 3: 14 (1.0)
|   |   |   |   |   V1 = 4: 13 (1.0)
|   |   |   |   V4 = 4: 17 (4.0)
|   |   |   |   V4 = 5: 17 (0.0)
|   |   |   |   V4 = 6: 17 (4.0)
|   |   |   |   V4 = 7: 15 (4.0/2.0)
|   |   |   |   V4 = 8: 12 (4.0/2.0)
|   V6 = 6
|   |   V5 = 1
|   |   |   V3 = 1
|   |   |   |   V4 = 1: 13 (3.0/1.0)
|   |   |   |   V4 = 2: 11 (3.0/1.0)
|   |   |   |   V4 = 3: 11 (3.0)
|   |   |   |   V4 = 4: 14 (3.0/1.0)
|   |   |   |   V4 = 5: 17 (3.0)
|   |   |   |   V4 = 6: 13 (0.0)
|   |   |   |   V4 = 7: 17 (3.0)
|   |   |   |   V4 = 8: 13 (3.0)
|   |   |   V3 = 2
|   |   |   |   V4 = 1: 7 (2.0)
|   |   |   |   V4 = 2: 7 (3.0)
|   |   |   |   V4 = 3: 7 (3.0)
|   |   |   |   V4 = 4: 8 (3.0/1.0)
|   |   |   |   V4 = 5: 17 (3.0)
|   |   |   |   V4 = 6: 17 (3.0)
|   |   |   |   V4 = 7: 17 (3.0)
|   |   |   |   V4 = 8: 8 (3.0)
|   |   |   V3 = 3
|   |   |   |   V4 = 1
|   |   |   |   |   V1 = 1: 10 (0.0)
|   |   |   |   |   V1 = 2: 10 (1.0)
|   |   |   |   |   V1 = 3: 10 (0.0)
|   |   |   |   |   V1 = 4: 11 (1.0)
|   |   |   |   V4 = 2: 10 (3.0/1.0)
|   |   |   |   V4 = 3: 10 (3.0)
|   |   |   |   V4 = 4: 11 (3.0/1.0)
|   |   |   |   V4 = 5: 11 (3.0)
|   |   |   |   V4 = 6: 11 (3.0)
|   |   |   |   V4 = 7: 11 (3.0)
|   |   |   |   V4 = 8: 10 (3.0)
|   |   |   V3 = 4
|   |   |   |   V4 = 1
|   |   |   |   |   V1 = 1: 11 (0.0)
|   |   |   |   |   V1 = 2: 11 (1.0)
|   |   |   |   |   V1 = 3: 12 (1.0)
|   |   |   |   |   V1 = 4: 11 (0.0)
|   |   |   |   V4 = 2: 11 (3.0/1.0)
|   |   |   |   V4 = 3: 11 (3.0)
|   |   |   |   V4 = 4: 11 (3.0)
|   |   |   |   V4 = 5: 12 (3.0)
|   |   |   |   V4 = 6: 13 (3.0)
|   |   |   |   V4 = 7: 12 (3.0)
|   |   |   |   V4 = 8: 12 (3.0)
|   |   |   V3 = 5
|   |   |   |   V4 = 1: 13 (3.0/1.0)
|   |   |   |   V4 = 2: 11 (3.0/1.0)
|   |   |   |   V4 = 3: 11 (3.0)
|   |   |   |   V4 = 4: 13 (3.0)
|   |   |   |   V4 = 5: 12 (3.0)
|   |   |   |   V4 = 6: 14 (3.0)
|   |   |   |   V4 = 7: 14 (3.0)
|   |   |   |   V4 = 8: 13 (3.0)
|   |   |   V3 = 6
|   |   |   |   V4 = 1: 13 (3.0/1.0)
|   |   |   |   V4 = 2: 11 (3.0/1.0)
|   |   |   |   V4 = 3: 11 (3.0)
|   |   |   |   V4 = 4: 14 (3.0/1.0)
|   |   |   |   V4 = 5: 13 (3.0)
|   |   |   |   V4 = 6: 14 (3.0)
|   |   |   |   V4 = 7: 14 (3.0)
|   |   |   |   V4 = 8: 13 (3.0)
|   |   |   V3 = 7
|   |   |   |   V4 = 1: 13 (3.0/1.0)
|   |   |   |   V4 = 2: 11 (3.0/1.0)
|   |   |   |   V4 = 3: 11 (3.0)
|   |   |   |   V4 = 4: 14 (3.0/1.0)
|   |   |   |   V4 = 5: 13 (3.0)
|   |   |   |   V4 = 6: 14 (3.0)
|   |   |   |   V4 = 7: 14 (3.0)
|   |   |   |   V4 = 8: 13 (3.0)
|   |   |   V3 = 8
|   |   |   |   V4 = 1: 13 (3.0/1.0)
|   |   |   |   V4 = 2: 11 (3.0/1.0)
|   |   |   |   V4 = 3: 11 (3.0)
|   |   |   |   V4 = 4: 14 (3.0/1.0)
|   |   |   |   V4 = 5: 13 (3.0)
|   |   |   |   V4 = 6: 14 (3.0)
|   |   |   |   V4 = 7: 14 (3.0)
|   |   |   |   V4 = 8: 13 (3.0)
|   |   V5 = 2
|   |   |   V3 = 1
|   |   |   |   V4 = 1: 14 (3.0)
|   |   |   |   V4 = 2: 13 (3.0)
|   |   |   |   V4 = 3: 13 (3.0)
|   |   |   |   V4 = 4: 14 (3.0)
|   |   |   |   V4 = 5: 17 (3.0)
|   |   |   |   V4 = 6: 17 (3.0)
|   |   |   |   V4 = 7: 17 (3.0)
|   |   |   |   V4 = 8: 14 (3.0)
|   |   |   V3 = 2
|   |   |   |   V4 = 1: 14 (2.0)
|   |   |   |   V4 = 2: 13 (3.0)
|   |   |   |   V4 = 3: 13 (3.0)
|   |   |   |   V4 = 4: 15 (3.0)
|   |   |   |   V4 = 5: 17 (3.0)
|   |   |   |   V4 = 6: 13 (0.0)
|   |   |   |   V4 = 7: 17 (3.0)
|   |   |   |   V4 = 8: 15 (3.0)
|   |   |   V3 = 3
|   |   |   |   V4 = 1
|   |   |   |   |   V1 = 1: 10 (0.0)
|   |   |   |   |   V1 = 2: 10 (1.0)
|   |   |   |   |   V1 = 3: 10 (0.0)
|   |   |   |   |   V1 = 4: 11 (1.0)
|   |   |   |   V4 = 2: 10 (3.0/1.0)
|   |   |   |   V4 = 3: 10 (3.0)
|   |   |   |   V4 = 4: 11 (3.0/1.0)
|   |   |   |   V4 = 5: 17 (3.0)
|   |   |   |   V4 = 6: 17 (3.0)
|   |   |   |   V4 = 7: 17 (3.0)
|   |   |   |   V4 = 8: 10 (3.0)
|   |   |   V3 = 4
|   |   |   |   V4 = 1: 12 (2.0)
|   |   |   |   V4 = 2: 12 (3.0)
|   |   |   |   V4 = 3: 12 (3.0)
|   |   |   |   V4 = 4: 13 (3.0/1.0)
|   |   |   |   V4 = 5: 13 (3.0)
|   |   |   |   V4 = 6: 13 (3.0)
|   |   |   |   V4 = 7: 13 (3.0)
|   |   |   |   V4 = 8: 12 (3.0)
|   |   |   V3 = 5
|   |   |   |   V4 = 1: 13 (3.0/1.0)
|   |   |   |   V4 = 2: 13 (3.0)
|   |   |   |   V4 = 3: 13 (3.0)
|   |   |   |   V4 = 4: 13 (3.0)
|   |   |   |   V4 = 5: 14 (3.0)
|   |   |   |   V4 = 6: 15 (3.0)
|   |   |   |   V4 = 7: 14 (3.0)
|   |   |   |   V4 = 8: 14 (3.0)
|   |   |   V3 = 6
|   |   |   |   V4 = 1: 13 (3.0/1.0)
|   |   |   |   V4 = 2: 13 (3.0)
|   |   |   |   V4 = 3: 13 (3.0)
|   |   |   |   V4 = 4: 14 (3.0)
|   |   |   |   V4 = 5: 14 (3.0)
|   |   |   |   V4 = 6: 15 (3.0)
|   |   |   |   V4 = 7: 15 (3.0)
|   |   |   |   V4 = 8: 14 (3.0)
|   |   |   V3 = 7
|   |   |   |   V4 = 1: 13 (3.0/1.0)
|   |   |   |   V4 = 2: 13 (3.0)
|   |   |   |   V4 = 3: 13 (3.0)
|   |   |   |   V4 = 4: 14 (3.0)
|   |   |   |   V4 = 5: 13 (3.0)
|   |   |   |   V4 = 6: 15 (3.0/1.0)
|   |   |   |   V4 = 7: 14 (3.0/1.0)
|   |   |   |   V4 = 8: 14 (3.0)
|   |   |   V3 = 8
|   |   |   |   V4 = 1: 13 (3.0/1.0)
|   |   |   |   V4 = 2: 13 (3.0)
|   |   |   |   V4 = 3: 13 (3.0)
|   |   |   |   V4 = 4: 14 (3.0)
|   |   |   |   V4 = 5: 13 (3.0)
|   |   |   |   V4 = 6: 14 (3.0/1.0)
|   |   |   |   V4 = 7: 14 (3.0)
|   |   |   |   V4 = 8: 13 (3.0)
|   |   V5 = 3
|   |   |   V3 = 1: 14 (24.0/3.0)
|   |   |   V3 = 2
|   |   |   |   V4 = 1: 15 (2.0)
|   |   |   |   V4 = 2: 14 (3.0/1.0)
|   |   |   |   V4 = 3: 14 (3.0/1.0)
|   |   |   |   V4 = 4: 15 (3.0)
|   |   |   |   V4 = 5: 17 (3.0)
|   |   |   |   V4 = 6: 17 (3.0)
|   |   |   |   V4 = 7: 17 (3.0)
|   |   |   |   V4 = 8: 15 (3.0)
|   |   |   V3 = 3
|   |   |   |   V4 = 1
|   |   |   |   |   V1 = 1: 14 (0.0)
|   |   |   |   |   V1 = 2: 14 (1.0)
|   |   |   |   |   V1 = 3: 14 (0.0)
|   |   |   |   |   V1 = 4: 15 (1.0)
|   |   |   |   V4 = 2: 15 (3.0/1.0)
|   |   |   |   V4 = 3: 14 (3.0/1.0)
|   |   |   |   V4 = 4: 15 (3.0)
|   |   |   |   V4 = 5: 17 (3.0)
|   |   |   |   V4 = 6: 15 (0.0)
|   |   |   |   V4 = 7: 17 (3.0)
|   |   |   |   V4 = 8: 15 (3.0)
|   |   |   V3 = 4
|   |   |   |   V4 = 1: 12 (2.0)
|   |   |   |   V4 = 2: 12 (3.0)
|   |   |   |   V4 = 3: 12 (3.0)
|   |   |   |   V4 = 4: 13 (3.0/1.0)
|   |   |   |   V4 = 5: 17 (3.0)
|   |   |   |   V4 = 6: 17 (3.0)
|   |   |   |   V4 = 7: 17 (3.0)
|   |   |   |   V4 = 8: 12 (3.0)
|   |   |   V3 = 5: 14 (24.0/7.0)
|   |   |   V3 = 6: 15 (24.0/11.0)
|   |   |   V3 = 7
|   |   |   |   V4 = 1: 15 (3.0/1.0)
|   |   |   |   V4 = 2: 14 (3.0/1.0)
|   |   |   |   V4 = 3: 14 (3.0/1.0)
|   |   |   |   V4 = 4: 14 (3.0)
|   |   |   |   V4 = 5: 13 (3.0/1.0)
|   |   |   |   V4 = 6: 15 (3.0)
|   |   |   |   V4 = 7: 15 (3.0)
|   |   |   |   V4 = 8: 14 (3.0/1.0)
|   |   |   V3 = 8: 14 (24.0/7.0)
|   |   V5 = 4
|   |   |   V3 = 1: 14 (24.0/7.0)
|   |   |   V3 = 2: 15 (23.0/6.0)
|   |   |   V3 = 3
|   |   |   |   V4 = 1: 15 (2.0)
|   |   |   |   V4 = 2: 15 (3.0)
|   |   |   |   V4 = 3: 14 (3.0/1.0)
|   |   |   |   V4 = 4: 15 (3.0)
|   |   |   |   V4 = 5: 17 (3.0)
|   |   |   |   V4 = 6: 17 (3.0)
|   |   |   |   V4 = 7: 17 (3.0)
|   |   |   |   V4 = 8: 15 (3.0)
|   |   |   V3 = 4
|   |   |   |   V4 = 1: 15 (2.0)
|   |   |   |   V4 = 2: 15 (3.0/1.0)
|   |   |   |   V4 = 3: 14 (3.0/1.0)
|   |   |   |   V4 = 4: 15 (3.0)
|   |   |   |   V4 = 5: 17 (3.0)
|   |   |   |   V4 = 6: 15 (0.0)
|   |   |   |   V4 = 7: 17 (3.0)
|   |   |   |   V4 = 8: 14 (3.0/1.0)
|   |   |   V3 = 5
|   |   |   |   V4 = 1: 14 (3.0)
|   |   |   |   V4 = 2: 14 (3.0)
|   |   |   |   V4 = 3: 14 (3.0)
|   |   |   |   V4 = 4: 14 (3.0/1.0)
|   |   |   |   V4 = 5: 17 (3.0)
|   |   |   |   V4 = 6: 17 (3.0)
|   |   |   |   V4 = 7: 17 (3.0)
|   |   |   |   V4 = 8: 14 (3.0)
|   |   |   V3 = 6: 15 (24.0/7.0)
|   |   |   V3 = 7
|   |   |   |   V4 = 1: 15 (3.0)
|   |   |   |   V4 = 2: 15 (3.0)
|   |   |   |   V4 = 3: 14 (3.0/1.0)
|   |   |   |   V4 = 4: 14 (3.0)
|   |   |   |   V4 = 5: 14 (3.0)
|   |   |   |   V4 = 6: 15 (3.0)
|   |   |   |   V4 = 7: 15 (3.0)
|   |   |   |   V4 = 8: 15 (3.0)
|   |   |   V3 = 8
|   |   |   |   V1 = 1: 14 (0.0)
|   |   |   |   V1 = 2: 15 (8.0/2.0)
|   |   |   |   V1 = 3: 14 (8.0/1.0)
|   |   |   |   V1 = 4: 14 (8.0/1.0)
|   |   V5 = 5
|   |   |   V3 = 1: 14 (24.0/7.0)
|   |   |   V3 = 2
|   |   |   |   V4 = 1: 15 (2.0)
|   |   |   |   V4 = 2: 15 (3.0)
|   |   |   |   V4 = 3: 14 (3.0/1.0)
|   |   |   |   V4 = 4: 14 (3.0)
|   |   |   |   V4 = 5: 14 (3.0)
|   |   |   |   V4 = 6: 15 (3.0)
|   |   |   |   V4 = 7: 15 (3.0)
|   |   |   |   V4 = 8: 15 (3.0)
|   |   |   V3 = 3: 15 (23.0/7.0)
|   |   |   V3 = 4
|   |   |   |   V4 = 1: 15 (2.0)
|   |   |   |   V4 = 2: 15 (3.0/1.0)
|   |   |   |   V4 = 3: 14 (3.0/1.0)
|   |   |   |   V4 = 4: 15 (3.0)
|   |   |   |   V4 = 5: 17 (3.0)
|   |   |   |   V4 = 6: 17 (3.0)
|   |   |   |   V4 = 7: 17 (3.0)
|   |   |   |   V4 = 8: 14 (3.0/1.0)
|   |   |   V3 = 5
|   |   |   |   V4 = 1: 14 (3.0)
|   |   |   |   V4 = 2: 14 (3.0)
|   |   |   |   V4 = 3: 14 (3.0)
|   |   |   |   V4 = 4: 14 (3.0/1.0)
|   |   |   |   V4 = 5: 17 (3.0)
|   |   |   |   V4 = 6: 14 (0.0)
|   |   |   |   V4 = 7: 17 (3.0)
|   |   |   |   V4 = 8: 14 (3.0)
|   |   |   V3 = 6
|   |   |   |   V4 = 1: 15 (3.0)
|   |   |   |   V4 = 2: 15 (3.0)
|   |   |   |   V4 = 3
|   |   |   |   |   V1 = 1: 14 (0.0)
|   |   |   |   |   V1 = 2: 16 (1.0)
|   |   |   |   |   V1 = 3: 15 (1.0)
|   |   |   |   |   V1 = 4: 14 (1.0)
|   |   |   |   V4 = 4: 15 (3.0)
|   |   |   |   V4 = 5: 17 (3.0)
|   |   |   |   V4 = 6: 17 (3.0)
|   |   |   |   V4 = 7: 17 (3.0)
|   |   |   |   V4 = 8: 15 (3.0)
|   |   |   V3 = 7: 15 (24.0/7.0)
|   |   |   V3 = 8
|   |   |   |   V1 = 1: 14 (0.0)
|   |   |   |   V1 = 2: 15 (8.0/2.0)
|   |   |   |   V1 = 3: 14 (8.0/2.0)
|   |   |   |   V1 = 4: 14 (8.0/1.0)
|   |   V5 = 6
|   |   |   V3 = 1: 14 (24.0/7.0)
|   |   |   V3 = 2
|   |   |   |   V4 = 1: 15 (3.0)
|   |   |   |   V4 = 2: 15 (4.0/1.0)
|   |   |   |   V4 = 3: 14 (3.0/1.0)
|   |   |   |   V4 = 4: 14 (3.0)
|   |   |   |   V4 = 5: 13 (3.0)
|   |   |   |   V4 = 6: 15 (3.0)
|   |   |   |   V4 = 7: 15 (3.0)
|   |   |   |   V4 = 8: 14 (3.0/1.0)
|   |   |   V3 = 3
|   |   |   |   V4 = 1: 15 (3.0)
|   |   |   |   V4 = 2: 15 (4.0/1.0)
|   |   |   |   V4 = 3: 14 (4.0/2.0)
|   |   |   |   V4 = 4: 14 (3.0)
|   |   |   |   V4 = 5: 14 (3.0)
|   |   |   |   V4 = 6: 15 (3.0/1.0)
|   |   |   |   V4 = 7: 15 (3.0)
|   |   |   |   V4 = 8: 15 (3.0)
|   |   |   V3 = 4: 15 (27.0/11.0)
|   |   |   V3 = 5
|   |   |   |   V4 = 1: 13 (4.0)
|   |   |   |   V4 = 2: 13 (4.0/1.0)
|   |   |   |   V4 = 3: 13 (4.0/2.0)
|   |   |   |   V4 = 4: 14 (4.0/2.0)
|   |   |   |   V4 = 5: 17 (4.0)
|   |   |   |   V4 = 6: 17 (3.0)
|   |   |   |   V4 = 7: 17 (3.0)
|   |   |   |   V4 = 8: 13 (3.0/1.0)
|   |   |   V3 = 6
|   |   |   |   V4 = 1: 15 (4.0)
|   |   |   |   V4 = 2: 15 (4.0/1.0)
|   |   |   |   V4 = 3: 16 (4.0/2.0)
|   |   |   |   V4 = 4: 15 (4.0/1.0)
|   |   |   |   V4 = 5: 17 (4.0)
|   |   |   |   V4 = 6: 15 (0.0)
|   |   |   |   V4 = 7: 17 (3.0)
|   |   |   |   V4 = 8: 15 (3.0)
|   |   |   V3 = 7
|   |   |   |   V4 = 1: 15 (4.0)
|   |   |   |   V4 = 2: 15 (4.0/1.0)
|   |   |   |   V4 = 3: 14 (4.0/2.0)
|   |   |   |   V4 = 4: 15 (4.0/1.0)
|   |   |   |   V4 = 5: 17 (4.0)
|   |   |   |   V4 = 6: 17 (4.0)
|   |   |   |   V4 = 7: 17 (4.0)
|   |   |   |   V4 = 8: 15 (3.0)
|   |   |   V3 = 8
|   |   |   |   V1 = 1: 16 (8.0/3.0)
|   |   |   |   V1 = 2: 15 (8.0/2.0)
|   |   |   |   V1 = 3: 14 (8.0/2.0)
|   |   |   |   V1 = 4: 14 (8.0)
|   |   V5 = 7
|   |   |   V3 = 1
|   |   |   |   V1 = 1: 15 (7.0/1.0)
|   |   |   |   V1 = 2: 14 (8.0/1.0)
|   |   |   |   V1 = 3: 14 (8.0/1.0)
|   |   |   |   V1 = 4: 14 (8.0/3.0)
|   |   |   V3 = 2
|   |   |   |   V1 = 1: 15 (8.0/1.0)
|   |   |   |   V1 = 2: 14 (7.0/4.0)
|   |   |   |   V1 = 3: 14 (8.0/1.0)
|   |   |   |   V1 = 4: 14 (8.0/2.0)
|   |   |   V3 = 3
|   |   |   |   V4 = 1: 14 (3.0/1.0)
|   |   |   |   V4 = 2: 14 (4.0/1.0)
|   |   |   |   V4 = 3
|   |   |   |   |   V1 = 1: 16 (1.0)
|   |   |   |   |   V1 = 2: 15 (1.0)
|   |   |   |   |   V1 = 3: 14 (1.0)
|   |   |   |   |   V1 = 4: 13 (1.0)
|   |   |   |   V4 = 4: 14 (4.0/1.0)
|   |   |   |   V4 = 5: 14 (4.0)
|   |   |   |   V4 = 6: 15 (4.0/1.0)
|   |   |   |   V4 = 7: 15 (4.0/1.0)
|   |   |   |   V4 = 8: 14 (4.0/1.0)
|   |   |   V3 = 4
|   |   |   |   V4 = 1: 14 (3.0/1.0)
|   |   |   |   V4 = 2: 14 (4.0/1.0)
|   |   |   |   V4 = 3: 15 (4.0/2.0)
|   |   |   |   V4 = 4: 13 (4.0/1.0)
|   |   |   |   V4 = 5: 14 (4.0)
|   |   |   |   V4 = 6: 15 (4.0/2.0)
|   |   |   |   V4 = 7: 15 (4.0/1.0)
|   |   |   |   V4 = 8: 14 (4.0/1.0)
|   |   |   V3 = 5
|   |   |   |   V1 = 1: 15 (8.0/2.0)
|   |   |   |   V1 = 2: 13 (8.0/4.0)
|   |   |   |   V1 = 3: 13 (8.0/4.0)
|   |   |   |   V1 = 4: 13 (8.0/2.0)
|   |   |   V3 = 6
|   |   |   |   V4 = 1: 11 (4.0/1.0)
|   |   |   |   V4 = 2: 11 (4.0/2.0)
|   |   |   |   V4 = 3: 13 (4.0/2.0)
|   |   |   |   V4 = 4: 12 (4.0/2.0)
|   |   |   |   V4 = 5: 17 (4.0)
|   |   |   |   V4 = 6: 17 (4.0)
|   |   |   |   V4 = 7: 17 (4.0)
|   |   |   |   V4 = 8: 11 (4.0/2.0)
|   |   |   V3 = 7
|   |   |   |   V4 = 1: 14 (4.0/1.0)
|   |   |   |   V4 = 2: 14 (4.0/1.0)
|   |   |   |   V4 = 3
|   |   |   |   |   V1 = 1: 16 (1.0)
|   |   |   |   |   V1 = 2: 15 (1.0)
|   |   |   |   |   V1 = 3: 14 (1.0)
|   |   |   |   |   V1 = 4: 13 (1.0)
|   |   |   |   V4 = 4: 15 (4.0/1.0)
|   |   |   |   V4 = 5: 17 (4.0)
|   |   |   |   V4 = 6: 15 (0.0)
|   |   |   |   V4 = 7: 17 (4.0)
|   |   |   |   V4 = 8: 15 (4.0/1.0)
|   |   |   V3 = 8
|   |   |   |   V4 = 1: 14 (4.0/1.0)
|   |   |   |   V4 = 2: 14 (4.0/1.0)
|   |   |   |   V4 = 3
|   |   |   |   |   V1 = 1: 16 (1.0)
|   |   |   |   |   V1 = 2: 15 (1.0)
|   |   |   |   |   V1 = 3: 14 (1.0)
|   |   |   |   |   V1 = 4: 13 (1.0)
|   |   |   |   V4 = 4: 14 (4.0/1.0)
|   |   |   |   V4 = 5: 17 (4.0)
|   |   |   |   V4 = 6: 17 (4.0)
|   |   |   |   V4 = 7: 17 (4.0)
|   |   |   |   V4 = 8: 14 (4.0/1.0)
|   |   V5 = 8
|   |   |   V3 = 1: 14 (31.0/15.0)
|   |   |   V3 = 2: 14 (31.0/15.0)
|   |   |   V3 = 3
|   |   |   |   V4 = 1: 13 (3.0/1.0)
|   |   |   |   V4 = 2: 12 (4.0/2.0)
|   |   |   |   V4 = 3
|   |   |   |   |   V1 = 1: 15 (1.0)
|   |   |   |   |   V1 = 2: 14 (1.0)
|   |   |   |   |   V1 = 3: 13 (1.0)
|   |   |   |   |   V1 = 4: 12 (1.0)
|   |   |   |   V4 = 4: 14 (4.0/1.0)
|   |   |   |   V4 = 5: 13 (4.0/1.0)
|   |   |   |   V4 = 6: 15 (4.0/1.0)
|   |   |   |   V4 = 7: 15 (4.0/1.0)
|   |   |   |   V4 = 8: 13 (4.0/2.0)
|   |   |   V3 = 4
|   |   |   |   V4 = 1: 13 (3.0/1.0)
|   |   |   |   V4 = 2: 12 (4.0/2.0)
|   |   |   |   V4 = 3
|   |   |   |   |   V1 = 1: 15 (1.0)
|   |   |   |   |   V1 = 2: 14 (1.0)
|   |   |   |   |   V1 = 3: 13 (1.0)
|   |   |   |   |   V1 = 4: 12 (1.0)
|   |   |   |   V4 = 4: 13 (4.0/1.0)
|   |   |   |   V4 = 5: 12 (4.0/2.0)
|   |   |   |   V4 = 6: 14 (4.0/1.0)
|   |   |   |   V4 = 7: 14 (4.0/1.0)
|   |   |   |   V4 = 8: 13 (4.0/2.0)
|   |   |   V3 = 5
|   |   |   |   V1 = 1: 15 (8.0/4.0)
|   |   |   |   V1 = 2: 13 (8.0/2.0)
|   |   |   |   V1 = 3: 12 (8.0/4.0)
|   |   |   |   V1 = 4: 12 (8.0/2.0)
|   |   |   V3 = 6
|   |   |   |   V1 = 1: 13 (8.0/1.0)
|   |   |   |   V1 = 2: 13 (8.0/2.0)
|   |   |   |   V1 = 3: 11 (8.0/4.0)
|   |   |   |   V1 = 4: 11 (8.0/2.0)
|   |   |   V3 = 7
|   |   |   |   V4 = 1: 7 (4.0/2.0)
|   |   |   |   V4 = 2: 10 (4.0/2.0)
|   |   |   |   V4 = 3
|   |   |   |   |   V1 = 1: 11 (1.0)
|   |   |   |   |   V1 = 2: 10 (1.0)
|   |   |   |   |   V1 = 3: 9 (1.0)
|   |   |   |   |   V1 = 4: 7 (1.0)
|   |   |   |   V4 = 4: 9 (4.0/2.0)
|   |   |   |   V4 = 5: 17 (4.0)
|   |   |   |   V4 = 6: 17 (4.0)
|   |   |   |   V4 = 7: 17 (4.0)
|   |   |   |   V4 = 8: 9 (4.0/1.0)
|   |   |   V3 = 8
|   |   |   |   V4 = 1: 12 (4.0/2.0)
|   |   |   |   V4 = 2: 12 (4.0/2.0)
|   |   |   |   V4 = 3
|   |   |   |   |   V1 = 1: 15 (1.0)
|   |   |   |   |   V1 = 2: 14 (1.0)
|   |   |   |   |   V1 = 3: 13 (1.0)
|   |   |   |   |   V1 = 4: 12 (1.0)
|   |   |   |   V4 = 4: 14 (4.0/1.0)
|   |   |   |   V4 = 5: 17 (4.0)
|   |   |   |   V4 = 6: 17 (0.0)
|   |   |   |   V4 = 7: 17 (4.0)
|   |   |   |   V4 = 8: 13 (4.0/2.0)
|   V6 = 7
|   |   V4 = 1
|   |   |   V3 = 1: 14 (24.0/3.0)
|   |   |   V3 = 2: 14 (18.0/3.0)
|   |   |   V3 = 3: 14 (18.0/6.0)
|   |   |   V3 = 4
|   |   |   |   V5 = 1: 11 (2.0)
|   |   |   |   V5 = 2: 11 (2.0)
|   |   |   |   V5 = 3: 11 (2.0)
|   |   |   |   V5 = 4
|   |   |   |   |   V1 = 1: 13 (0.0)
|   |   |   |   |   V1 = 2: 14 (1.0)
|   |   |   |   |   V1 = 3: 13 (1.0)
|   |   |   |   |   V1 = 4: 13 (0.0)
|   |   |   |   V5 = 5
|   |   |   |   |   V1 = 1: 13 (0.0)
|   |   |   |   |   V1 = 2: 14 (1.0)
|   |   |   |   |   V1 = 3: 13 (1.0)
|   |   |   |   |   V1 = 4: 13 (0.0)
|   |   |   |   V5 = 6
|   |   |   |   |   V1 = 1: 13 (0.0)
|   |   |   |   |   V1 = 2: 14 (1.0)
|   |   |   |   |   V1 = 3: 13 (1.0)
|   |   |   |   |   V1 = 4: 13 (0.0)
|   |   |   |   V5 = 7: 14 (3.0/1.0)
|   |   |   |   V5 = 8: 13 (3.0/1.0)
|   |   |   V3 = 5: 13 (26.0/4.0)
|   |   |   V3 = 6
|   |   |   |   V5 = 1: 13 (3.0/1.0)
|   |   |   |   V5 = 2: 13 (3.0/1.0)
|   |   |   |   V5 = 3: 14 (3.0)
|   |   |   |   V5 = 4: 14 (3.0)
|   |   |   |   V5 = 5: 14 (3.0)
|   |   |   |   V5 = 6: 14 (3.0)
|   |   |   |   V5 = 7: 11 (4.0/2.0)
|   |   |   |   V5 = 8: 11 (4.0/2.0)
|   |   |   V3 = 7: 14 (26.0/10.0)
|   |   |   V3 = 8: 14 (26.0/9.0)
|   |   V4 = 2
|   |   |   V5 = 1
|   |   |   |   V1 = 1: 11 (0.0)
|   |   |   |   V1 = 2: 11 (8.0/2.0)
|   |   |   |   V1 = 3: 11 (8.0/2.0)
|   |   |   |   V1 = 4: 12 (8.0/3.0)
|   |   |   V5 = 2: 13 (24.0/6.0)
|   |   |   V5 = 3: 14 (24.0/7.0)
|   |   |   V5 = 4: 14 (24.0/5.0)
|   |   |   V5 = 5: 14 (24.0/5.0)
|   |   |   V5 = 6: 14 (24.0/5.0)
|   |   |   V5 = 7
|   |   |   |   V1 = 1: 15 (7.0/2.0)
|   |   |   |   V1 = 2: 14 (8.0/2.0)
|   |   |   |   V1 = 3: 14 (8.0/2.0)
|   |   |   |   V1 = 4: 14 (8.0/3.0)
|   |   |   V5 = 8
|   |   |   |   V1 = 1: 14 (8.0/2.0)
|   |   |   |   V1 = 2: 13 (8.0/2.0)
|   |   |   |   V1 = 3: 12 (8.0/2.0)
|   |   |   |   V1 = 4: 12 (8.0/2.0)
|   |   V4 = 3
|   |   |   V5 = 1: 11 (24.0/6.0)
|   |   |   V5 = 2: 13 (24.0/6.0)
|   |   |   V5 = 3: 14 (24.0/8.0)
|   |   |   V5 = 4: 14 (24.0/8.0)
|   |   |   V5 = 5: 14 (24.0/8.0)
|   |   |   V5 = 6: 14 (24.0/8.0)
|   |   |   V5 = 7
|   |   |   |   V1 = 1
|   |   |   |   |   V3 = 1: 15 (0.0)
|   |   |   |   |   V3 = 2: 15 (0.0)
|   |   |   |   |   V3 = 3: 16 (1.0)
|   |   |   |   |   V3 = 4: 15 (1.0)
|   |   |   |   |   V3 = 5: 14 (1.0)
|   |   |   |   |   V3 = 6: 13 (1.0)
|   |   |   |   |   V3 = 7: 16 (1.0)
|   |   |   |   |   V3 = 8: 15 (1.0)
|   |   |   |   V1 = 2: 14 (8.0/2.0)
|   |   |   |   V1 = 3: 14 (8.0/3.0)
|   |   |   |   V1 = 4: 13 (8.0/2.0)
|   |   |   V5 = 8
|   |   |   |   V1 = 1: 14 (8.0/2.0)
|   |   |   |   V1 = 2: 14 (8.0/3.0)
|   |   |   |   V1 = 3: 12 (8.0/2.0)
|   |   |   |   V1 = 4: 12 (8.0/3.0)
|   |   V4 = 4
|   |   |   V3 = 1: 14 (25.0/6.0)
|   |   |   V3 = 2: 14 (25.0/6.0)
|   |   |   V3 = 3: 14 (25.0/8.0)
|   |   |   V3 = 4
|   |   |   |   V5 = 1: 11 (3.0)
|   |   |   |   V5 = 2: 11 (3.0)
|   |   |   |   V5 = 3: 11 (3.0)
|   |   |   |   V5 = 4: 13 (3.0)
|   |   |   |   V5 = 5: 13 (3.0)
|   |   |   |   V5 = 6: 13 (3.0)
|   |   |   |   V5 = 7: 13 (4.0/1.0)
|   |   |   |   V5 = 8: 13 (4.0/1.0)
|   |   |   V3 = 5
|   |   |   |   V5 = 1: 12 (3.0/1.0)
|   |   |   |   V5 = 2: 13 (3.0)
|   |   |   |   V5 = 3: 13 (3.0)
|   |   |   |   V5 = 4: 13 (3.0)
|   |   |   |   V5 = 5: 13 (3.0)
|   |   |   |   V5 = 6: 11 (3.0/1.0)
|   |   |   |   V5 = 7: 11 (4.0/2.0)
|   |   |   |   V5 = 8: 11 (4.0/2.0)
|   |   |   V3 = 6
|   |   |   |   V1 = 1: 13 (2.0)
|   |   |   |   V1 = 2: 15 (8.0/4.0)
|   |   |   |   V1 = 3: 14 (8.0/4.0)
|   |   |   |   V1 = 4: 14 (8.0/3.0)
|   |   |   V3 = 7: 14 (26.0/9.0)
|   |   |   V3 = 8: 14 (26.0/7.0)
|   |   V4 = 5
|   |   |   V5 = 1
|   |   |   |   V3 = 1: 14 (3.0)
|   |   |   |   V3 = 2: 8 (3.0)
|   |   |   |   V3 = 3: 11 (3.0)
|   |   |   |   V3 = 4: 12 (3.0)
|   |   |   |   V3 = 5: 12 (3.0)
|   |   |   |   V3 = 6: 13 (3.0)
|   |   |   |   V3 = 7: 13 (3.0)
|   |   |   |   V3 = 8: 13 (3.0)
|   |   |   V5 = 2
|   |   |   |   V3 = 1: 14 (3.0)
|   |   |   |   V3 = 2: 14 (3.0)
|   |   |   |   V3 = 3: 11 (3.0)
|   |   |   |   V3 = 4: 13 (3.0)
|   |   |   |   V3 = 5: 14 (3.0)
|   |   |   |   V3 = 6: 14 (3.0)
|   |   |   |   V3 = 7: 13 (3.0)
|   |   |   |   V3 = 8: 13 (3.0)
|   |   |   V5 = 3
|   |   |   |   V3 = 1: 14 (3.0)
|   |   |   |   V3 = 2: 14 (3.0)
|   |   |   |   V3 = 3: 14 (3.0)
|   |   |   |   V3 = 4: 13 (3.0)
|   |   |   |   V3 = 5: 14 (3.0)
|   |   |   |   V3 = 6: 14 (3.0)
|   |   |   |   V3 = 7: 13 (3.0/1.0)
|   |   |   |   V3 = 8: 13 (3.0)
|   |   |   V5 = 4: 14 (24.0/6.0)
|   |   |   V5 = 5: 14 (24.0/5.0)
|   |   |   V5 = 6: 14 (24.0/7.0)
|   |   |   V5 = 7
|   |   |   |   V3 = 1: 13 (3.0)
|   |   |   |   V3 = 2: 13 (3.0)
|   |   |   |   V3 = 3: 14 (3.0)
|   |   |   |   V3 = 4: 14 (3.0)
|   |   |   |   V3 = 5: 14 (4.0/2.0)
|   |   |   |   V3 = 6: 13 (4.0/2.0)
|   |   |   |   V3 = 7: 14 (4.0/1.0)
|   |   |   |   V3 = 8: 14 (4.0/1.0)
|   |   |   V5 = 8: 13 (32.0/18.0)
|   |   V4 = 6
|   |   |   V3 = 1
|   |   |   |   V5 = 1: 17 (3.0)
|   |   |   |   V5 = 2: 17 (3.0)
|   |   |   |   V5 = 3: 13 (3.0)
|   |   |   |   V5 = 4: 13 (3.0)
|   |   |   |   V5 = 5: 12 (3.0)
|   |   |   |   V5 = 6: 12 (3.0)
|   |   |   |   V5 = 7: 12 (3.0)
|   |   |   |   V5 = 8: 12 (4.0)
|   |   |   V3 = 2
|   |   |   |   V5 = 1: 17 (3.0)
|   |   |   |   V5 = 2: 17 (3.0)
|   |   |   |   V5 = 3: 17 (3.0)
|   |   |   |   V5 = 4: 13 (3.0)
|   |   |   |   V5 = 5: 13 (3.0)
|   |   |   |   V5 = 6: 13 (3.0)
|   |   |   |   V5 = 7: 13 (3.0)
|   |   |   |   V5 = 8: 12 (4.0)
|   |   |   V3 = 3
|   |   |   |   V5 = 1: 10 (3.0)
|   |   |   |   V5 = 2: 17 (3.0)
|   |   |   |   V5 = 3: 17 (3.0)
|   |   |   |   V5 = 4: 17 (3.0)
|   |   |   |   V5 = 5: 13 (3.0/1.0)
|   |   |   |   V5 = 6: 13 (3.0)
|   |   |   |   V5 = 7: 13 (3.0)
|   |   |   |   V5 = 8: 13 (4.0)
|   |   |   V3 = 4
|   |   |   |   V5 = 1: 12 (3.0)
|   |   |   |   V5 = 2: 12 (3.0)
|   |   |   |   V5 = 3: 17 (3.0)
|   |   |   |   V5 = 4: 17 (3.0)
|   |   |   |   V5 = 5: 17 (3.0)
|   |   |   |   V5 = 6: 13 (3.0)
|   |   |   |   V5 = 7: 13 (3.0)
|   |   |   |   V5 = 8: 13 (4.0)
|   |   |   V3 = 5
|   |   |   |   V5 = 1: 13 (3.0)
|   |   |   |   V5 = 2: 13 (3.0)
|   |   |   |   V5 = 3: 13 (3.0/1.0)
|   |   |   |   V5 = 4: 17 (3.0)
|   |   |   |   V5 = 5: 17 (3.0)
|   |   |   |   V5 = 6: 17 (3.0)
|   |   |   |   V5 = 7: 12 (3.0/1.0)
|   |   |   |   V5 = 8: 12 (4.0/2.0)
|   |   |   V3 = 6
|   |   |   |   V5 = 1: 13 (3.0)
|   |   |   |   V5 = 2: 13 (3.0)
|   |   |   |   V5 = 3: 13 (3.0)
|   |   |   |   V5 = 4: 13 (3.0)
|   |   |   |   V5 = 5: 17 (3.0)
|   |   |   |   V5 = 6: 17 (3.0)
|   |   |   |   V5 = 7: 17 (4.0)
|   |   |   |   V5 = 8: 13 (4.0/2.0)
|   |   |   V3 = 7
|   |   |   |   V5 = 1: 12 (3.0)
|   |   |   |   V5 = 2: 13 (3.0)
|   |   |   |   V5 = 3: 13 (3.0)
|   |   |   |   V5 = 4: 13 (3.0)
|   |   |   |   V5 = 5: 13 (3.0)
|   |   |   |   V5 = 6: 17 (3.0)
|   |   |   |   V5 = 7: 17 (4.0)
|   |   |   |   V5 = 8: 17 (4.0)
|   |   |   V3 = 8
|   |   |   |   V5 = 1: 12 (3.0)
|   |   |   |   V5 = 2: 12 (3.0)
|   |   |   |   V5 = 3: 12 (3.0)
|   |   |   |   V5 = 4: 12 (3.0/1.0)
|   |   |   |   V5 = 5: 13 (3.0)
|   |   |   |   V5 = 6: 13 (3.0)
|   |   |   |   V5 = 7: 17 (4.0)
|   |   |   |   V5 = 8: 17 (4.0)
|   |   V4 = 7
|   |   |   V3 = 1: 14 (22.0/4.0)
|   |   |   V3 = 2
|   |   |   |   V5 = 1: 17 (3.0)
|   |   |   |   V5 = 2: 15 (0.0)
|   |   |   |   V5 = 3: 17 (3.0)
|   |   |   |   V5 = 4: 15 (3.0)
|   |   |   |   V5 = 5: 15 (3.0)
|   |   |   |   V5 = 6: 15 (3.0)
|   |   |   |   V5 = 7: 14 (3.0)
|   |   |   |   V5 = 8: 14 (4.0/1.0)
|   |   |   V3 = 3
|   |   |   |   V5 = 1: 11 (3.0)
|   |   |   |   V5 = 2: 17 (3.0)
|   |   |   |   V5 = 3: 15 (0.0)
|   |   |   |   V5 = 4: 17 (3.0)
|   |   |   |   V5 = 5: 15 (3.0/1.0)
|   |   |   |   V5 = 6: 15 (3.0)
|   |   |   |   V5 = 7: 15 (3.0)
|   |   |   |   V5 = 8: 15 (4.0/1.0)
|   |   |   V3 = 4
|   |   |   |   V5 = 1: 12 (3.0)
|   |   |   |   V5 = 2: 13 (3.0)
|   |   |   |   V5 = 3: 17 (3.0)
|   |   |   |   V5 = 4: 14 (0.0)
|   |   |   |   V5 = 5: 17 (3.0)
|   |   |   |   V5 = 6: 15 (3.0/1.0)
|   |   |   |   V5 = 7: 14 (3.0)
|   |   |   |   V5 = 8: 14 (4.0/1.0)
|   |   |   V3 = 5
|   |   |   |   V5 = 1: 14 (3.0)
|   |   |   |   V5 = 2: 14 (3.0)
|   |   |   |   V5 = 3: 15 (3.0)
|   |   |   |   V5 = 4: 17 (3.0)
|   |   |   |   V5 = 5: 14 (0.0)
|   |   |   |   V5 = 6: 17 (3.0)
|   |   |   |   V5 = 7: 14 (3.0/1.0)
|   |   |   |   V5 = 8: 12 (4.0/2.0)
|   |   |   V3 = 6
|   |   |   |   V5 = 1: 14 (3.0)
|   |   |   |   V5 = 2: 15 (3.0)
|   |   |   |   V5 = 3: 15 (3.0)
|   |   |   |   V5 = 4: 15 (3.0/1.0)
|   |   |   |   V5 = 5: 17 (3.0)
|   |   |   |   V5 = 6: 15 (0.0)
|   |   |   |   V5 = 7: 17 (3.0)
|   |   |   |   V5 = 8: 13 (4.0/2.0)
|   |   |   V3 = 7
|   |   |   |   V5 = 1: 14 (3.0)
|   |   |   |   V5 = 2: 14 (3.0/1.0)
|   |   |   |   V5 = 3: 15 (3.0)
|   |   |   |   V5 = 4: 15 (3.0)
|   |   |   |   V5 = 5: 15 (3.0/1.0)
|   |   |   |   V5 = 6: 17 (3.0)
|   |   |   |   V5 = 7: 15 (0.0)
|   |   |   |   V5 = 8: 17 (4.0)
|   |   |   V3 = 8: 14 (22.0/6.0)
|   |   V4 = 8
|   |   |   V5 = 1
|   |   |   |   V3 = 1: 17 (3.0)
|   |   |   |   V3 = 2: 17 (3.0)
|   |   |   |   V3 = 3: 10 (3.0)
|   |   |   |   V3 = 4: 12 (3.0)
|   |   |   |   V3 = 5: 13 (3.0)
|   |   |   |   V3 = 6: 13 (3.0)
|   |   |   |   V3 = 7: 13 (3.0)
|   |   |   |   V3 = 8: 13 (3.0)
|   |   |   V5 = 2
|   |   |   |   V3 = 1: 17 (3.0)
|   |   |   |   V3 = 2: 17 (3.0)
|   |   |   |   V3 = 3: 17 (3.0)
|   |   |   |   V3 = 4: 12 (3.0)
|   |   |   |   V3 = 5: 14 (3.0)
|   |   |   |   V3 = 6: 14 (3.0)
|   |   |   |   V3 = 7: 14 (3.0)
|   |   |   |   V3 = 8: 13 (3.0)
|   |   |   V5 = 3
|   |   |   |   V3 = 1: 14 (3.0)
|   |   |   |   V3 = 2: 17 (3.0)
|   |   |   |   V3 = 3: 17 (3.0)
|   |   |   |   V3 = 4: 17 (3.0)
|   |   |   |   V3 = 5: 14 (3.0)
|   |   |   |   V3 = 6: 15 (3.0)
|   |   |   |   V3 = 7: 14 (3.0/1.0)
|   |   |   |   V3 = 8: 14 (3.0)
|   |   |   V5 = 4
|   |   |   |   V3 = 1: 14 (3.0)
|   |   |   |   V3 = 2: 15 (3.0)
|   |   |   |   V3 = 3: 17 (3.0)
|   |   |   |   V3 = 4: 17 (3.0)
|   |   |   |   V3 = 5: 17 (3.0)
|   |   |   |   V3 = 6: 15 (3.0)
|   |   |   |   V3 = 7: 15 (3.0)
|   |   |   |   V3 = 8: 14 (3.0)
|   |   |   V5 = 5
|   |   |   |   V3 = 1: 14 (3.0)
|   |   |   |   V3 = 2: 15 (3.0)
|   |   |   |   V3 = 3: 15 (3.0)
|   |   |   |   V3 = 4: 17 (3.0)
|   |   |   |   V3 = 5: 17 (3.0)
|   |   |   |   V3 = 6: 17 (3.0)
|   |   |   |   V3 = 7: 15 (3.0)
|   |   |   |   V3 = 8: 14 (3.0)
|   |   |   V5 = 6
|   |   |   |   V3 = 1: 14 (3.0)
|   |   |   |   V3 = 2: 14 (3.0)
|   |   |   |   V3 = 3: 15 (3.0)
|   |   |   |   V3 = 4: 14 (3.0)
|   |   |   |   V3 = 5: 17 (3.0)
|   |   |   |   V3 = 6: 17 (3.0)
|   |   |   |   V3 = 7: 17 (3.0)
|   |   |   |   V3 = 8: 14 (3.0)
|   |   |   V5 = 7
|   |   |   |   V3 = 1: 14 (3.0/1.0)
|   |   |   |   V3 = 2: 14 (3.0)
|   |   |   |   V3 = 3: 14 (3.0)
|   |   |   |   V3 = 4: 14 (3.0)
|   |   |   |   V3 = 5: 12 (3.0/1.0)
|   |   |   |   V3 = 6: 17 (3.0)
|   |   |   |   V3 = 7: 17 (3.0)
|   |   |   |   V3 = 8: 17 (4.0)
|   |   |   V5 = 8
|   |   |   |   V3 = 1: 13 (4.0/2.0)
|   |   |   |   V3 = 2: 13 (4.0/2.0)
|   |   |   |   V3 = 3: 13 (4.0/2.0)
|   |   |   |   V3 = 4: 13 (4.0/2.0)
|   |   |   |   V3 = 5: 12 (4.0/2.0)
|   |   |   |   V3 = 6: 13 (4.0/2.0)
|   |   |   |   V3 = 7: 17 (4.0)
|   |   |   |   V3 = 8: 17 (4.0)
|   V6 = 8
|   |   V4 = 1
|   |   |   V5 = 1
|   |   |   |   V1 = 1: 12 (0.0)
|   |   |   |   V1 = 2: 10 (7.0/2.0)
|   |   |   |   V1 = 3: 12 (7.0/2.0)
|   |   |   |   V1 = 4: 12 (7.0/2.0)
|   |   |   V5 = 2
|   |   |   |   V3 = 1: 14 (3.0)
|   |   |   |   V3 = 2: 14 (2.0)
|   |   |   |   V3 = 3
|   |   |   |   |   V1 = 1: 9 (0.0)
|   |   |   |   |   V1 = 2: 9 (1.0)
|   |   |   |   |   V1 = 3: 9 (0.0)
|   |   |   |   |   V1 = 4: 10 (1.0)
|   |   |   |   V3 = 4: 11 (2.0)
|   |   |   |   V3 = 5: 12 (3.0/1.0)
|   |   |   |   V3 = 6: 12 (3.0/1.0)
|   |   |   |   V3 = 7: 12 (3.0/1.0)
|   |   |   |   V3 = 8: 12 (3.0/1.0)
|   |   |   V5 = 3: 14 (21.0/7.0)
|   |   |   V5 = 4: 14 (21.0/4.0)
|   |   |   V5 = 5: 14 (21.0/4.0)
|   |   |   V5 = 6: 14 (21.0/7.0)
|   |   |   V5 = 7
|   |   |   |   V3 = 1: 13 (3.0)
|   |   |   |   V3 = 2: 14 (2.0)
|   |   |   |   V3 = 3: 14 (2.0)
|   |   |   |   V3 = 4
|   |   |   |   |   V1 = 1: 13 (0.0)
|   |   |   |   |   V1 = 2: 14 (1.0)
|   |   |   |   |   V1 = 3: 13 (1.0)
|   |   |   |   |   V1 = 4: 13 (0.0)
|   |   |   |   V3 = 5: 12 (3.0/1.0)
|   |   |   |   V3 = 6: 11 (3.0/1.0)
|   |   |   |   V3 = 7: 14 (3.0)
|   |   |   |   V3 = 8: 14 (3.0)
|   |   |   V5 = 8: 13 (28.0/16.0)
|   |   V4 = 2
|   |   |   V5 = 1
|   |   |   |   V1 = 1: 10 (0.0)
|   |   |   |   V1 = 2: 10 (8.0/2.0)
|   |   |   |   V1 = 3: 10 (8.0/2.0)
|   |   |   |   V1 = 4: 12 (8.0/3.0)
|   |   |   V5 = 2: 12 (24.0/6.0)
|   |   |   V5 = 3
|   |   |   |   V3 = 1: 14 (3.0)
|   |   |   |   V3 = 2: 14 (3.0)
|   |   |   |   V3 = 3: 14 (3.0)
|   |   |   |   V3 = 4: 11 (3.0)
|   |   |   |   V3 = 5: 13 (3.0)
|   |   |   |   V3 = 6: 14 (3.0)
|   |   |   |   V3 = 7: 14 (3.0)
|   |   |   |   V3 = 8: 13 (3.0/1.0)
|   |   |   V5 = 4: 14 (24.0/4.0)
|   |   |   V5 = 5: 14 (24.0/4.0)
|   |   |   V5 = 6: 14 (24.0/7.0)
|   |   |   V5 = 7
|   |   |   |   V3 = 1: 13 (3.0)
|   |   |   |   V3 = 2: 14 (3.0)
|   |   |   |   V3 = 3: 14 (3.0)
|   |   |   |   V3 = 4: 14 (3.0/1.0)
|   |   |   |   V3 = 5: 12 (3.0/1.0)
|   |   |   |   V3 = 6: 11 (3.0/1.0)
|   |   |   |   V3 = 7: 14 (3.0)
|   |   |   |   V3 = 8: 14 (3.0)
|   |   |   V5 = 8
|   |   |   |   V1 = 1: 14 (7.0/2.0)
|   |   |   |   V1 = 2: 13 (8.0/2.0)
|   |   |   |   V1 = 3: 12 (8.0/2.0)
|   |   |   |   V1 = 4: 12 (8.0/2.0)
|   |   V4 = 3
|   |   |   V5 = 1: 10 (24.0/6.0)
|   |   |   V5 = 2: 12 (24.0/6.0)
|   |   |   V5 = 3
|   |   |   |   V3 = 1: 14 (3.0)
|   |   |   |   V3 = 2: 14 (3.0)
|   |   |   |   V3 = 3: 14 (3.0)
|   |   |   |   V3 = 4: 11 (3.0)
|   |   |   |   V3 = 5: 13 (3.0)
|   |   |   |   V3 = 6: 14 (3.0)
|   |   |   |   V3 = 7: 14 (3.0)
|   |   |   |   V3 = 8: 13 (3.0/1.0)
|   |   |   V5 = 4: 14 (24.0/5.0)
|   |   |   V5 = 5: 14 (24.0/5.0)
|   |   |   V5 = 6: 14 (24.0/8.0)
|   |   |   V5 = 7
|   |   |   |   V1 = 1: 14 (0.0)
|   |   |   |   V1 = 2: 14 (8.0/3.0)
|   |   |   |   V1 = 3: 14 (8.0/4.0)
|   |   |   |   V1 = 4: 12 (8.0/2.0)
|   |   |   V5 = 8
|   |   |   |   V1 = 1: 14 (6.0/2.0)
|   |   |   |   V1 = 2: 13 (8.0/2.0)
|   |   |   |   V1 = 3: 12 (8.0/2.0)
|   |   |   |   V1 = 4: 12 (8.0/3.0)
|   |   V4 = 4
|   |   |   V5 = 1: 10 (24.0/6.0)
|   |   |   V5 = 2: 12 (24.0/6.0)
|   |   |   V5 = 3
|   |   |   |   V3 = 1: 14 (3.0)
|   |   |   |   V3 = 2: 14 (3.0)
|   |   |   |   V3 = 3: 14 (3.0)
|   |   |   |   V3 = 4: 11 (3.0)
|   |   |   |   V3 = 5: 13 (3.0)
|   |   |   |   V3 = 6: 14 (3.0)
|   |   |   |   V3 = 7: 14 (3.0)
|   |   |   |   V3 = 8: 13 (3.0/1.0)
|   |   |   V5 = 4: 14 (24.0/6.0)
|   |   |   V5 = 5: 14 (24.0/6.0)
|   |   |   V5 = 6
|   |   |   |   V3 = 1: 13 (3.0)
|   |   |   |   V3 = 2: 14 (3.0)
|   |   |   |   V3 = 3: 14 (3.0)
|   |   |   |   V3 = 4: 13 (3.0)
|   |   |   |   V3 = 5: 11 (3.0/1.0)
|   |   |   |   V3 = 6: 14 (3.0)
|   |   |   |   V3 = 7: 14 (3.0)
|   |   |   |   V3 = 8: 14 (3.0)
|   |   |   V5 = 7
|   |   |   |   V1 = 1: 12 (0.0)
|   |   |   |   V1 = 2: 13 (8.0/2.0)
|   |   |   |   V1 = 3: 12 (8.0/2.0)
|   |   |   |   V1 = 4: 12 (8.0/2.0)
|   |   |   V5 = 8
|   |   |   |   V1 = 1
|   |   |   |   |   V3 = 1: 13 (0.0)
|   |   |   |   |   V3 = 2: 13 (0.0)
|   |   |   |   |   V3 = 3: 13 (0.0)
|   |   |   |   |   V3 = 4: 14 (1.0)
|   |   |   |   |   V3 = 5: 13 (1.0)
|   |   |   |   |   V3 = 6: 13 (1.0)
|   |   |   |   |   V3 = 7: 11 (1.0)
|   |   |   |   |   V3 = 8: 14 (1.0)
|   |   |   |   V1 = 2: 13 (8.0/3.0)
|   |   |   |   V1 = 3: 11 (8.0/2.0)
|   |   |   |   V1 = 4: 10 (8.0/2.0)
|   |   V4 = 5
|   |   |   V5 = 1: 12 (24.0/6.0)
|   |   |   V5 = 2
|   |   |   |   V3 = 1: 13 (3.0)
|   |   |   |   V3 = 2: 14 (3.0)
|   |   |   |   V3 = 3: 10 (3.0)
|   |   |   |   V3 = 4: 12 (3.0)
|   |   |   |   V3 = 5: 14 (3.0)
|   |   |   |   V3 = 6: 14 (3.0)
|   |   |   |   V3 = 7: 13 (3.0)
|   |   |   |   V3 = 8: 13 (3.0)
|   |   |   V5 = 3
|   |   |   |   V3 = 1: 13 (3.0)
|   |   |   |   V3 = 2: 14 (3.0)
|   |   |   |   V3 = 3: 14 (3.0)
|   |   |   |   V3 = 4: 12 (3.0)
|   |   |   |   V3 = 5: 14 (3.0)
|   |   |   |   V3 = 6: 14 (3.0)
|   |   |   |   V3 = 7: 13 (3.0/1.0)
|   |   |   |   V3 = 8: 13 (3.0)
|   |   |   V5 = 4: 14 (24.0/6.0)
|   |   |   V5 = 5: 14 (24.0/5.0)
|   |   |   V5 = 6
|   |   |   |   V3 = 1: 13 (3.0)
|   |   |   |   V3 = 2: 13 (3.0)
|   |   |   |   V3 = 3: 14 (3.0)
|   |   |   |   V3 = 4: 14 (3.0)
|   |   |   |   V3 = 5: 12 (3.0/1.0)
|   |   |   |   V3 = 6: 14 (3.0)
|   |   |   |   V3 = 7: 14 (3.0)
|   |   |   |   V3 = 8: 13 (3.0/1.0)
|   |   |   V5 = 7
|   |   |   |   V3 = 1: 13 (3.0)
|   |   |   |   V3 = 2: 13 (3.0)
|   |   |   |   V3 = 3: 14 (3.0)
|   |   |   |   V3 = 4: 14 (3.0)
|   |   |   |   V3 = 5: 12 (3.0/1.0)
|   |   |   |   V3 = 6
|   |   |   |   |   V1 = 1: 10 (0.0)
|   |   |   |   |   V1 = 2: 13 (1.0)
|   |   |   |   |   V1 = 3: 11 (1.0)
|   |   |   |   |   V1 = 4: 10 (1.0)
|   |   |   |   V3 = 7: 14 (3.0)
|   |   |   |   V3 = 8: 13 (3.0/1.0)
|   |   |   V5 = 8
|   |   |   |   V1 = 1: 14 (4.0/2.0)
|   |   |   |   V1 = 2: 13 (8.0/2.0)
|   |   |   |   V1 = 3: 13 (8.0/4.0)
|   |   |   |   V1 = 4: 12 (8.0/2.0)
|   |   V4 = 6: 13 (195.0/67.0)
|   |   V4 = 7
|   |   |   V3 = 1
|   |   |   |   V5 = 1: 17 (3.0)
|   |   |   |   V5 = 2: 17 (3.0)
|   |   |   |   V5 = 3: 11 (3.0)
|   |   |   |   V5 = 4: 10 (3.0)
|   |   |   |   V5 = 5: 11 (3.0)
|   |   |   |   V5 = 6: 10 (3.0)
|   |   |   |   V5 = 7: 10 (3.0)
|   |   |   |   V5 = 8: 9 (3.0)
|   |   |   V3 = 2
|   |   |   |   V5 = 1: 17 (3.0)
|   |   |   |   V5 = 2: 17 (3.0)
|   |   |   |   V5 = 3: 17 (3.0)
|   |   |   |   V5 = 4: 11 (3.0)
|   |   |   |   V5 = 5: 11 (3.0)
|   |   |   |   V5 = 6: 10 (3.0)
|   |   |   |   V5 = 7: 11 (3.0)
|   |   |   |   V5 = 8: 10 (3.0)
|   |   |   V3 = 3
|   |   |   |   V5 = 1: 10 (3.0)
|   |   |   |   V5 = 2: 17 (3.0)
|   |   |   |   V5 = 3: 17 (3.0)
|   |   |   |   V5 = 4: 17 (3.0)
|   |   |   |   V5 = 5: 11 (3.0)
|   |   |   |   V5 = 6: 11 (3.0)
|   |   |   |   V5 = 7: 11 (3.0)
|   |   |   |   V5 = 8: 10 (3.0)
|   |   |   V3 = 4
|   |   |   |   V5 = 1: 11 (3.0)
|   |   |   |   V5 = 2: 11 (3.0)
|   |   |   |   V5 = 3: 17 (3.0)
|   |   |   |   V5 = 4: 17 (3.0)
|   |   |   |   V5 = 5: 17 (3.0)
|   |   |   |   V5 = 6: 11 (3.0)
|   |   |   |   V5 = 7: 11 (3.0)
|   |   |   |   V5 = 8: 11 (3.0)
|   |   |   V3 = 5
|   |   |   |   V5 = 1: 11 (3.0)
|   |   |   |   V5 = 2: 11 (3.0)
|   |   |   |   V5 = 3: 11 (3.0)
|   |   |   |   V5 = 4: 17 (3.0)
|   |   |   |   V5 = 5: 17 (3.0)
|   |   |   |   V5 = 6: 17 (3.0)
|   |   |   |   V5 = 7: 11 (3.0)
|   |   |   |   V5 = 8: 11 (3.0)
|   |   |   V3 = 6
|   |   |   |   V5 = 1: 10 (3.0)
|   |   |   |   V5 = 2: 11 (3.0)
|   |   |   |   V5 = 3: 11 (3.0)
|   |   |   |   V5 = 4: 11 (3.0)
|   |   |   |   V5 = 5: 17 (3.0)
|   |   |   |   V5 = 6: 17 (3.0)
|   |   |   |   V5 = 7: 17 (3.0)
|   |   |   |   V5 = 8: 11 (3.0/1.0)
|   |   |   V3 = 7
|   |   |   |   V5 = 1: 10 (3.0)
|   |   |   |   V5 = 2: 11 (3.0)
|   |   |   |   V5 = 3: 10 (3.0)
|   |   |   |   V5 = 4: 11 (3.0)
|   |   |   |   V5 = 5: 11 (3.0)
|   |   |   |   V5 = 6: 17 (3.0)
|   |   |   |   V5 = 7: 17 (3.0)
|   |   |   |   V5 = 8: 17 (4.0)
|   |   |   V3 = 8
|   |   |   |   V5 = 1: 9 (3.0)
|   |   |   |   V5 = 2: 10 (3.0)
|   |   |   |   V5 = 3: 10 (3.0)
|   |   |   |   V5 = 4: 11 (3.0)
|   |   |   |   V5 = 5: 10 (3.0)
|   |   |   |   V5 = 6: 11 (3.0)
|   |   |   |   V5 = 7: 17 (3.0)
|   |   |   |   V5 = 8: 17 (4.0)
|   |   V4 = 8
|   |   |   V5 = 1
|   |   |   |   V3 = 1: 13 (0.0)
|   |   |   |   V3 = 2: 17 (3.0)
|   |   |   |   V3 = 3: 10 (3.0)
|   |   |   |   V3 = 4: 12 (3.0)
|   |   |   |   V3 = 5: 13 (3.0)
|   |   |   |   V3 = 6: 13 (3.0)
|   |   |   |   V3 = 7: 13 (3.0)
|   |   |   |   V3 = 8: 13 (3.0)
|   |   |   V5 = 2
|   |   |   |   V3 = 1: 17 (3.0)
|   |   |   |   V3 = 2: 14 (0.0)
|   |   |   |   V3 = 3: 17 (3.0)
|   |   |   |   V3 = 4: 12 (3.0)
|   |   |   |   V3 = 5: 14 (3.0)
|   |   |   |   V3 = 6: 14 (3.0)
|   |   |   |   V3 = 7: 14 (3.0)
|   |   |   |   V3 = 8: 13 (3.0)
|   |   |   V5 = 3
|   |   |   |   V3 = 1: 14 (3.0)
|   |   |   |   V3 = 2: 17 (3.0)
|   |   |   |   V3 = 3: 14 (0.0)
|   |   |   |   V3 = 4: 17 (3.0)
|   |   |   |   V3 = 5: 14 (3.0)
|   |   |   |   V3 = 6: 14 (3.0)
|   |   |   |   V3 = 7: 14 (3.0)
|   |   |   |   V3 = 8: 13 (3.0/1.0)
|   |   |   V5 = 4
|   |   |   |   V3 = 1: 14 (3.0)
|   |   |   |   V3 = 2: 15 (3.0)
|   |   |   |   V3 = 3: 17 (3.0)
|   |   |   |   V3 = 4: 14 (0.0)
|   |   |   |   V3 = 5: 17 (3.0)
|   |   |   |   V3 = 6: 15 (3.0)
|   |   |   |   V3 = 7: 14 (3.0)
|   |   |   |   V3 = 8: 14 (3.0)
|   |   |   V5 = 5
|   |   |   |   V3 = 1: 14 (3.0)
|   |   |   |   V3 = 2: 14 (3.0)
|   |   |   |   V3 = 3: 15 (3.0)
|   |   |   |   V3 = 4: 17 (3.0)
|   |   |   |   V3 = 5: 14 (0.0)
|   |   |   |   V3 = 6: 17 (3.0)
|   |   |   |   V3 = 7: 15 (3.0)
|   |   |   |   V3 = 8: 14 (3.0)
|   |   |   V5 = 6
|   |   |   |   V3 = 1: 13 (3.0)
|   |   |   |   V3 = 2: 14 (3.0)
|   |   |   |   V3 = 3: 14 (3.0/1.0)
|   |   |   |   V3 = 4: 14 (3.0)
|   |   |   |   V3 = 5: 17 (3.0)
|   |   |   |   V3 = 6: 14 (0.0)
|   |   |   |   V3 = 7: 17 (3.0)
|   |   |   |   V3 = 8: 14 (3.0)
|   |   |   V5 = 7
|   |   |   |   V3 = 1: 13 (3.0)
|   |   |   |   V3 = 2: 14 (3.0)
|   |   |   |   V3 = 3: 14 (3.0)
|   |   |   |   V3 = 4: 14 (3.0)
|   |   |   |   V3 = 5: 12 (3.0/1.0)
|   |   |   |   V3 = 6: 17 (3.0)
|   |   |   |   V3 = 7: 14 (0.0)
|   |   |   |   V3 = 8: 17 (3.0)
|   |   |   V5 = 8: 13 (21.0/10.0)
V2 = 2
|   V6 = 1
|   |   V1 = 1: 8 (0.0)
|   |   V1 = 2
|   |   |   V4 = 1
|   |   |   |   V3 = 1: 10 (5.0/2.0)
|   |   |   |   V3 = 2: 11 (5.0/2.0)
|   |   |   |   V3 = 3: 10 (5.0/2.0)
|   |   |   |   V3 = 4: 9 (4.0/2.0)
|   |   |   |   V3 = 5: 17 (4.0/2.0)
|   |   |   |   V3 = 6: 17 (4.0/2.0)
|   |   |   |   V3 = 7: 17 (4.0/2.0)
|   |   |   |   V3 = 8: 10 (4.0/2.0)
|   |   |   V4 = 2
|   |   |   |   V3 = 1: 10 (5.0/2.0)
|   |   |   |   V3 = 2: 17 (0.0)
