=== Run information ===

Scheme:       weka.classifiers.trees.J48 -C 0.75 -M 0
Relation:     R_data_frame-weka.filters.unsupervised.attribute.NumericToNominal-Rfirst-last
Instances:    28056
Attributes:   7
              V1
              V2
              V3
              V4
              V5
              V6
              Class
Test mode:    10-fold cross-validation

=== Classifier model (full training set) ===

J48 pruned tree
------------------

V2 = 1
|   V6 = 1
|   |   V1 = 1
|   |   |   V4 = 1
|   |   |   |   V5 = 1: 11 (0.0)
|   |   |   |   V5 = 2: 11 (0.0)
|   |   |   |   V5 = 3
|   |   |   |   |   V3 = 1: 11 (0.0)
|   |   |   |   |   V3 = 2: 15 (1.0)
|   |   |   |   |   V3 = 3: 11 (0.0)
|   |   |   |   |   V3 = 4: 17 (1.0)
|   |   |   |   |   V3 = 5: 15 (1.0)
|   |   |   |   |   V3 = 6: 12 (1.0)
|   |   |   |   |   V3 = 7: 11 (1.0)
|   |   |   |   |   V3 = 8: 11 (1.0)
|   |   |   |   V5 = 4
|   |   |   |   |   V3 = 1: 17 (0.0)
|   |   |   |   |   V3 = 2: 15 (1.0)
|   |   |   |   |   V3 = 3: 17 (1.0)
|   |   |   |   |   V3 = 4: 17 (0.0)
|   |   |   |   |   V3 = 5: 17 (1.0)
|   |   |   |   |   V3 = 6: 14 (1.0)
|   |   |   |   |   V3 = 7: 12 (1.0)
|   |   |   |   |   V3 = 8: 11 (1.0)
|   |   |   |   V5 = 5
|   |   |   |   |   V3 = 1: 11 (0.0)
|   |   |   |   |   V3 = 2: 11 (1.0)
|   |   |   |   |   V3 = 3: 14 (1.0)
|   |   |   |   |   V3 = 4: 17 (1.0)
|   |   |   |   |   V3 = 5: 11 (0.0)
|   |   |   |   |   V3 = 6: 17 (1.0)
|   |   |   |   |   V3 = 7: 14 (1.0)
|   |   |   |   |   V3 = 8: 11 (1.0)
|   |   |   |   V5 = 6
|   |   |   |   |   V3 = 1: 11 (0.0)
|   |   |   |   |   V3 = 2: 11 (1.0)
|   |   |   |   |   V3 = 3: 11 (1.0)
|   |   |   |   |   V3 = 4: 13 (1.0)
|   |   |   |   |   V3 = 5: 17 (1.0)
|   |   |   |   |   V3 = 6: 11 (0.0)
|   |   |   |   |   V3 = 7: 17 (1.0)
|   |   |   |   |   V3 = 8: 13 (1.0)
|   |   |   |   V5 = 7
|   |   |   |   |   V3 = 1: 11 (0.0)
|   |   |   |   |   V3 = 2: 11 (1.0)
|   |   |   |   |   V3 = 3: 11 (1.0)
|   |   |   |   |   V3 = 4: 11 (1.0)
|   |   |   |   |   V3 = 5: 14 (1.0)
|   |   |   |   |   V3 = 6: 17 (1.0)
|   |   |   |   |   V3 = 7: 11 (0.0)
|   |   |   |   |   V3 = 8: 17 (1.0)
|   |   |   |   V5 = 8
|   |   |   |   |   V3 = 1: 10 (0.0)
|   |   |   |   |   V3 = 2: 10 (1.0)
|   |   |   |   |   V3 = 3: 10 (1.0)
|   |   |   |   |   V3 = 4: 10 (1.0)
|   |   |   |   |   V3 = 5: 12 (1.0)
|   |   |   |   |   V3 = 6: 13 (1.0)
|   |   |   |   |   V3 = 7: 17 (1.0)
|   |   |   |   |   V3 = 8: 10 (0.0)
|   |   |   V4 = 2
|   |   |   |   V3 = 1
|   |   |   |   |   V5 = 1: 7 (0.0)
|   |   |   |   |   V5 = 2: 7 (0.0)
|   |   |   |   |   V5 = 3: 7 (1.0)
|   |   |   |   |   V5 = 4: 8 (1.0)
|   |   |   |   |   V5 = 5: 7 (1.0)
|   |   |   |   |   V5 = 6: 8 (1.0)
|   |   |   |   |   V5 = 7: 7 (1.0)
|   |   |   |   |   V5 = 8: 8 (1.0)
|   |   |   |   V3 = 2
|   |   |   |   |   V5 = 1: 7 (0.0)
|   |   |   |   |   V5 = 2: 7 (0.0)
|   |   |   |   |   V5 = 3: 7 (1.0)
|   |   |   |   |   V5 = 4: 8 (1.0)
|   |   |   |   |   V5 = 5: 7 (1.0)
|   |   |   |   |   V5 = 6: 8 (1.0)
|   |   |   |   |   V5 = 7: 7 (1.0)
|   |   |   |   |   V5 = 8: 8 (1.0)
|   |   |   |   V3 = 3
|   |   |   |   |   V5 = 1: 7 (0.0)
|   |   |   |   |   V5 = 2: 7 (0.0)
|   |   |   |   |   V5 = 3: 17 (1.0)
|   |   |   |   |   V5 = 4: 17 (1.0)
|   |   |   |   |   V5 = 5: 7 (1.0)
|   |   |   |   |   V5 = 6: 7 (1.0)
|   |   |   |   |   V5 = 7: 7 (1.0)
|   |   |   |   |   V5 = 8: 7 (1.0)
|   |   |   |   V3 = 4
|   |   |   |   |   V5 = 1: 17 (0.0)
|   |   |   |   |   V5 = 2: 17 (0.0)
|   |   |   |   |   V5 = 3: 17 (1.0)
|   |   |   |   |   V5 = 4: 17 (1.0)
|   |   |   |   |   V5 = 5: 17 (1.0)
|   |   |   |   |   V5 = 6: 8 (1.0)
|   |   |   |   |   V5 = 7: 7 (1.0)
|   |   |   |   |   V5 = 8: 7 (1.0)
|   |   |   |   V3 = 5
|   |   |   |   |   V5 = 1: 17 (0.0)
|   |   |   |   |   V5 = 2: 17 (0.0)
|   |   |   |   |   V5 = 3: 9 (1.0)
|   |   |   |   |   V5 = 4: 17 (1.0)
|   |   |   |   |   V5 = 5: 17 (1.0)
|   |   |   |   |   V5 = 6: 17 (1.0)
|   |   |   |   |   V5 = 7: 8 (1.0)
|   |   |   |   |   V5 = 8: 8 (1.0)
|   |   |   |   V3 = 6
|   |   |   |   |   V5 = 1: 8 (0.0)
|   |   |   |   |   V5 = 2: 8 (0.0)
|   |   |   |   |   V5 = 3: 8 (1.0)
|   |   |   |   |   V5 = 4: 8 (1.0)
|   |   |   |   |   V5 = 5: 17 (1.0)
|   |   |   |   |   V5 = 6: 17 (1.0)
|   |   |   |   |   V5 = 7: 17 (1.0)
|   |   |   |   |   V5 = 8: 8 (1.0)
|   |   |   |   V3 = 7
|   |   |   |   |   V5 = 1: 8 (0.0)
|   |   |   |   |   V5 = 2: 8 (0.0)
|   |   |   |   |   V5 = 3: 8 (1.0)
|   |   |   |   |   V5 = 4: 8 (1.0)
|   |   |   |   |   V5 = 5: 8 (1.0)
|   |   |   |   |   V5 = 6: 17 (1.0)
|   |   |   |   |   V5 = 7: 17 (1.0)
|   |   |   |   |   V5 = 8: 17 (1.0)
|   |   |   |   V3 = 8
|   |   |   |   |   V5 = 1: 8 (0.0)
|   |   |   |   |   V5 = 2: 8 (0.0)
|   |   |   |   |   V5 = 3: 8 (1.0)
|   |   |   |   |   V5 = 4: 8 (1.0)
|   |   |   |   |   V5 = 5: 8 (1.0)
|   |   |   |   |   V5 = 6: 8 (1.0)
|   |   |   |   |   V5 = 7: 17 (1.0)
|   |   |   |   |   V5 = 8: 17 (1.0)
|   |   |   V4 = 3
|   |   |   |   V3 = 1
|   |   |   |   |   V5 = 1: 9 (0.0)
|   |   |   |   |   V5 = 2: 9 (0.0)
|   |   |   |   |   V5 = 3: 11 (1.0)
|   |   |   |   |   V5 = 4: 11 (1.0)
|   |   |   |   |   V5 = 5: 10 (1.0)
|   |   |   |   |   V5 = 6: 10 (1.0)
|   |   |   |   |   V5 = 7: 9 (1.0)
|   |   |   |   |   V5 = 8: 9 (1.0)
|   |   |   |   V3 = 2
|   |   |   |   |   V5 = 1: 10 (0.0)
|   |   |   |   |   V5 = 2: 10 (0.0)
|   |   |   |   |   V5 = 3: 10 (1.0)
|   |   |   |   |   V5 = 4: 10 (1.0)
|   |   |   |   |   V5 = 5: 10 (1.0)
|   |   |   |   |   V5 = 6: 10 (1.0)
|   |   |   |   |   V5 = 7: 9 (1.0)
|   |   |   |   |   V5 = 8: 9 (1.0)
|   |   |   |   V3 = 3
|   |   |   |   |   V5 = 1: 10 (0.0)
|   |   |   |   |   V5 = 2: 10 (0.0)
|   |   |   |   |   V5 = 3: 10 (1.0)
|   |   |   |   |   V5 = 4: 10 (1.0)
|   |   |   |   |   V5 = 5: 10 (1.0)
|   |   |   |   |   V5 = 6: 10 (1.0)
|   |   |   |   |   V5 = 7: 9 (1.0)
|   |   |   |   |   V5 = 8: 9 (1.0)
|   |   |   |   V3 = 4
|   |   |   |   |   V5 = 1: 10 (0.0)
|   |   |   |   |   V5 = 2: 10 (0.0)
|   |   |   |   |   V5 = 3: 10 (1.0)
|   |   |   |   |   V5 = 4: 11 (1.0)
|   |   |   |   |   V5 = 5: 10 (1.0)
|   |   |   |   |   V5 = 6: 10 (1.0)
|   |   |   |   |   V5 = 7: 9 (1.0)
|   |   |   |   |   V5 = 8: 9 (1.0)
|   |   |   |   V3 = 5
|   |   |   |   |   V5 = 1: 11 (0.0)
|   |   |   |   |   V5 = 2: 11 (0.0)
|   |   |   |   |   V5 = 3: 11 (1.0)
|   |   |   |   |   V5 = 4: 11 (1.0)
|   |   |   |   |   V5 = 5: 11 (1.0)
|   |   |   |   |   V5 = 6: 11 (1.0)
|   |   |   |   |   V5 = 7: 11 (1.0)
|   |   |   |   |   V5 = 8: 10 (1.0)
|   |   |   |   V3 = 6
|   |   |   |   |   V5 = 1: 11 (0.0)
|   |   |   |   |   V5 = 2: 11 (0.0)
|   |   |   |   |   V5 = 3: 11 (1.0)
|   |   |   |   |   V5 = 4: 11 (1.0)
|   |   |   |   |   V5 = 5: 11 (1.0)
|   |   |   |   |   V5 = 6: 11 (1.0)
|   |   |   |   |   V5 = 7: 10 (1.0)
|   |   |   |   |   V5 = 8: 10 (1.0)
|   |   |   |   V3 = 7
|   |   |   |   |   V5 = 1: 10 (0.0)
|   |   |   |   |   V5 = 2: 10 (0.0)
|   |   |   |   |   V5 = 3: 10 (1.0)
|   |   |   |   |   V5 = 4: 10 (1.0)
|   |   |   |   |   V5 = 5: 11 (1.0)
|   |   |   |   |   V5 = 6: 11 (1.0)
|   |   |   |   |   V5 = 7: 11 (1.0)
|   |   |   |   |   V5 = 8: 10 (1.0)
|   |   |   |   V3 = 8: 10 (6.0)
|   |   |   V4 = 4
|   |   |   |   V3 = 1
|   |   |   |   |   V5 = 1: 12 (0.0)
|   |   |   |   |   V5 = 2: 12 (0.0)
|   |   |   |   |   V5 = 3: 12 (1.0)
|   |   |   |   |   V5 = 4: 12 (1.0)
|   |   |   |   |   V5 = 5: 12 (1.0)
|   |   |   |   |   V5 = 6: 11 (1.0)
|   |   |   |   |   V5 = 7: 11 (1.0)
|   |   |   |   |   V5 = 8: 10 (1.0)
|   |   |   |   V3 = 2
|   |   |   |   |   V5 = 1: 11 (0.0)
|   |   |   |   |   V5 = 2: 11 (0.0)
|   |   |   |   |   V5 = 3: 13 (1.0)
|   |   |   |   |   V5 = 4: 13 (1.0)
|   |   |   |   |   V5 = 5: 11 (1.0)
|   |   |   |   |   V5 = 6: 11 (1.0)
|   |   |   |   |   V5 = 7: 11 (1.0)
|   |   |   |   |   V5 = 8: 10 (1.0)
|   |   |   |   V3 = 3
|   |   |   |   |   V5 = 1: 12 (0.0)
|   |   |   |   |   V5 = 2: 12 (0.0)
|   |   |   |   |   V5 = 3: 12 (1.0)
|   |   |   |   |   V5 = 4: 12 (1.0)
|   |   |   |   |   V5 = 5: 12 (1.0)
|   |   |   |   |   V5 = 6: 11 (1.0)
|   |   |   |   |   V5 = 7: 11 (1.0)
|   |   |   |   |   V5 = 8: 10 (1.0)
|   |   |   |   V3 = 4
|   |   |   |   |   V5 = 1: 11 (0.0)
|   |   |   |   |   V5 = 2: 11 (0.0)
|   |   |   |   |   V5 = 3: 13 (1.0)
|   |   |   |   |   V5 = 4: 13 (1.0)
|   |   |   |   |   V5 = 5: 11 (1.0)
|   |   |   |   |   V5 = 6: 11 (1.0)
|   |   |   |   |   V5 = 7: 11 (1.0)
|   |   |   |   |   V5 = 8: 10 (1.0)
|   |   |   |   V3 = 5: 12 (6.0)
|   |   |   |   V3 = 6
|   |   |   |   |   V5 = 1: 12 (0.0)
|   |   |   |   |   V5 = 2: 12 (0.0)
|   |   |   |   |   V5 = 3: 12 (1.0)
|   |   |   |   |   V5 = 4: 13 (1.0)
|   |   |   |   |   V5 = 5: 13 (1.0)
|   |   |   |   |   V5 = 6: 13 (1.0)
|   |   |   |   |   V5 = 7: 12 (1.0)
|   |   |   |   |   V5 = 8: 12 (1.0)
|   |   |   |   V3 = 7
|   |   |   |   |   V5 = 1: 12 (0.0)
|   |   |   |   |   V5 = 2: 12 (0.0)
|   |   |   |   |   V5 = 3: 11 (1.0)
|   |   |   |   |   V5 = 4: 12 (1.0)
|   |   |   |   |   V5 = 5: 12 (1.0)
|   |   |   |   |   V5 = 6: 12 (1.0)
|   |   |   |   |   V5 = 7: 12 (1.0)
|   |   |   |   |   V5 = 8: 11 (1.0)
|   |   |   |   V3 = 8
|   |   |   |   |   V5 = 1: 11 (0.0)
|   |   |   |   |   V5 = 2: 11 (0.0)
|   |   |   |   |   V5 = 3: 11 (1.0)
|   |   |   |   |   V5 = 4: 11 (1.0)
|   |   |   |   |   V5 = 5: 11 (1.0)
|   |   |   |   |   V5 = 6: 12 (1.0)
|   |   |   |   |   V5 = 7: 12 (1.0)
|   |   |   |   |   V5 = 8: 12 (1.0)
|   |   |   V4 = 5
|   |   |   |   V3 = 1
|   |   |   |   |   V5 = 1: 12 (0.0)
|   |   |   |   |   V5 = 2: 12 (0.0)
|   |   |   |   |   V5 = 3: 12 (1.0)
|   |   |   |   |   V5 = 4: 12 (1.0)
|   |   |   |   |   V5 = 5: 12 (1.0)
|   |   |   |   |   V5 = 6: 11 (1.0)
|   |   |   |   |   V5 = 7: 11 (1.0)
|   |   |   |   |   V5 = 8: 10 (1.0)
|   |   |   |   V3 = 2
|   |   |   |   |   V5 = 1: 11 (0.0)
|   |   |   |   |   V5 = 2: 11 (0.0)
|   |   |   |   |   V5 = 3: 15 (1.0)
|   |   |   |   |   V5 = 4: 15 (1.0)
|   |   |   |   |   V5 = 5: 11 (1.0)
|   |   |   |   |   V5 = 6: 11 (1.0)
|   |   |   |   |   V5 = 7: 11 (1.0)
|   |   |   |   |   V5 = 8: 10 (1.0)
|   |   |   |   V3 = 3
|   |   |   |   |   V5 = 1: 14 (0.0)
|   |   |   |   |   V5 = 2: 14 (0.0)
|   |   |   |   |   V5 = 3: 14 (1.0)
|   |   |   |   |   V5 = 4: 14 (1.0)
|   |   |   |   |   V5 = 5: 14 (1.0)
|   |   |   |   |   V5 = 6: 11 (1.0)
|   |   |   |   |   V5 = 7: 11 (1.0)
|   |   |   |   |   V5 = 8: 10 (1.0)
|   |   |   |   V3 = 4
|   |   |   |   |   V5 = 1: 13 (0.0)
|   |   |   |   |   V5 = 2: 13 (0.0)
|   |   |   |   |   V5 = 3: 13 (1.0)
|   |   |   |   |   V5 = 4: 13 (1.0)
|   |   |   |   |   V5 = 5: 13 (1.0)
|   |   |   |   |   V5 = 6: 13 (1.0)
|   |   |   |   |   V5 = 7: 11 (1.0)
|   |   |   |   |   V5 = 8: 10 (1.0)
|   |   |   |   V3 = 5
|   |   |   |   |   V5 = 1: 12 (0.0)
|   |   |   |   |   V5 = 2: 12 (0.0)
|   |   |   |   |   V5 = 3: 15 (1.0)
|   |   |   |   |   V5 = 4: 15 (1.0)
|   |   |   |   |   V5 = 5: 15 (1.0)
|   |   |   |   |   V5 = 6: 12 (1.0)
|   |   |   |   |   V5 = 7: 12 (1.0)
|   |   |   |   |   V5 = 8: 12 (1.0)
|   |   |   |   V3 = 6
|   |   |   |   |   V5 = 1: 14 (0.0)
|   |   |   |   |   V5 = 2: 14 (0.0)
|   |   |   |   |   V5 = 3: 12 (1.0)
|   |   |   |   |   V5 = 4: 14 (1.0)
|   |   |   |   |   V5 = 5: 14 (1.0)
|   |   |   |   |   V5 = 6: 14 (1.0)
|   |   |   |   |   V5 = 7: 13 (1.0)
|   |   |   |   |   V5 = 8: 13 (1.0)
|   |   |   |   V3 = 7
|   |   |   |   |   V5 = 1: 14 (0.0)
|   |   |   |   |   V5 = 2: 14 (0.0)
|   |   |   |   |   V5 = 3: 11 (1.0)
|   |   |   |   |   V5 = 4: 12 (1.0)
|   |   |   |   |   V5 = 5: 14 (1.0)
|   |   |   |   |   V5 = 6: 14 (1.0)
|   |   |   |   |   V5 = 7: 14 (1.0)
|   |   |   |   |   V5 = 8: 11 (1.0)
|   |   |   |   V3 = 8
|   |   |   |   |   V5 = 1: 11 (0.0)
|   |   |   |   |   V5 = 2: 11 (0.0)
|   |   |   |   |   V5 = 3: 11 (1.0)
|   |   |   |   |   V5 = 4: 11 (1.0)
|   |   |   |   |   V5 = 5: 11 (1.0)
|   |   |   |   |   V5 = 6: 13 (1.0)
|   |   |   |   |   V5 = 7: 13 (1.0)
|   |   |   |   |   V5 = 8: 13 (1.0)
|   |   |   V4 = 6
|   |   |   |   V3 = 1
|   |   |   |   |   V5 = 1: 12 (0.0)
|   |   |   |   |   V5 = 2: 12 (0.0)
|   |   |   |   |   V5 = 3: 12 (1.0)
|   |   |   |   |   V5 = 4: 12 (1.0)
|   |   |   |   |   V5 = 5: 12 (1.0)
|   |   |   |   |   V5 = 6: 11 (1.0)
|   |   |   |   |   V5 = 7: 11 (1.0)
|   |   |   |   |   V5 = 8: 10 (1.0)
|   |   |   |   V3 = 2
|   |   |   |   |   V5 = 1: 11 (0.0)
|   |   |   |   |   V5 = 2: 11 (0.0)
|   |   |   |   |   V5 = 3: 14 (1.0)
|   |   |   |   |   V5 = 4: 14 (1.0)
|   |   |   |   |   V5 = 5: 11 (1.0)
|   |   |   |   |   V5 = 6: 11 (1.0)
|   |   |   |   |   V5 = 7: 11 (1.0)
|   |   |   |   |   V5 = 8: 10 (1.0)
|   |   |   |   V3 = 3
|   |   |   |   |   V5 = 1: 14 (0.0)
|   |   |   |   |   V5 = 2: 14 (0.0)
|   |   |   |   |   V5 = 3: 14 (1.0)
|   |   |   |   |   V5 = 4: 14 (1.0)
|   |   |   |   |   V5 = 5: 14 (1.0)
|   |   |   |   |   V5 = 6: 11 (1.0)
|   |   |   |   |   V5 = 7: 11 (1.0)
|   |   |   |   |   V5 = 8: 10 (1.0)
|   |   |   |   V3 = 4
|   |   |   |   |   V5 = 1: 13 (0.0)
|   |   |   |   |   V5 = 2: 13 (0.0)
|   |   |   |   |   V5 = 3: 13 (1.0)
|   |   |   |   |   V5 = 4: 13 (1.0)
|   |   |   |   |   V5 = 5: 13 (1.0)
|   |   |   |   |   V5 = 6: 13 (1.0)
|   |   |   |   |   V5 = 7: 11 (1.0)
|   |   |   |   |   V5 = 8: 10 (1.0)
|   |   |   |   V3 = 5
|   |   |   |   |   V5 = 1: 15 (0.0)
|   |   |   |   |   V5 = 2: 15 (0.0)
|   |   |   |   |   V5 = 3: 15 (1.0)
|   |   |   |   |   V5 = 4: 15 (1.0)
|   |   |   |   |   V5 = 5: 15 (1.0)
|   |   |   |   |   V5 = 6: 14 (1.0)
|   |   |   |   |   V5 = 7: 14 (1.0)
|   |   |   |   |   V5 = 8: 12 (1.0)
|   |   |   |   V3 = 6
|   |   |   |   |   V5 = 1: 14 (0.0)
|   |   |   |   |   V5 = 2: 14 (0.0)
|   |   |   |   |   V5 = 3: 12 (1.0)
|   |   |   |   |   V5 = 4: 14 (1.0)
|   |   |   |   |   V5 = 5: 14 (1.0)
|   |   |   |   |   V5 = 6: 14 (1.0)
|   |   |   |   |   V5 = 7: 13 (1.0)
|   |   |   |   |   V5 = 8: 13 (1.0)
|   |   |   |   V3 = 7
|   |   |   |   |   V5 = 1: 14 (0.0)
|   |   |   |   |   V5 = 2: 14 (0.0)
|   |   |   |   |   V5 = 3: 11 (1.0)
|   |   |   |   |   V5 = 4: 12 (1.0)
|   |   |   |   |   V5 = 5: 14 (1.0)
|   |   |   |   |   V5 = 6: 14 (1.0)
|   |   |   |   |   V5 = 7: 14 (1.0)
|   |   |   |   |   V5 = 8: 10 (1.0)
|   |   |   |   V3 = 8
|   |   |   |   |   V5 = 1: 11 (0.0)
|   |   |   |   |   V5 = 2: 11 (0.0)
|   |   |   |   |   V5 = 3: 11 (1.0)
|   |   |   |   |   V5 = 4: 11 (1.0)
|   |   |   |   |   V5 = 5: 11 (1.0)
|   |   |   |   |   V5 = 6: 13 (1.0)
|   |   |   |   |   V5 = 7: 13 (1.0)
|   |   |   |   |   V5 = 8: 13 (1.0)
|   |   |   V4 = 7
|   |   |   |   V3 = 1
|   |   |   |   |   V5 = 1: 12 (0.0)
|   |   |   |   |   V5 = 2: 12 (0.0)
|   |   |   |   |   V5 = 3: 12 (1.0)
|   |   |   |   |   V5 = 4: 12 (1.0)
|   |   |   |   |   V5 = 5: 12 (1.0)
|   |   |   |   |   V5 = 6: 11 (1.0)
|   |   |   |   |   V5 = 7: 11 (1.0)
|   |   |   |   |   V5 = 8: 10 (1.0)
|   |   |   |   V3 = 2
|   |   |   |   |   V5 = 1: 11 (0.0)
|   |   |   |   |   V5 = 2: 11 (0.0)
|   |   |   |   |   V5 = 3: 14 (1.0)
|   |   |   |   |   V5 = 4: 14 (1.0)
|   |   |   |   |   V5 = 5: 11 (1.0)
|   |   |   |   |   V5 = 6: 11 (1.0)
|   |   |   |   |   V5 = 7: 11 (1.0)
|   |   |   |   |   V5 = 8: 10 (1.0)
|   |   |   |   V3 = 3
|   |   |   |   |   V5 = 1: 14 (0.0)
|   |   |   |   |   V5 = 2: 14 (0.0)
|   |   |   |   |   V5 = 3: 14 (1.0)
|   |   |   |   |   V5 = 4: 14 (1.0)
|   |   |   |   |   V5 = 5: 14 (1.0)
|   |   |   |   |   V5 = 6: 11 (1.0)
|   |   |   |   |   V5 = 7: 11 (1.0)
|   |   |   |   |   V5 = 8: 10 (1.0)
|   |   |   |   V3 = 4
|   |   |   |   |   V5 = 1: 13 (0.0)
|   |   |   |   |   V5 = 2: 13 (0.0)
|   |   |   |   |   V5 = 3: 13 (1.0)
|   |   |   |   |   V5 = 4: 13 (1.0)
|   |   |   |   |   V5 = 5: 13 (1.0)
|   |   |   |   |   V5 = 6: 13 (1.0)
|   |   |   |   |   V5 = 7: 11 (1.0)
|   |   |   |   |   V5 = 8: 10 (1.0)
|   |   |   |   V3 = 5
|   |   |   |   |   V5 = 1: 15 (0.0)
|   |   |   |   |   V5 = 2: 15 (0.0)
|   |   |   |   |   V5 = 3: 15 (1.0)
|   |   |   |   |   V5 = 4: 15 (1.0)
|   |   |   |   |   V5 = 5: 15 (1.0)
|   |   |   |   |   V5 = 6: 14 (1.0)
|   |   |   |   |   V5 = 7: 14 (1.0)
|   |   |   |   |   V5 = 8: 12 (1.0)
|   |   |   |   V3 = 6
|   |   |   |   |   V5 = 1: 12 (0.0)
|   |   |   |   |   V5 = 2: 12 (0.0)
|   |   |   |   |   V5 = 3: 12 (1.0)
|   |   |   |   |   V5 = 4: 14 (1.0)
|   |   |   |   |   V5 = 5: 14 (1.0)
|   |   |   |   |   V5 = 6: 14 (1.0)
|   |   |   |   |   V5 = 7: 12 (1.0)
|   |   |   |   |   V5 = 8: 12 (1.0)
|   |   |   |   V3 = 7
|   |   |   |   |   V5 = 1: 14 (0.0)
|   |   |   |   |   V5 = 2: 14 (0.0)
|   |   |   |   |   V5 = 3: 11 (1.0)
|   |   |   |   |   V5 = 4: 12 (1.0)
|   |   |   |   |   V5 = 5: 14 (1.0)
|   |   |   |   |   V5 = 6: 14 (1.0)
|   |   |   |   |   V5 = 7: 14 (1.0)
|   |   |   |   |   V5 = 8: 10 (1.0)
|   |   |   |   V3 = 8
|   |   |   |   |   V5 = 1: 11 (0.0)
|   |   |   |   |   V5 = 2: 11 (0.0)
|   |   |   |   |   V5 = 3: 11 (1.0)
|   |   |   |   |   V5 = 4: 11 (1.0)
|   |   |   |   |   V5 = 5: 11 (1.0)
|   |   |   |   |   V5 = 6: 13 (1.0)
|   |   |   |   |   V5 = 7: 13 (1.0)
|   |   |   |   |   V5 = 8: 13 (1.0)
|   |   |   V4 = 8
|   |   |   |   V3 = 1
|   |   |   |   |   V5 = 1: 12 (0.0)
|   |   |   |   |   V5 = 2: 12 (0.0)
|   |   |   |   |   V5 = 3: 12 (1.0)
|   |   |   |   |   V5 = 4: 12 (1.0)
|   |   |   |   |   V5 = 5: 12 (1.0)
|   |   |   |   |   V5 = 6: 11 (1.0)
|   |   |   |   |   V5 = 7: 11 (1.0)
|   |   |   |   |   V5 = 8: 10 (1.0)
|   |   |   |   V3 = 2
|   |   |   |   |   V5 = 1: 11 (0.0)
|   |   |   |   |   V5 = 2: 11 (0.0)
|   |   |   |   |   V5 = 3: 13 (1.0)
|   |   |   |   |   V5 = 4: 13 (1.0)
|   |   |   |   |   V5 = 5: 11 (1.0)
|   |   |   |   |   V5 = 6: 11 (1.0)
|   |   |   |   |   V5 = 7: 11 (1.0)
|   |   |   |   |   V5 = 8: 10 (1.0)
|   |   |   |   V3 = 3
|   |   |   |   |   V5 = 1: 14 (0.0)
|   |   |   |   |   V5 = 2: 14 (0.0)
|   |   |   |   |   V5 = 3: 14 (1.0)
|   |   |   |   |   V5 = 4: 14 (1.0)
|   |   |   |   |   V5 = 5: 14 (1.0)
|   |   |   |   |   V5 = 6: 11 (1.0)
|   |   |   |   |   V5 = 7: 11 (1.0)
|   |   |   |   |   V5 = 8: 10 (1.0)
|   |   |   |   V3 = 4
|   |   |   |   |   V5 = 1: 13 (0.0)
|   |   |   |   |   V5 = 2: 13 (0.0)
|   |   |   |   |   V5 = 3: 13 (1.0)
|   |   |   |   |   V5 = 4: 13 (1.0)
|   |   |   |   |   V5 = 5: 13 (1.0)
|   |   |   |   |   V5 = 6: 13 (1.0)
|   |   |   |   |   V5 = 7: 11 (1.0)
|   |   |   |   |   V5 = 8: 10 (1.0)
|   |   |   |   V3 = 5
|   |   |   |   |   V5 = 1: 15 (0.0)
|   |   |   |   |   V5 = 2: 15 (0.0)
|   |   |   |   |   V5 = 3: 15 (1.0)
|   |   |   |   |   V5 = 4: 15 (1.0)
|   |   |   |   |   V5 = 5: 15 (1.0)
|   |   |   |   |   V5 = 6: 14 (1.0)
|   |   |   |   |   V5 = 7: 14 (1.0)
|   |   |   |   |   V5 = 8: 12 (1.0)
|   |   |   |   V3 = 6
|   |   |   |   |   V5 = 1: 12 (0.0)
|   |   |   |   |   V5 = 2: 12 (0.0)
|   |   |   |   |   V5 = 3: 12 (1.0)
|   |   |   |   |   V5 = 4: 14 (1.0)
|   |   |   |   |   V5 = 5: 14 (1.0)
|   |   |   |   |   V5 = 6: 14 (1.0)
|   |   |   |   |   V5 = 7: 12 (1.0)
|   |   |   |   |   V5 = 8: 12 (1.0)
|   |   |   |   V3 = 7
|   |   |   |   |   V5 = 1: 14 (0.0)
|   |   |   |   |   V5 = 2: 14 (0.0)
|   |   |   |   |   V5 = 3: 11 (1.0)
|   |   |   |   |   V5 = 4: 12 (1.0)
|   |   |   |   |   V5 = 5: 14 (1.0)
|   |   |   |   |   V5 = 6: 14 (1.0)
|   |   |   |   |   V5 = 7: 14 (1.0)
|   |   |   |   |   V5 = 8: 9 (1.0)
|   |   |   |   V3 = 8
|   |   |   |   |   V5 = 1: 11 (0.0)
|   |   |   |   |   V5 = 2: 11 (0.0)
|   |   |   |   |   V5 = 3: 11 (1.0)
|   |   |   |   |   V5 = 4: 11 (1.0)
|   |   |   |   |   V5 = 5: 11 (1.0)
|   |   |   |   |   V5 = 6: 13 (1.0)
|   |   |   |   |   V5 = 7: 13 (1.0)
|   |   |   |   |   V5 = 8: 13 (1.0)
|   |   V1 = 2
|   |   |   V4 = 1
|   |   |   |   V3 = 1
|   |   |   |   |   V5 = 1: 10 (0.0)
|   |   |   |   |   V5 = 2: 10 (0.0)
|   |   |   |   |   V5 = 3: 10 (0.0)
|   |   |   |   |   V5 = 4: 10 (1.0)
|   |   |   |   |   V5 = 5: 10 (1.0)
|   |   |   |   |   V5 = 6: 10 (1.0)
|   |   |   |   |   V5 = 7: 9 (1.0)
|   |   |   |   |   V5 = 8: 9 (1.0)
|   |   |   |   V3 = 2: 10 (0.0)
|   |   |   |   V3 = 3
|   |   |   |   |   V5 = 1: 9 (0.0)
|   |   |   |   |   V5 = 2: 9 (0.0)
|   |   |   |   |   V5 = 3: 9 (0.0)
|   |   |   |   |   V5 = 4: 14 (1.0)
|   |   |   |   |   V5 = 5: 14 (1.0)
|   |   |   |   |   V5 = 6: 10 (1.0)
|   |   |   |   |   V5 = 7: 9 (1.0)
|   |   |   |   |   V5 = 8: 9 (1.0)
|   |   |   |   V3 = 4
|   |   |   |   |   V5 = 1: 9 (0.0)
|   |   |   |   |   V5 = 2: 9 (0.0)
|   |   |   |   |   V5 = 3: 9 (0.0)
|   |   |   |   |   V5 = 4: 9 (0.0)
|   |   |   |   |   V5 = 5: 17 (1.0)
|   |   |   |   |   V5 = 6: 13 (1.0)
|   |   |   |   |   V5 = 7: 9 (1.0)
|   |   |   |   |   V5 = 8: 9 (1.0)
|   |   |   |   V3 = 5
|   |   |   |   |   V5 = 1: 17 (0.0)
|   |   |   |   |   V5 = 2: 17 (0.0)
|   |   |   |   |   V5 = 3: 17 (0.0)
|   |   |   |   |   V5 = 4: 17 (1.0)
|   |   |   |   |   V5 = 5: 17 (0.0)
|   |   |   |   |   V5 = 6: 17 (1.0)
|   |   |   |   |   V5 = 7: 12 (1.0)
|   |   |   |   |   V5 = 8: 10 (1.0)
|   |   |   |   V3 = 6
|   |   |   |   |   V5 = 1: 17 (0.0)
|   |   |   |   |   V5 = 2: 17 (0.0)
|   |   |   |   |   V5 = 3: 17 (0.0)
|   |   |   |   |   V5 = 4: 13 (1.0)
|   |   |   |   |   V5 = 5: 17 (1.0)
|   |   |   |   |   V5 = 6: 17 (0.0)
|   |   |   |   |   V5 = 7: 17 (1.0)
|   |   |   |   |   V5 = 8: 12 (1.0)
|   |   |   |   V3 = 7
|   |   |   |   |   V5 = 1: 17 (0.0)
|   |   |   |   |   V5 = 2: 17 (0.0)
|   |   |   |   |   V5 = 3: 17 (0.0)
|   |   |   |   |   V5 = 4: 10 (1.0)
|   |   |   |   |   V5 = 5: 12 (1.0)
|   |   |   |   |   V5 = 6: 17 (1.0)
|   |   |   |   |   V5 = 7: 17 (0.0)
|   |   |   |   |   V5 = 8: 17 (1.0)
|   |   |   |   V3 = 8
|   |   |   |   |   V5 = 1: 10 (0.0)
|   |   |   |   |   V5 = 2: 10 (0.0)
|   |   |   |   |   V5 = 3: 10 (0.0)
|   |   |   |   |   V5 = 4: 10 (1.0)
|   |   |   |   |   V5 = 5: 10 (1.0)
|   |   |   |   |   V5 = 6: 12 (1.0)
|   |   |   |   |   V5 = 7: 17 (1.0)
|   |   |   |   |   V5 = 8: 10 (0.0)
|   |   |   V4 = 2
|   |   |   |   V3 = 1
|   |   |   |   |   V5 = 1: 6 (0.0)
|   |   |   |   |   V5 = 2: 6 (0.0)
|   |   |   |   |   V5 = 3: 6 (0.0)
|   |   |   |   |   V5 = 4: 6 (1.0)
|   |   |   |   |   V5 = 5: 7 (1.0)
|   |   |   |   |   V5 = 6: 6 (1.0)
|   |   |   |   |   V5 = 7: 7 (1.0)
|   |   |   |   |   V5 = 8: 6 (1.0)
|   |   |   |   V3 = 2
|   |   |   |   |   V5 = 1: 6 (0.0)
|   |   |   |   |   V5 = 2: 6 (0.0)
|   |   |   |   |   V5 = 3: 6 (0.0)
|   |   |   |   |   V5 = 4: 6 (1.0)
|   |   |   |   |   V5 = 5: 7 (1.0)
|   |   |   |   |   V5 = 6: 6 (1.0)
|   |   |   |   |   V5 = 7: 7 (1.0)
|   |   |   |   |   V5 = 8: 6 (1.0)
|   |   |   |   V3 = 3
|   |   |   |   |   V5 = 1: 6 (0.0)
|   |   |   |   |   V5 = 2: 6 (0.0)
|   |   |   |   |   V5 = 3: 6 (0.0)
|   |   |   |   |   V5 = 4: 6 (1.0)
|   |   |   |   |   V5 = 5: 7 (1.0)
|   |   |   |   |   V5 = 6: 6 (1.0)
|   |   |   |   |   V5 = 7: 7 (1.0)
|   |   |   |   |   V5 = 8: 6 (1.0)
|   |   |   |   V3 = 4
|   |   |   |   |   V5 = 1: 6 (0.0)
|   |   |   |   |   V5 = 2: 6 (0.0)
|   |   |   |   |   V5 = 3: 6 (0.0)
|   |   |   |   |   V5 = 4: 17 (1.0)
|   |   |   |   |   V5 = 5: 17 (1.0)
|   |   |   |   |   V5 = 6: 6 (1.0)
|   |   |   |   |   V5 = 7: 6 (1.0)
|   |   |   |   |   V5 = 8: 6 (1.0)
|   |   |   |   V3 = 5
|   |   |   |   |   V5 = 1: 17 (0.0)
|   |   |   |   |   V5 = 2: 17 (0.0)
|   |   |   |   |   V5 = 3: 17 (0.0)
|   |   |   |   |   V5 = 4: 17 (1.0)
|   |   |   |   |   V5 = 5: 17 (1.0)
|   |   |   |   |   V5 = 6: 17 (1.0)
|   |   |   |   |   V5 = 7: 7 (1.0)
|   |   |   |   |   V5 = 8: 6 (1.0)
|   |   |   |   V3 = 6
|   |   |   |   |   V5 = 1: 17 (0.0)
|   |   |   |   |   V5 = 2: 17 (0.0)
|   |   |   |   |   V5 = 3: 17 (0.0)
|   |   |   |   |   V5 = 4: 8 (1.0)
|   |   |   |   |   V5 = 5: 17 (1.0)
|   |   |   |   |   V5 = 6: 17 (1.0)
|   |   |   |   |   V5 = 7: 17 (1.0)
|   |   |   |   |   V5 = 8: 7 (1.0)
|   |   |   |   V3 = 7
|   |   |   |   |   V5 = 1: 17 (0.0)
|   |   |   |   |   V5 = 2: 17 (0.0)
|   |   |   |   |   V5 = 3: 17 (0.0)
|   |   |   |   |   V5 = 4: 7 (1.0)
|   |   |   |   |   V5 = 5: 7 (1.0)
|   |   |   |   |   V5 = 6: 17 (1.0)
|   |   |   |   |   V5 = 7: 17 (1.0)
|   |   |   |   |   V5 = 8: 17 (1.0)
|   |   |   |   V3 = 8
|   |   |   |   |   V5 = 1: 7 (0.0)
|   |   |   |   |   V5 = 2: 7 (0.0)
|   |   |   |   |   V5 = 3: 7 (0.0)
|   |   |   |   |   V5 = 4: 7 (1.0)
|   |   |   |   |   V5 = 5: 7 (1.0)
|   |   |   |   |   V5 = 6: 7 (1.0)
|   |   |   |   |   V5 = 7: 17 (1.0)
|   |   |   |   |   V5 = 8: 17 (1.0)
|   |   |   V4 = 3
|   |   |   |   V3 = 1
|   |   |   |   |   V5 = 1: 8 (0.0)
|   |   |   |   |   V5 = 2: 8 (0.0)
|   |   |   |   |   V5 = 3: 8 (0.0)
|   |   |   |   |   V5 = 4: 9 (1.0)
|   |   |   |   |   V5 = 5: 9 (1.0)
|   |   |   |   |   V5 = 6: 8 (1.0)
|   |   |   |   |   V5 = 7: 8 (1.0)
|   |   |   |   |   V5 = 8: 8 (1.0)
|   |   |   |   V3 = 2
|   |   |   |   |   V5 = 1: 8 (0.0)
|   |   |   |   |   V5 = 2: 8 (0.0)
|   |   |   |   |   V5 = 3: 8 (0.0)
|   |   |   |   |   V5 = 4: 9 (1.0)
|   |   |   |   |   V5 = 5: 9 (1.0)
|   |   |   |   |   V5 = 6: 8 (1.0)
|   |   |   |   |   V5 = 7: 8 (1.0)
|   |   |   |   |   V5 = 8: 8 (1.0)
|   |   |   |   V3 = 3
|   |   |   |   |   V5 = 1: 8 (0.0)
|   |   |   |   |   V5 = 2: 8 (0.0)
|   |   |   |   |   V5 = 3: 8 (0.0)
|   |   |   |   |   V5 = 4: 9 (1.0)
|   |   |   |   |   V5 = 5: 9 (1.0)
|   |   |   |   |   V5 = 6: 8 (1.0)
|   |   |   |   |   V5 = 7: 8 (1.0)
|   |   |   |   |   V5 = 8: 8 (1.0)
|   |   |   |   V3 = 4: 8 (5.0)
|   |   |   |   V3 = 5
|   |   |   |   |   V5 = 1: 9 (0.0)
|   |   |   |   |   V5 = 2: 9 (0.0)
|   |   |   |   |   V5 = 3: 9 (0.0)
|   |   |   |   |   V5 = 4: 9 (1.0)
|   |   |   |   |   V5 = 5: 9 (1.0)
|   |   |   |   |   V5 = 6: 9 (1.0)
|   |   |   |   |   V5 = 7: 9 (1.0)
|   |   |   |   |   V5 = 8: 8 (1.0)
|   |   |   |   V3 = 6
|   |   |   |   |   V5 = 1: 10 (0.0)
|   |   |   |   |   V5 = 2: 10 (0.0)
|   |   |   |   |   V5 = 3: 10 (0.0)
|   |   |   |   |   V5 = 4: 10 (1.0)
|   |   |   |   |   V5 = 5: 10 (1.0)
|   |   |   |   |   V5 = 6: 10 (1.0)
|   |   |   |   |   V5 = 7: 9 (1.0)
|   |   |   |   |   V5 = 8: 9 (1.0)
|   |   |   |   V3 = 7
|   |   |   |   |   V5 = 1: 9 (0.0)
|   |   |   |   |   V5 = 2: 9 (0.0)
|   |   |   |   |   V5 = 3: 9 (0.0)
|   |   |   |   |   V5 = 4: 9 (1.0)
|   |   |   |   |   V5 = 5: 9 (1.0)
|   |   |   |   |   V5 = 6: 9 (1.0)
|   |   |   |   |   V5 = 7: 9 (1.0)
|   |   |   |   |   V5 = 8: 8 (1.0)
|   |   |   |   V3 = 8: 9 (5.0)
|   |   |   V4 = 4
|   |   |   |   V3 = 1
|   |   |   |   |   V5 = 1: 10 (0.0)
|   |   |   |   |   V5 = 2: 10 (0.0)
|   |   |   |   |   V5 = 3: 10 (0.0)
|   |   |   |   |   V5 = 4: 10 (1.0)
|   |   |   |   |   V5 = 5: 10 (1.0)
|   |   |   |   |   V5 = 6: 10 (1.0)
|   |   |   |   |   V5 = 7: 9 (1.0)
|   |   |   |   |   V5 = 8: 9 (1.0)
|   |   |   |   V3 = 2
|   |   |   |   |   V5 = 1: 10 (0.0)
|   |   |   |   |   V5 = 2: 10 (0.0)
|   |   |   |   |   V5 = 3: 10 (0.0)
|   |   |   |   |   V5 = 4: 10 (1.0)
|   |   |   |   |   V5 = 5: 10 (1.0)
|   |   |   |   |   V5 = 6: 10 (1.0)
|   |   |   |   |   V5 = 7: 9 (1.0)
|   |   |   |   |   V5 = 8: 9 (1.0)
|   |   |   |   V3 = 3
|   |   |   |   |   V5 = 1: 9 (0.0)
|   |   |   |   |   V5 = 2: 9 (0.0)
|   |   |   |   |   V5 = 3: 9 (0.0)
|   |   |   |   |   V5 = 4: 12 (1.0)
|   |   |   |   |   V5 = 5: 12 (1.0)
|   |   |   |   |   V5 = 6: 10 (1.0)
|   |   |   |   |   V5 = 7: 9 (1.0)
|   |   |   |   |   V5 = 8: 9 (1.0)
|   |   |   |   V3 = 4
|   |   |   |   |   V5 = 1: 10 (0.0)
|   |   |   |   |   V5 = 2: 10 (0.0)
|   |   |   |   |   V5 = 3: 10 (0.0)
|   |   |   |   |   V5 = 4: 10 (1.0)
|   |   |   |   |   V5 = 5: 10 (1.0)
|   |   |   |   |   V5 = 6: 10 (1.0)
|   |   |   |   |   V5 = 7: 9 (1.0)
|   |   |   |   |   V5 = 8: 9 (1.0)
|   |   |   |   V3 = 5
|   |   |   |   |   V5 = 1: 9 (0.0)
|   |   |   |   |   V5 = 2: 9 (0.0)
|   |   |   |   |   V5 = 3: 9 (0.0)
|   |   |   |   |   V5 = 4: 12 (1.0)
|   |   |   |   |   V5 = 5: 12 (1.0)
|   |   |   |   |   V5 = 6: 9 (1.0)
|   |   |   |   |   V5 = 7: 9 (1.0)
|   |   |   |   |   V5 = 8: 9 (1.0)
|   |   |   |   V3 = 6
|   |   |   |   |   V5 = 1: 10 (0.0)
|   |   |   |   |   V5 = 2: 10 (0.0)
|   |   |   |   |   V5 = 3: 10 (0.0)
|   |   |   |   |   V5 = 4: 11 (1.0)
|   |   |   |   |   V5 = 5: 11 (1.0)
|   |   |   |   |   V5 = 6: 10 (1.0)
|   |   |   |   |   V5 = 7: 10 (1.0)
|   |   |   |   |   V5 = 8: 10 (1.0)
|   |   |   |   V3 = 7
|   |   |   |   |   V5 = 1: 11 (0.0)
|   |   |   |   |   V5 = 2: 11 (0.0)
|   |   |   |   |   V5 = 3: 11 (0.0)
|   |   |   |   |   V5 = 4: 10 (1.0)
|   |   |   |   |   V5 = 5: 11 (1.0)
|   |   |   |   |   V5 = 6: 11 (1.0)
|   |   |   |   |   V5 = 7: 11 (1.0)
|   |   |   |   |   V5 = 8: 9 (1.0)
|   |   |   |   V3 = 8: 10 (5.0)
|   |   |   V4 = 5
|   |   |   |   V3 = 1
|   |   |   |   |   V5 = 1: 10 (0.0)
|   |   |   |   |   V5 = 2: 10 (0.0)
|   |   |   |   |   V5 = 3: 10 (0.0)
|   |   |   |   |   V5 = 4: 10 (1.0)
|   |   |   |   |   V5 = 5: 10 (1.0)
|   |   |   |   |   V5 = 6: 10 (1.0)
|   |   |   |   |   V5 = 7: 9 (1.0)
|   |   |   |   |   V5 = 8: 9 (1.0)
|   |   |   |   V3 = 2
|   |   |   |   |   V5 = 1: 10 (0.0)
|   |   |   |   |   V5 = 2: 10 (0.0)
|   |   |   |   |   V5 = 3: 10 (0.0)
|   |   |   |   |   V5 = 4: 10 (1.0)
|   |   |   |   |   V5 = 5: 10 (1.0)
|   |   |   |   |   V5 = 6: 10 (1.0)
|   |   |   |   |   V5 = 7: 9 (1.0)
|   |   |   |   |   V5 = 8: 9 (1.0)
|   |   |   |   V3 = 3
|   |   |   |   |   V5 = 1: 9 (0.0)
|   |   |   |   |   V5 = 2: 9 (0.0)
|   |   |   |   |   V5 = 3: 9 (0.0)
|   |   |   |   |   V5 = 4: 14 (1.0)
|   |   |   |   |   V5 = 5: 14 (1.0)
|   |   |   |   |   V5 = 6: 10 (1.0)
|   |   |   |   |   V5 = 7: 9 (1.0)
|   |   |   |   |   V5 = 8: 9 (1.0)
|   |   |   |   V3 = 4
|   |   |   |   |   V5 = 1: 13 (0.0)
|   |   |   |   |   V5 = 2: 13 (0.0)
|   |   |   |   |   V5 = 3: 13 (0.0)
|   |   |   |   |   V5 = 4: 13 (1.0)
|   |   |   |   |   V5 = 5: 13 (1.0)
|   |   |   |   |   V5 = 6: 13 (1.0)
|   |   |   |   |   V5 = 7: 9 (1.0)
|   |   |   |   |   V5 = 8: 9 (1.0)
|   |   |   |   V3 = 5
|   |   |   |   |   V5 = 1: 11 (0.0)
|   |   |   |   |   V5 = 2: 11 (0.0)
|   |   |   |   |   V5 = 3: 11 (0.0)
|   |   |   |   |   V5 = 4: 14 (1.0)
|   |   |   |   |   V5 = 5: 14 (1.0)
|   |   |   |   |   V5 = 6: 11 (1.0)
|   |   |   |   |   V5 = 7: 11 (1.0)
|   |   |   |   |   V5 = 8: 10 (1.0)
|   |   |   |   V3 = 6
|   |   |   |   |   V5 = 1: 13 (0.0)
|   |   |   |   |   V5 = 2: 13 (0.0)
|   |   |   |   |   V5 = 3: 13 (0.0)
|   |   |   |   |   V5 = 4: 13 (1.0)
|   |   |   |   |   V5 = 5: 13 (1.0)
|   |   |   |   |   V5 = 6: 13 (1.0)
|   |   |   |   |   V5 = 7: 11 (1.0)
|   |   |   |   |   V5 = 8: 11 (1.0)
|   |   |   |   V3 = 7
|   |   |   |   |   V5 = 1: 12 (0.0)
|   |   |   |   |   V5 = 2: 12 (0.0)
|   |   |   |   |   V5 = 3: 12 (0.0)
|   |   |   |   |   V5 = 4: 10 (1.0)
|   |   |   |   |   V5 = 5: 12 (1.0)
|   |   |   |   |   V5 = 6: 12 (1.0)
|   |   |   |   |   V5 = 7: 12 (1.0)
|   |   |   |   |   V5 = 8: 9 (1.0)
|   |   |   |   V3 = 8
|   |   |   |   |   V5 = 1: 12 (0.0)
|   |   |   |   |   V5 = 2: 12 (0.0)
|   |   |   |   |   V5 = 3: 12 (0.0)
|   |   |   |   |   V5 = 4: 10 (1.0)
|   |   |   |   |   V5 = 5: 10 (1.0)
|   |   |   |   |   V5 = 6: 12 (1.0)
|   |   |   |   |   V5 = 7: 12 (1.0)
|   |   |   |   |   V5 = 8: 12 (1.0)
|   |   |   V4 = 6
|   |   |   |   V3 = 1
|   |   |   |   |   V5 = 1: 10 (0.0)
|   |   |   |   |   V5 = 2: 10 (0.0)
|   |   |   |   |   V5 = 3: 10 (0.0)
|   |   |   |   |   V5 = 4: 10 (1.0)
|   |   |   |   |   V5 = 5: 10 (1.0)
|   |   |   |   |   V5 = 6: 10 (1.0)
|   |   |   |   |   V5 = 7: 9 (1.0)
|   |   |   |   |   V5 = 8: 9 (1.0)
|   |   |   |   V3 = 2
|   |   |   |   |   V5 = 1: 10 (0.0)
|   |   |   |   |   V5 = 2: 10 (0.0)
|   |   |   |   |   V5 = 3: 10 (0.0)
|   |   |   |   |   V5 = 4: 10 (1.0)
|   |   |   |   |   V5 = 5: 10 (1.0)
|   |   |   |   |   V5 = 6: 10 (1.0)
|   |   |   |   |   V5 = 7: 9 (1.0)
|   |   |   |   |   V5 = 8: 9 (1.0)
|   |   |   |   V3 = 3
|   |   |   |   |   V5 = 1: 9 (0.0)
|   |   |   |   |   V5 = 2: 9 (0.0)
|   |   |   |   |   V5 = 3: 9 (0.0)
|   |   |   |   |   V5 = 4: 14 (1.0)
|   |   |   |   |   V5 = 5: 14 (1.0)
|   |   |   |   |   V5 = 6: 10 (1.0)
|   |   |   |   |   V5 = 7: 9 (1.0)
|   |   |   |   |   V5 = 8: 9 (1.0)
|   |   |   |   V3 = 4
|   |   |   |   |   V5 = 1: 13 (0.0)
|   |   |   |   |   V5 = 2: 13 (0.0)
|   |   |   |   |   V5 = 3: 13 (0.0)
|   |   |   |   |   V5 = 4: 13 (1.0)
|   |   |   |   |   V5 = 5: 13 (1.0)
|   |   |   |   |   V5 = 6: 13 (1.0)
|   |   |   |   |   V5 = 7: 9 (1.0)
|   |   |   |   |   V5 = 8: 9 (1.0)
|   |   |   |   V3 = 5
|   |   |   |   |   V5 = 1: 12 (0.0)
|   |   |   |   |   V5 = 2: 12 (0.0)
|   |   |   |   |   V5 = 3: 12 (0.0)
|   |   |   |   |   V5 = 4: 14 (1.0)
|   |   |   |   |   V5 = 5: 14 (1.0)
|   |   |   |   |   V5 = 6: 12 (1.0)
|   |   |   |   |   V5 = 7: 12 (1.0)
|   |   |   |   |   V5 = 8: 10 (1.0)
|   |   |   |   V3 = 6
|   |   |   |   |   V5 = 1: 13 (0.0)
|   |   |   |   |   V5 = 2: 13 (0.0)
|   |   |   |   |   V5 = 3: 13 (0.0)
|   |   |   |   |   V5 = 4: 13 (1.0)
|   |   |   |   |   V5 = 5: 13 (1.0)
|   |   |   |   |   V5 = 6: 13 (1.0)
|   |   |   |   |   V5 = 7: 11 (1.0)
|   |   |   |   |   V5 = 8: 11 (1.0)
|   |   |   |   V3 = 7
|   |   |   |   |   V5 = 1: 12 (0.0)
|   |   |   |   |   V5 = 2: 12 (0.0)
|   |   |   |   |   V5 = 3: 12 (0.0)
|   |   |   |   |   V5 = 4: 10 (1.0)
|   |   |   |   |   V5 = 5: 12 (1.0)
|   |   |   |   |   V5 = 6: 12 (1.0)
|   |   |   |   |   V5 = 7: 12 (1.0)
|   |   |   |   |   V5 = 8: 9 (1.0)
|   |   |   |   V3 = 8
|   |   |   |   |   V5 = 1: 12 (0.0)
|   |   |   |   |   V5 = 2: 12 (0.0)
|   |   |   |   |   V5 = 3: 12 (0.0)
|   |   |   |   |   V5 = 4: 10 (1.0)
|   |   |   |   |   V5 = 5: 10 (1.0)
|   |   |   |   |   V5 = 6: 12 (1.0)
|   |   |   |   |   V5 = 7: 12 (1.0)
|   |   |   |   |   V5 = 8: 12 (1.0)
|   |   |   V4 = 7
|   |   |   |   V3 = 1
|   |   |   |   |   V5 = 1: 10 (0.0)
|   |   |   |   |   V5 = 2: 10 (0.0)
|   |   |   |   |   V5 = 3: 10 (0.0)
|   |   |   |   |   V5 = 4: 10 (1.0)
|   |   |   |   |   V5 = 5: 10 (1.0)
|   |   |   |   |   V5 = 6: 10 (1.0)
|   |   |   |   |   V5 = 7: 9 (1.0)
|   |   |   |   |   V5 = 8: 9 (1.0)
|   |   |   |   V3 = 2
|   |   |   |   |   V5 = 1: 10 (0.0)
|   |   |   |   |   V5 = 2: 10 (0.0)
|   |   |   |   |   V5 = 3: 10 (0.0)
|   |   |   |   |   V5 = 4: 10 (1.0)
|   |   |   |   |   V5 = 5: 10 (1.0)
|   |   |   |   |   V5 = 6: 10 (1.0)
|   |   |   |   |   V5 = 7: 9 (1.0)
|   |   |   |   |   V5 = 8: 9 (1.0)
|   |   |   |   V3 = 3
|   |   |   |   |   V5 = 1: 9 (0.0)
|   |   |   |   |   V5 = 2: 9 (0.0)
|   |   |   |   |   V5 = 3: 9 (0.0)
|   |   |   |   |   V5 = 4: 14 (1.0)
|   |   |   |   |   V5 = 5: 14 (1.0)
|   |   |   |   |   V5 = 6: 10 (1.0)
|   |   |   |   |   V5 = 7: 9 (1.0)
|   |   |   |   |   V5 = 8: 9 (1.0)
|   |   |   |   V3 = 4
|   |   |   |   |   V5 = 1: 13 (0.0)
|   |   |   |   |   V5 = 2: 13 (0.0)
|   |   |   |   |   V5 = 3: 13 (0.0)
|   |   |   |   |   V5 = 4: 13 (1.0)
|   |   |   |   |   V5 = 5: 13 (1.0)
|   |   |   |   |   V5 = 6: 13 (1.0)
|   |   |   |   |   V5 = 7: 9 (1.0)
|   |   |   |   |   V5 = 8: 9 (1.0)
|   |   |   |   V3 = 5
|   |   |   |   |   V5 = 1: 12 (0.0)
|   |   |   |   |   V5 = 2: 12 (0.0)
|   |   |   |   |   V5 = 3: 12 (0.0)
|   |   |   |   |   V5 = 4: 14 (1.0)
|   |   |   |   |   V5 = 5: 14 (1.0)
|   |   |   |   |   V5 = 6: 12 (1.0)
|   |   |   |   |   V5 = 7: 12 (1.0)
|   |   |   |   |   V5 = 8: 10 (1.0)
|   |   |   |   V3 = 6
|   |   |   |   |   V5 = 1: 13 (0.0)
|   |   |   |   |   V5 = 2: 13 (0.0)
|   |   |   |   |   V5 = 3: 13 (0.0)
|   |   |   |   |   V5 = 4: 13 (1.0)
|   |   |   |   |   V5 = 5: 13 (1.0)
|   |   |   |   |   V5 = 6: 13 (1.0)
|   |   |   |   |   V5 = 7: 12 (1.0)
|   |   |   |   |   V5 = 8: 12 (1.0)
|   |   |   |   V3 = 7
|   |   |   |   |   V5 = 1: 12 (0.0)
|   |   |   |   |   V5 = 2: 12 (0.0)
|   |   |   |   |   V5 = 3: 12 (0.0)
|   |   |   |   |   V5 = 4: 10 (1.0)
|   |   |   |   |   V5 = 5: 12 (1.0)
|   |   |   |   |   V5 = 6: 12 (1.0)
|   |   |   |   |   V5 = 7: 12 (1.0)
|   |   |   |   |   V5 = 8: 9 (1.0)
|   |   |   |   V3 = 8
|   |   |   |   |   V5 = 1: 12 (0.0)
|   |   |   |   |   V5 = 2: 12 (0.0)
|   |   |   |   |   V5 = 3: 12 (0.0)
|   |   |   |   |   V5 = 4: 10 (1.0)
|   |   |   |   |   V5 = 5: 10 (1.0)
|   |   |   |   |   V5 = 6: 12 (1.0)
|   |   |   |   |   V5 = 7: 12 (1.0)
|   |   |   |   |   V5 = 8: 12 (1.0)
|   |   |   V4 = 8
|   |   |   |   V3 = 1
|   |   |   |   |   V5 = 1: 10 (0.0)
|   |   |   |   |   V5 = 2: 10 (0.0)
|   |   |   |   |   V5 = 3: 10 (0.0)
|   |   |   |   |   V5 = 4: 10 (1.0)
|   |   |   |   |   V5 = 5: 10 (1.0)
|   |   |   |   |   V5 = 6: 10 (1.0)
|   |   |   |   |   V5 = 7: 9 (1.0)
|   |   |   |   |   V5 = 8: 9 (1.0)
|   |   |   |   V3 = 2
|   |   |   |   |   V5 = 1: 10 (0.0)
|   |   |   |   |   V5 = 2: 10 (0.0)
|   |   |   |   |   V5 = 3: 10 (0.0)
|   |   |   |   |   V5 = 4: 10 (1.0)
|   |   |   |   |   V5 = 5: 10 (1.0)
|   |   |   |   |   V5 = 6: 10 (1.0)
|   |   |   |   |   V5 = 7: 9 (1.0)
|   |   |   |   |   V5 = 8: 9 (1.0)
|   |   |   |   V3 = 3
|   |   |   |   |   V5 = 1: 9 (0.0)
|   |   |   |   |   V5 = 2: 9 (0.0)
|   |   |   |   |   V5 = 3: 9 (0.0)
|   |   |   |   |   V5 = 4: 14 (1.0)
|   |   |   |   |   V5 = 5: 14 (1.0)
|   |   |   |   |   V5 = 6: 10 (1.0)
|   |   |   |   |   V5 = 7: 9 (1.0)
|   |   |   |   |   V5 = 8: 9 (1.0)
|   |   |   |   V3 = 4
|   |   |   |   |   V5 = 1: 13 (0.0)
|   |   |   |   |   V5 = 2: 13 (0.0)
|   |   |   |   |   V5 = 3: 13 (0.0)
|   |   |   |   |   V5 = 4: 13 (1.0)
|   |   |   |   |   V5 = 5: 13 (1.0)
|   |   |   |   |   V5 = 6: 13 (1.0)
|   |   |   |   |   V5 = 7: 9 (1.0)
|   |   |   |   |   V5 = 8: 9 (1.0)
|   |   |   |   V3 = 5
|   |   |   |   |   V5 = 1: 12 (0.0)
|   |   |   |   |   V5 = 2: 12 (0.0)
|   |   |   |   |   V5 = 3: 12 (0.0)
|   |   |   |   |   V5 = 4: 14 (1.0)
|   |   |   |   |   V5 = 5: 14 (1.0)
|   |   |   |   |   V5 = 6: 12 (1.0)
|   |   |   |   |   V5 = 7: 12 (1.0)
|   |   |   |   |   V5 = 8: 10 (1.0)
|   |   |   |   V3 = 6
|   |   |   |   |   V5 = 1: 13 (0.0)
|   |   |   |   |   V5 = 2: 13 (0.0)
|   |   |   |   |   V5 = 3: 13 (0.0)
|   |   |   |   |   V5 = 4: 13 (1.0)
|   |   |   |   |   V5 = 5: 13 (1.0)
|   |   |   |   |   V5 = 6: 13 (1.0)
|   |   |   |   |   V5 = 7: 12 (1.0)
|   |   |   |   |   V5 = 8: 12 (1.0)
|   |   |   |   V3 = 7
|   |   |   |   |   V5 = 1: 12 (0.0)
|   |   |   |   |   V5 = 2: 12 (0.0)
|   |   |   |   |   V5 = 3: 12 (0.0)
|   |   |   |   |   V5 = 4: 10 (1.0)
|   |   |   |   |   V5 = 5: 12 (1.0)
|   |   |   |   |   V5 = 6: 12 (1.0)
|   |   |   |   |   V5 = 7: 12 (1.0)
|   |   |   |   |   V5 = 8: 9 (1.0)
|   |   |   |   V3 = 8
|   |   |   |   |   V5 = 1: 12 (0.0)
|   |   |   |   |   V5 = 2: 12 (0.0)
|   |   |   |   |   V5 = 3: 12 (0.0)
|   |   |   |   |   V5 = 4: 10 (1.0)
|   |   |   |   |   V5 = 5: 10 (1.0)
|   |   |   |   |   V5 = 6: 12 (1.0)
|   |   |   |   |   V5 = 7: 12 (1.0)
|   |   |   |   |   V5 = 8: 12 (1.0)
|   |   V1 = 3
|   |   |   V5 = 1
|   |   |   |   V3 = 1
|   |   |   |   |   V4 = 1: 0 (0.0)
|   |   |   |   |   V4 = 2: 17 (1.0)
|   |   |   |   |   V4 = 3: 0 (1.0)
|   |   |   |   |   V4 = 4: 0 (1.0)
|   |   |   |   |   V4 = 5: 0 (1.0)
|   |   |   |   |   V4 = 6: 0 (1.0)
|   |   |   |   |   V4 = 7: 0 (1.0)
|   |   |   |   |   V4 = 8: 0 (1.0)
|   |   |   |   V3 = 2
|   |   |   |   |   V4 = 1: 7 (1.0)
|   |   |   |   |   V4 = 2: 17 (1.0)
|   |   |   |   |   V4 = 3: 2 (1.0)
|   |   |   |   |   V4 = 4: 3 (1.0)
|   |   |   |   |   V4 = 5: 5 (1.0)
|   |   |   |   |   V4 = 6: 7 (1.0)
|   |   |   |   |   V4 = 7: 7 (1.0)
|   |   |   |   |   V4 = 8: 7 (1.0)
|   |   |   |   V3 = 3
|   |   |   |   |   V4 = 1: 2 (0.0)
|   |   |   |   |   V4 = 2: 17 (1.0)
|   |   |   |   |   V4 = 3: 2 (1.0)
|   |   |   |   |   V4 = 4: 2 (1.0)
|   |   |   |   |   V4 = 5: 2 (1.0)
|   |   |   |   |   V4 = 6: 2 (1.0)
|   |   |   |   |   V4 = 7: 2 (1.0)
|   |   |   |   |   V4 = 8: 2 (1.0)
|   |   |   |   V3 = 4
|   |   |   |   |   V4 = 1: 2 (1.0)
|   |   |   |   |   V4 = 2: 17 (1.0)
|   |   |   |   |   V4 = 3: 2 (1.0)
|   |   |   |   |   V4 = 4: 2 (1.0)
|   |   |   |   |   V4 = 5: 2 (1.0)
|   |   |   |   |   V4 = 6: 2 (1.0)
|   |   |   |   |   V4 = 7: 2 (1.0)
|   |   |   |   |   V4 = 8: 2 (1.0)
|   |   |   |   V3 = 5
|   |   |   |   |   V4 = 1: 2 (1.0)
|   |   |   |   |   V4 = 2: 17 (1.0)
|   |   |   |   |   V4 = 3: 2 (1.0)
|   |   |   |   |   V4 = 4: 2 (1.0)
|   |   |   |   |   V4 = 5: 2 (1.0)
|   |   |   |   |   V4 = 6: 2 (1.0)
|   |   |   |   |   V4 = 7: 2 (1.0)
|   |   |   |   |   V4 = 8: 2 (1.0)
|   |   |   |   V3 = 6
|   |   |   |   |   V4 = 1: 2 (1.0)
|   |   |   |   |   V4 = 2: 17 (1.0)
|   |   |   |   |   V4 = 3: 2 (1.0)
|   |   |   |   |   V4 = 4: 2 (1.0)
|   |   |   |   |   V4 = 5: 2 (1.0)
|   |   |   |   |   V4 = 6: 2 (1.0)
|   |   |   |   |   V4 = 7: 2 (1.0)
|   |   |   |   |   V4 = 8: 2 (1.0)
|   |   |   |   V3 = 7
|   |   |   |   |   V4 = 1: 2 (1.0)
|   |   |   |   |   V4 = 2: 17 (1.0)
|   |   |   |   |   V4 = 3: 2 (1.0)
|   |   |   |   |   V4 = 4: 2 (1.0)
|   |   |   |   |   V4 = 5: 2 (1.0)
|   |   |   |   |   V4 = 6: 2 (1.0)
|   |   |   |   |   V4 = 7: 2 (1.0)
|   |   |   |   |   V4 = 8: 2 (1.0)
|   |   |   |   V3 = 8
|   |   |   |   |   V4 = 1: 2 (1.0)
|   |   |   |   |   V4 = 2: 17 (1.0)
|   |   |   |   |   V4 = 3: 2 (1.0)
|   |   |   |   |   V4 = 4: 2 (1.0)
|   |   |   |   |   V4 = 5: 2 (1.0)
|   |   |   |   |   V4 = 6: 2 (1.0)
|   |   |   |   |   V4 = 7: 2 (1.0)
|   |   |   |   |   V4 = 8: 2 (1.0)
|   |   |   V5 = 2: 8 (0.0)
|   |   |   V5 = 3: 8 (0.0)
|   |   |   V5 = 4: 8 (0.0)
|   |   |   V5 = 5
|   |   |   |   V3 = 1
|   |   |   |   |   V4 = 1: 9 (1.0)
|   |   |   |   |   V4 = 2: 5 (1.0)
|   |   |   |   |   V4 = 3: 8 (1.0)
|   |   |   |   |   V4 = 4: 8 (1.0)
|   |   |   |   |   V4 = 5: 9 (1.0)
|   |   |   |   |   V4 = 6: 9 (1.0)
|   |   |   |   |   V4 = 7: 9 (1.0)
|   |   |   |   |   V4 = 8: 9 (1.0)
|   |   |   |   V3 = 2
|   |   |   |   |   V4 = 1: 9 (1.0)
|   |   |   |   |   V4 = 2: 5 (1.0)
|   |   |   |   |   V4 = 3: 8 (1.0)
|   |   |   |   |   V4 = 4: 8 (1.0)
|   |   |   |   |   V4 = 5: 9 (1.0)
|   |   |   |   |   V4 = 6: 9 (1.0)
|   |   |   |   |   V4 = 7: 9 (1.0)
|   |   |   |   |   V4 = 8: 9 (1.0)
|   |   |   |   V3 = 3
|   |   |   |   |   V4 = 1: 9 (0.0)
|   |   |   |   |   V4 = 2: 5 (1.0)
|   |   |   |   |   V4 = 3: 8 (1.0)
|   |   |   |   |   V4 = 4: 8 (1.0)
|   |   |   |   |   V4 = 5: 9 (1.0)
|   |   |   |   |   V4 = 6: 9 (1.0)
|   |   |   |   |   V4 = 7: 9 (1.0)
|   |   |   |   |   V4 = 8: 9 (1.0)
|   |   |   |   V3 = 4
|   |   |   |   |   V4 = 1: 12 (1.0)
|   |   |   |   |   V4 = 2: 5 (1.0)
|   |   |   |   |   V4 = 3: 7 (1.0)
|   |   |   |   |   V4 = 4: 10 (1.0)
|   |   |   |   |   V4 = 5: 12 (1.0)
|   |   |   |   |   V4 = 6: 12 (1.0)
|   |   |   |   |   V4 = 7: 12 (1.0)
|   |   |   |   |   V4 = 8: 12 (1.0)
|   |   |   |   V3 = 5
|   |   |   |   |   V4 = 1: 11 (0.0)
|   |   |   |   |   V4 = 2: 17 (1.0)
|   |   |   |   |   V4 = 3: 7 (1.0)
|   |   |   |   |   V4 = 4: 8 (1.0)
|   |   |   |   |   V4 = 5: 11 (1.0)
|   |   |   |   |   V4 = 6: 11 (1.0)
|   |   |   |   |   V4 = 7: 11 (1.0)
|   |   |   |   |   V4 = 8: 11 (1.0)
|   |   |   |   V3 = 6
|   |   |   |   |   V4 = 1: 17 (1.0)
|   |   |   |   |   V4 = 2: 17 (1.0)
|   |   |   |   |   V4 = 3: 8 (1.0)
|   |   |   |   |   V4 = 4: 10 (1.0)
|   |   |   |   |   V4 = 5: 13 (1.0)
|   |   |   |   |   V4 = 6: 13 (1.0)
|   |   |   |   |   V4 = 7: 13 (1.0)
|   |   |   |   |   V4 = 8: 13 (1.0)
|   |   |   |   V3 = 7
|   |   |   |   |   V4 = 1: 12 (1.0)
|   |   |   |   |   V4 = 2: 7 (1.0)
|   |   |   |   |   V4 = 3: 8 (1.0)
|   |   |   |   |   V4 = 4: 9 (1.0)
|   |   |   |   |   V4 = 5: 11 (1.0)
|   |   |   |   |   V4 = 6: 12 (1.0)
|   |   |   |   |   V4 = 7: 12 (1.0)
|   |   |   |   |   V4 = 8: 12 (1.0)
|   |   |   |   V3 = 8
|   |   |   |   |   V4 = 1: 9 (1.0)
|   |   |   |   |   V4 = 2: 7 (1.0)
|   |   |   |   |   V4 = 3: 8 (1.0)
|   |   |   |   |   V4 = 4: 9 (1.0)
|   |   |   |   |   V4 = 5: 9 (1.0)
|   |   |   |   |   V4 = 6: 9 (1.0)
|   |   |   |   |   V4 = 7: 9 (1.0)
|   |   |   |   |   V4 = 8: 9 (1.0)
|   |   |   V5 = 6
|   |   |   |   V3 = 1
|   |   |   |   |   V4 = 1: 9 (1.0)
|   |   |   |   |   V4 = 2: 6 (1.0)
|   |   |   |   |   V4 = 3: 8 (1.0)
|   |   |   |   |   V4 = 4: 8 (1.0)
|   |   |   |   |   V4 = 5: 9 (1.0)
|   |   |   |   |   V4 = 6: 9 (1.0)
|   |   |   |   |   V4 = 7: 9 (1.0)
|   |   |   |   |   V4 = 8: 9 (1.0)
|   |   |   |   V3 = 2
|   |   |   |   |   V4 = 1: 9 (1.0)
|   |   |   |   |   V4 = 2: 6 (1.0)
|   |   |   |   |   V4 = 3: 8 (1.0)
|   |   |   |   |   V4 = 4: 8 (1.0)
|   |   |   |   |   V4 = 5: 9 (1.0)
|   |   |   |   |   V4 = 6: 9 (1.0)
|   |   |   |   |   V4 = 7: 9 (1.0)
|   |   |   |   |   V4 = 8: 9 (1.0)
|   |   |   |   V3 = 3
|   |   |   |   |   V4 = 1: 9 (0.0)
|   |   |   |   |   V4 = 2: 6 (1.0)
|   |   |   |   |   V4 = 3: 8 (1.0)
|   |   |   |   |   V4 = 4: 8 (1.0)
|   |   |   |   |   V4 = 5: 9 (1.0)
|   |   |   |   |   V4 = 6: 9 (1.0)
|   |   |   |   |   V4 = 7: 9 (1.0)
|   |   |   |   |   V4 = 8: 9 (1.0)
|   |   |   |   V3 = 4
|   |   |   |   |   V4 = 1: 12 (1.0)
|   |   |   |   |   V4 = 2: 6 (1.0)
|   |   |   |   |   V4 = 3: 7 (1.0)
|   |   |   |   |   V4 = 4: 10 (1.0)
|   |   |   |   |   V4 = 5: 12 (1.0)
|   |   |   |   |   V4 = 6: 12 (1.0)
|   |   |   |   |   V4 = 7: 12 (1.0)
|   |   |   |   |   V4 = 8: 12 (1.0)
|   |   |   |   V3 = 5
|   |   |   |   |   V4 = 1: 17 (1.0)
|   |   |   |   |   V4 = 2: 17 (1.0)
|   |   |   |   |   V4 = 3: 7 (1.0)
|   |   |   |   |   V4 = 4: 8 (1.0)
|   |   |   |   |   V4 = 5: 11 (1.0)
|   |   |   |   |   V4 = 6: 11 (1.0)
|   |   |   |   |   V4 = 7: 11 (1.0)
|   |   |   |   |   V4 = 8: 11 (1.0)
|   |   |   |   V3 = 6
|   |   |   |   |   V4 = 1: 13 (0.0)
|   |   |   |   |   V4 = 2: 17 (1.0)
|   |   |   |   |   V4 = 3: 8 (1.0)
|   |   |   |   |   V4 = 4: 10 (1.0)
|   |   |   |   |   V4 = 5: 13 (1.0)
|   |   |   |   |   V4 = 6: 13 (1.0)
|   |   |   |   |   V4 = 7: 13 (1.0)
|   |   |   |   |   V4 = 8: 13 (1.0)
|   |   |   |   V3 = 7
|   |   |   |   |   V4 = 1: 17 (1.0)
|   |   |   |   |   V4 = 2: 17 (1.0)
|   |   |   |   |   V4 = 3: 8 (1.0)
|   |   |   |   |   V4 = 4: 9 (1.0)
|   |   |   |   |   V4 = 5: 11 (1.0)
|   |   |   |   |   V4 = 6: 12 (1.0)
|   |   |   |   |   V4 = 7: 12 (1.0)
|   |   |   |   |   V4 = 8: 12 (1.0)
|   |   |   |   V3 = 8
|   |   |   |   |   V4 = 1: 10 (1.0)
|   |   |   |   |   V4 = 2: 6 (1.0)
|   |   |   |   |   V4 = 3: 8 (1.0)
|   |   |   |   |   V4 = 4: 9 (1.0)
|   |   |   |   |   V4 = 5: 10 (1.0)
|   |   |   |   |   V4 = 6: 10 (1.0)
|   |   |   |   |   V4 = 7: 10 (1.0)
|   |   |   |   |   V4 = 8: 10 (1.0)
|   |   |   V5 = 7
|   |   |   |   V4 = 1
|   |   |   |   |   V3 = 1: 9 (1.0)
|   |   |   |   |   V3 = 2: 9 (1.0)
|   |   |   |   |   V3 = 3: 9 (0.0)
|   |   |   |   |   V3 = 4: 8 (1.0)
|   |   |   |   |   V3 = 5: 11 (1.0)
|   |   |   |   |   V3 = 6: 17 (1.0)
|   |   |   |   |   V3 = 7: 9 (0.0)
|   |   |   |   |   V3 = 8: 17 (1.0)
|   |   |   |   V4 = 2
|   |   |   |   |   V3 = 1: 5 (1.0)
|   |   |   |   |   V3 = 2: 5 (1.0)
|   |   |   |   |   V3 = 3: 5 (1.0)
|   |   |   |   |   V3 = 4: 5 (1.0)
|   |   |   |   |   V3 = 5: 5 (1.0)
|   |   |   |   |   V3 = 6: 17 (1.0)
|   |   |   |   |   V3 = 7: 17 (1.0)
|   |   |   |   |   V3 = 8: 17 (1.0)
|   |   |   |   V4 = 3
|   |   |   |   |   V3 = 1: 7 (1.0)
|   |   |   |   |   V3 = 2: 7 (1.0)
|   |   |   |   |   V3 = 3: 7 (1.0)
|   |   |   |   |   V3 = 4: 7 (1.0)
|   |   |   |   |   V3 = 5: 7 (1.0)
|   |   |   |   |   V3 = 6: 8 (1.0)
|   |   |   |   |   V3 = 7: 8 (1.0)
|   |   |   |   |   V3 = 8: 8 (1.0)
|   |   |   |   V4 = 4
|   |   |   |   |   V3 = 1: 8 (1.0)
|   |   |   |   |   V3 = 2: 8 (1.0)
|   |   |   |   |   V3 = 3: 8 (1.0)
|   |   |   |   |   V3 = 4: 8 (1.0)
|   |   |   |   |   V3 = 5: 8 (1.0)
|   |   |   |   |   V3 = 6: 7 (1.0)
|   |   |   |   |   V3 = 7: 8 (1.0)
|   |   |   |   |   V3 = 8: 9 (1.0)
|   |   |   |   V4 = 5
|   |   |   |   |   V3 = 1: 9 (1.0)
|   |   |   |   |   V3 = 2: 9 (1.0)
|   |   |   |   |   V3 = 3: 9 (1.0)
|   |   |   |   |   V3 = 4: 8 (1.0)
|   |   |   |   |   V3 = 5: 11 (1.0)
|   |   |   |   |   V3 = 6: 9 (1.0)
|   |   |   |   |   V3 = 7: 11 (1.0)
|   |   |   |   |   V3 = 8: 10 (1.0)
|   |   |   |   V4 = 6
|   |   |   |   |   V3 = 1: 9 (1.0)
|   |   |   |   |   V3 = 2: 9 (1.0)
|   |   |   |   |   V3 = 3: 9 (1.0)
|   |   |   |   |   V3 = 4: 8 (1.0)
|   |   |   |   |   V3 = 5: 11 (1.0)
|   |   |   |   |   V3 = 6: 10 (1.0)
|   |   |   |   |   V3 = 7: 12 (1.0)
|   |   |   |   |   V3 = 8: 10 (1.0)
|   |   |   |   V4 = 7
|   |   |   |   |   V3 = 1: 9 (1.0)
|   |   |   |   |   V3 = 2: 9 (1.0)
|   |   |   |   |   V3 = 3: 9 (1.0)
|   |   |   |   |   V3 = 4: 8 (1.0)
|   |   |   |   |   V3 = 5: 11 (1.0)
|   |   |   |   |   V3 = 6: 10 (1.0)
|   |   |   |   |   V3 = 7: 12 (1.0)
|   |   |   |   |   V3 = 8: 10 (1.0)
|   |   |   |   V4 = 8
|   |   |   |   |   V3 = 1: 9 (1.0)
|   |   |   |   |   V3 = 2: 9 (1.0)
|   |   |   |   |   V3 = 3: 9 (1.0)
|   |   |   |   |   V3 = 4: 8 (1.0)
|   |   |   |   |   V3 = 5: 11 (1.0)
|   |   |   |   |   V3 = 6: 10 (1.0)
|   |   |   |   |   V3 = 7: 12 (1.0)
|   |   |   |   |   V3 = 8: 10 (1.0)
|   |   |   V5 = 8
|   |   |   |   V4 = 1
|   |   |   |   |   V3 = 1: 8 (1.0)
|   |   |   |   |   V3 = 2: 8 (1.0)
|   |   |   |   |   V3 = 3: 8 (0.0)
|   |   |   |   |   V3 = 4: 8 (1.0)
|   |   |   |   |   V3 = 5: 8 (1.0)
|   |   |   |   |   V3 = 6: 10 (1.0)
|   |   |   |   |   V3 = 7: 17 (1.0)
|   |   |   |   |   V3 = 8: 8 (0.0)
|   |   |   |   V4 = 2
|   |   |   |   |   V3 = 1: 6 (1.0)
|   |   |   |   |   V3 = 2: 6 (1.0)
|   |   |   |   |   V3 = 3: 6 (1.0)
|   |   |   |   |   V3 = 4: 6 (1.0)
|   |   |   |   |   V3 = 5: 6 (1.0)
|   |   |   |   |   V3 = 6: 6 (1.0)
|   |   |   |   |   V3 = 7: 17 (1.0)
|   |   |   |   |   V3 = 8: 17 (1.0)
|   |   |   |   V4 = 3
|   |   |   |   |   V3 = 1: 7 (1.0)
|   |   |   |   |   V3 = 2: 7 (1.0)
|   |   |   |   |   V3 = 3: 7 (1.0)
|   |   |   |   |   V3 = 4: 7 (1.0)
|   |   |   |   |   V3 = 5: 7 (1.0)
|   |   |   |   |   V3 = 6: 8 (1.0)
|   |   |   |   |   V3 = 7: 8 (1.0)
|   |   |   |   |   V3 = 8: 8 (1.0)
|   |   |   |   V4 = 4
|   |   |   |   |   V3 = 1: 8 (1.0)
|   |   |   |   |   V3 = 2: 8 (1.0)
|   |   |   |   |   V3 = 3: 8 (1.0)
|   |   |   |   |   V3 = 4: 8 (1.0)
|   |   |   |   |   V3 = 5: 8 (1.0)
|   |   |   |   |   V3 = 6: 7 (1.0)
|   |   |   |   |   V3 = 7: 8 (1.0)
|   |   |   |   |   V3 = 8: 9 (1.0)
|   |   |   |   V4 = 5
|   |   |   |   |   V3 = 1: 8 (1.0)
|   |   |   |   |   V3 = 2: 8 (1.0)
|   |   |   |   |   V3 = 3: 8 (1.0)
|   |   |   |   |   V3 = 4: 8 (1.0)
|   |   |   |   |   V3 = 5: 8 (1.0)
|   |   |   |   |   V3 = 6: 9 (1.0)
|   |   |   |   |   V3 = 7: 7 (1.0)
|   |   |   |   |   V3 = 8: 10 (1.0)
|   |   |   |   V4 = 6
|   |   |   |   |   V3 = 1: 8 (1.0)
|   |   |   |   |   V3 = 2: 8 (1.0)
|   |   |   |   |   V3 = 3: 8 (1.0)
|   |   |   |   |   V3 = 4: 8 (1.0)
|   |   |   |   |   V3 = 5: 8 (1.0)
|   |   |   |   |   V3 = 6: 10 (1.0)
|   |   |   |   |   V3 = 7: 7 (1.0)
|   |   |   |   |   V3 = 8: 10 (1.0)
|   |   |   |   V4 = 7
|   |   |   |   |   V3 = 1: 8 (1.0)
|   |   |   |   |   V3 = 2: 8 (1.0)
|   |   |   |   |   V3 = 3: 8 (1.0)
|   |   |   |   |   V3 = 4: 8 (1.0)
|   |   |   |   |   V3 = 5: 8 (1.0)
|   |   |   |   |   V3 = 6: 10 (1.0)
|   |   |   |   |   V3 = 7: 8 (1.0)
|   |   |   |   |   V3 = 8: 10 (1.0)
|   |   |   |   V4 = 8
|   |   |   |   |   V3 = 1: 8 (1.0)
|   |   |   |   |   V3 = 2: 8 (1.0)
|   |   |   |   |   V3 = 3: 8 (1.0)
|   |   |   |   |   V3 = 4: 8 (1.0)
|   |   |   |   |   V3 = 5: 8 (1.0)
|   |   |   |   |   V3 = 6: 10 (1.0)
|   |   |   |   |   V3 = 7: 8 (1.0)
|   |   |   |   |   V3 = 8: 10 (1.0)
|   |   V1 = 4
|   |   |   V3 = 1
|   |   |   |   V4 = 1
|   |   |   |   |   V5 = 1: 6 (0.0)
|   |   |   |   |   V5 = 2: 17 (1.0)
|   |   |   |   |   V5 = 3: 6 (0.0)
|   |   |   |   |   V5 = 4: 6 (0.0)
|   |   |   |   |   V5 = 5: 6 (0.0)
|   |   |   |   |   V5 = 6: 6 (1.0)
|   |   |   |   |   V5 = 7: 6 (1.0)
|   |   |   |   |   V5 = 8: 6 (1.0)
|   |   |   |   V4 = 2
|   |   |   |   |   V5 = 1: 17 (1.0)
|   |   |   |   |   V5 = 2: 17 (1.0)
|   |   |   |   |   V5 = 3: 4 (0.0)
|   |   |   |   |   V5 = 4: 4 (0.0)
|   |   |   |   |   V5 = 5: 4 (0.0)
|   |   |   |   |   V5 = 6: 4 (1.0)
|   |   |   |   |   V5 = 7: 5 (1.0)
|   |   |   |   |   V5 = 8: 4 (1.0)
|   |   |   |   V4 = 3
|   |   |   |   |   V5 = 1: 5 (1.0)
|   |   |   |   |   V5 = 2: 5 (1.0)
|   |   |   |   |   V5 = 3: 5 (0.0)
|   |   |   |   |   V5 = 4: 5 (0.0)
|   |   |   |   |   V5 = 5: 5 (0.0)
|   |   |   |   |   V5 = 6: 6 (1.0)
|   |   |   |   |   V5 = 7: 6 (1.0)
|   |   |   |   |   V5 = 8: 5 (1.0)
|   |   |   |   V4 = 4: 6 (5.0)
|   |   |   |   V4 = 5
|   |   |   |   |   V5 = 1: 9 (1.0)
|   |   |   |   |   V5 = 2: 9 (1.0)
|   |   |   |   |   V5 = 3: 6 (0.0)
|   |   |   |   |   V5 = 4: 6 (0.0)
|   |   |   |   |   V5 = 5: 6 (0.0)
|   |   |   |   |   V5 = 6: 6 (1.0)
|   |   |   |   |   V5 = 7: 6 (1.0)
|   |   |   |   |   V5 = 8: 6 (1.0)
|   |   |   |   V4 = 6
|   |   |   |   |   V5 = 1: 10 (1.0)
|   |   |   |   |   V5 = 2: 10 (1.0)
|   |   |   |   |   V5 = 3: 6 (0.0)
|   |   |   |   |   V5 = 4: 6 (0.0)
|   |   |   |   |   V5 = 5: 6 (0.0)
|   |   |   |   |   V5 = 6: 6 (1.0)
|   |   |   |   |   V5 = 7: 6 (1.0)
|   |   |   |   |   V5 = 8: 6 (1.0)
|   |   |   |   V4 = 7
|   |   |   |   |   V5 = 1: 10 (1.0)
|   |   |   |   |   V5 = 2: 10 (1.0)
|   |   |   |   |   V5 = 3: 6 (0.0)
|   |   |   |   |   V5 = 4: 6 (0.0)
|   |   |   |   |   V5 = 5: 6 (0.0)
|   |   |   |   |   V5 = 6: 6 (1.0)
|   |   |   |   |   V5 = 7: 6 (1.0)
|   |   |   |   |   V5 = 8: 6 (1.0)
|   |   |   |   V4 = 8
|   |   |   |   |   V5 = 1: 10 (1.0)
|   |   |   |   |   V5 = 2: 10 (1.0)
|   |   |   |   |   V5 = 3: 6 (0.0)
|   |   |   |   |   V5 = 4: 6 (0.0)
|   |   |   |   |   V5 = 5: 6 (0.0)
|   |   |   |   |   V5 = 6: 6 (1.0)
|   |   |   |   |   V5 = 7: 6 (1.0)
|   |   |   |   |   V5 = 8: 6 (1.0)
|   |   |   V3 = 2
|   |   |   |   V5 = 1
|   |   |   |   |   V4 = 1: 17 (1.0)
|   |   |   |   |   V4 = 2: 17 (1.0)
|   |   |   |   |   V4 = 3: 2 (1.0)
|   |   |   |   |   V4 = 4: 3 (1.0)
|   |   |   |   |   V4 = 5: 5 (1.0)
|   |   |   |   |   V4 = 6: 7 (1.0)
|   |   |   |   |   V4 = 7: 7 (1.0)
|   |   |   |   |   V4 = 8: 7 (1.0)
|   |   |   |   V5 = 2
|   |   |   |   |   V4 = 1: 7 (0.0)
|   |   |   |   |   V4 = 2: 17 (1.0)
|   |   |   |   |   V4 = 3: 3 (1.0)
|   |   |   |   |   V4 = 4: 3 (1.0)
|   |   |   |   |   V4 = 5: 5 (1.0)
|   |   |   |   |   V4 = 6: 7 (1.0)
|   |   |   |   |   V4 = 7: 7 (1.0)
|   |   |   |   |   V4 = 8: 7 (1.0)
|   |   |   |   V5 = 3: 6 (0.0)
|   |   |   |   V5 = 4: 6 (0.0)
|   |   |   |   V5 = 5: 6 (0.0)
|   |   |   |   V5 = 6
|   |   |   |   |   V4 = 1: 6 (1.0)
|   |   |   |   |   V4 = 2: 4 (1.0)
|   |   |   |   |   V4 = 3: 6 (1.0)
|   |   |   |   |   V4 = 4: 6 (1.0)
|   |   |   |   |   V4 = 5: 6 (1.0)
|   |   |   |   |   V4 = 6: 6 (1.0)
|   |   |   |   |   V4 = 7: 6 (1.0)
|   |   |   |   |   V4 = 8: 6 (1.0)
|   |   |   |   V5 = 7
|   |   |   |   |   V4 = 1: 6 (1.0)
|   |   |   |   |   V4 = 2: 5 (1.0)
|   |   |   |   |   V4 = 3: 6 (1.0)
|   |   |   |   |   V4 = 4: 6 (1.0)
|   |   |   |   |   V4 = 5: 6 (1.0)
|   |   |   |   |   V4 = 6: 6 (1.0)
|   |   |   |   |   V4 = 7: 6 (1.0)
|   |   |   |   |   V4 = 8: 6 (1.0)
|   |   |   |   V5 = 8
|   |   |   |   |   V4 = 1: 6 (1.0)
|   |   |   |   |   V4 = 2: 4 (1.0)
|   |   |   |   |   V4 = 3: 5 (1.0)
|   |   |   |   |   V4 = 4: 6 (1.0)
|   |   |   |   |   V4 = 5: 6 (1.0)
|   |   |   |   |   V4 = 6: 6 (1.0)
|   |   |   |   |   V4 = 7: 6 (1.0)
|   |   |   |   |   V4 = 8: 6 (1.0)
|   |   |   V3 = 3
|   |   |   |   V5 = 1
|   |   |   |   |   V4 = 1: 9 (1.0)
|   |   |   |   |   V4 = 2: 4 (1.0)
|   |   |   |   |   V4 = 3: 5 (1.0)
|   |   |   |   |   V4 = 4: 6 (1.0)
|   |   |   |   |   V4 = 5: 9 (1.0)
|   |   |   |   |   V4 = 6: 9 (1.0)
|   |   |   |   |   V4 = 7: 9 (1.0)
|   |   |   |   |   V4 = 8: 9 (1.0)
|   |   |   |   V5 = 2
|   |   |   |   |   V4 = 1: 9 (1.0)
|   |   |   |   |   V4 = 2: 5 (1.0)
|   |   |   |   |   V4 = 3: 5 (1.0)
|   |   |   |   |   V4 = 4: 6 (1.0)
|   |   |   |   |   V4 = 5: 9 (1.0)
|   |   |   |   |   V4 = 6: 9 (1.0)
|   |   |   |   |   V4 = 7: 9 (1.0)
|   |   |   |   |   V4 = 8: 9 (1.0)
|   |   |   |   V5 = 3: 6 (0.0)
|   |   |   |   V5 = 4: 6 (0.0)
|   |   |   |   V5 = 5: 6 (0.0)
|   |   |   |   V5 = 6
|   |   |   |   |   V4 = 1: 6 (1.0)
|   |   |   |   |   V4 = 2: 4 (1.0)
|   |   |   |   |   V4 = 3: 6 (1.0)
|   |   |   |   |   V4 = 4: 6 (1.0)
|   |   |   |   |   V4 = 5: 6 (1.0)
|   |   |   |   |   V4 = 6: 6 (1.0)
|   |   |   |   |   V4 = 7: 6 (1.0)
|   |   |   |   |   V4 = 8: 6 (1.0)
|   |   |   |   V5 = 7
|   |   |   |   |   V4 = 1: 6 (1.0)
|   |   |   |   |   V4 = 2: 5 (1.0)
|   |   |   |   |   V4 = 3: 6 (1.0)
|   |   |   |   |   V4 = 4: 6 (1.0)
|   |   |   |   |   V4 = 5: 6 (1.0)
|   |   |   |   |   V4 = 6: 6 (1.0)
|   |   |   |   |   V4 = 7: 6 (1.0)
|   |   |   |   |   V4 = 8: 6 (1.0)
|   |   |   |   V5 = 8
|   |   |   |   |   V4 = 1: 6 (1.0)
|   |   |   |   |   V4 = 2: 4 (1.0)
|   |   |   |   |   V4 = 3: 5 (1.0)
|   |   |   |   |   V4 = 4: 6 (1.0)
|   |   |   |   |   V4 = 5: 6 (1.0)
|   |   |   |   |   V4 = 6: 6 (1.0)
|   |   |   |   |   V4 = 7: 6 (1.0)
|   |   |   |   |   V4 = 8: 6 (1.0)
|   |   |   V3 = 4
|   |   |   |   V5 = 1
|   |   |   |   |   V4 = 1: 5 (0.0)
|   |   |   |   |   V4 = 2: 4 (1.0)
|   |   |   |   |   V4 = 3: 4 (1.0)
|   |   |   |   |   V4 = 4: 5 (1.0)
|   |   |   |   |   V4 = 5: 5 (1.0)
|   |   |   |   |   V4 = 6: 5 (1.0)
|   |   |   |   |   V4 = 7: 5 (1.0)
|   |   |   |   |   V4 = 8: 5 (1.0)
|   |   |   |   V5 = 2
|   |   |   |   |   V4 = 1: 5 (0.0)
|   |   |   |   |   V4 = 2: 3 (1.0)
|   |   |   |   |   V4 = 3: 4 (1.0)
|   |   |   |   |   V4 = 4: 5 (1.0)
|   |   |   |   |   V4 = 5: 5 (1.0)
|   |   |   |   |   V4 = 6: 5 (1.0)
|   |   |   |   |   V4 = 7: 5 (1.0)
|   |   |   |   |   V4 = 8: 5 (1.0)
|   |   |   |   V5 = 3: 6 (0.0)
|   |   |   |   V5 = 4: 6 (0.0)
|   |   |   |   V5 = 5: 6 (0.0)
|   |   |   |   V5 = 6
|   |   |   |   |   V4 = 1: 6 (0.0)
|   |   |   |   |   V4 = 2: 4 (1.0)
|   |   |   |   |   V4 = 3: 6 (1.0)
|   |   |   |   |   V4 = 4: 6 (1.0)
|   |   |   |   |   V4 = 5: 6 (1.0)
|   |   |   |   |   V4 = 6: 6 (1.0)
|   |   |   |   |   V4 = 7: 6 (1.0)
|   |   |   |   |   V4 = 8: 6 (1.0)
|   |   |   |   V5 = 7
|   |   |   |   |   V4 = 1: 6 (0.0)
|   |   |   |   |   V4 = 2: 5 (1.0)
|   |   |   |   |   V4 = 3: 6 (1.0)
|   |   |   |   |   V4 = 4: 6 (1.0)
|   |   |   |   |   V4 = 5: 6 (1.0)
|   |   |   |   |   V4 = 6: 6 (1.0)
|   |   |   |   |   V4 = 7: 6 (1.0)
|   |   |   |   |   V4 = 8: 6 (1.0)
|   |   |   |   V5 = 8
|   |   |   |   |   V4 = 1: 6 (0.0)
|   |   |   |   |   V4 = 2: 4 (1.0)
|   |   |   |   |   V4 = 3: 5 (1.0)
|   |   |   |   |   V4 = 4: 6 (1.0)
|   |   |   |   |   V4 = 5: 6 (1.0)
|   |   |   |   |   V4 = 6: 6 (1.0)
|   |   |   |   |   V4 = 7: 6 (1.0)
|   |   |   |   |   V4 = 8: 6 (1.0)
|   |   |   V3 = 5
|   |   |   |   V5 = 1
|   |   |   |   |   V4 = 1: 5 (1.0)
|   |   |   |   |   V4 = 2: 4 (1.0)
|   |   |   |   |   V4 = 3: 4 (1.0)
|   |   |   |   |   V4 = 4: 5 (1.0)
|   |   |   |   |   V4 = 5: 5 (1.0)
|   |   |   |   |   V4 = 6: 5 (1.0)
|   |   |   |   |   V4 = 7: 5 (1.0)
|   |   |   |   |   V4 = 8: 5 (1.0)
|   |   |   |   V5 = 2
|   |   |   |   |   V4 = 1: 5 (1.0)
|   |   |   |   |   V4 = 2: 3 (1.0)
|   |   |   |   |   V4 = 3: 4 (1.0)
|   |   |   |   |   V4 = 4: 5 (1.0)
|   |   |   |   |   V4 = 5: 5 (1.0)
|   |   |   |   |   V4 = 6: 5 (1.0)
|   |   |   |   |   V4 = 7: 5 (1.0)
|   |   |   |   |   V4 = 8: 5 (1.0)
|   |   |   |   V5 = 3: 5 (0.0)
|   |   |   |   V5 = 4: 5 (0.0)
|   |   |   |   V5 = 5: 5 (0.0)
|   |   |   |   V5 = 6
|   |   |   |   |   V4 = 1: 11 (1.0)
|   |   |   |   |   V4 = 2: 4 (1.0)
|   |   |   |   |   V4 = 3: 6 (1.0)
|   |   |   |   |   V4 = 4: 8 (1.0)
|   |   |   |   |   V4 = 5: 11 (1.0)
|   |   |   |   |   V4 = 6: 11 (1.0)
|   |   |   |   |   V4 = 7: 11 (1.0)
|   |   |   |   |   V4 = 8: 11 (1.0)
|   |   |   |   V5 = 7
|   |   |   |   |   V4 = 1: 11 (1.0)
|   |   |   |   |   V4 = 2: 5 (1.0)
|   |   |   |   |   V4 = 3: 6 (1.0)
|   |   |   |   |   V4 = 4: 8 (1.0)
|   |   |   |   |   V4 = 5: 11 (1.0)
|   |   |   |   |   V4 = 6: 11 (1.0)
|   |   |   |   |   V4 = 7: 11 (1.0)
|   |   |   |   |   V4 = 8: 11 (1.0)
|   |   |   |   V5 = 8
|   |   |   |   |   V4 = 1: 7 (1.0)
|   |   |   |   |   V4 = 2: 4 (1.0)
|   |   |   |   |   V4 = 3: 5 (1.0)
|   |   |   |   |   V4 = 4: 6 (1.0)
|   |   |   |   |   V4 = 5: 6 (1.0)
|   |   |   |   |   V4 = 6: 6 (1.0)
|   |   |   |   |   V4 = 7: 6 (1.0)
|   |   |   |   |   V4 = 8: 6 (1.0)
|   |   |   V3 = 6
|   |   |   |   V4 = 1
|   |   |   |   |   V5 = 1: 5 (1.0)
|   |   |   |   |   V5 = 2: 5 (1.0)
|   |   |   |   |   V5 = 3: 5 (0.0)
|   |   |   |   |   V5 = 4: 5 (0.0)
|   |   |   |   |   V5 = 5: 5 (0.0)
|   |   |   |   |   V5 = 6: 5 (0.0)
|   |   |   |   |   V5 = 7: 17 (1.0)
|   |   |   |   |   V5 = 8: 9 (1.0)
|   |   |   |   V4 = 2
|   |   |   |   |   V5 = 1: 4 (1.0)
|   |   |   |   |   V5 = 2: 3 (1.0)
|   |   |   |   |   V5 = 3: 4 (0.0)
|   |   |   |   |   V5 = 4: 4 (0.0)
|   |   |   |   |   V5 = 5: 4 (0.0)
|   |   |   |   |   V5 = 6: 17 (1.0)
|   |   |   |   |   V5 = 7: 17 (1.0)
|   |   |   |   |   V5 = 8: 4 (1.0)
|   |   |   |   V4 = 3
|   |   |   |   |   V5 = 1: 4 (1.0)
|   |   |   |   |   V5 = 2: 4 (1.0)
|   |   |   |   |   V5 = 3: 5 (0.0)
|   |   |   |   |   V5 = 4: 5 (0.0)
|   |   |   |   |   V5 = 5: 5 (0.0)
|   |   |   |   |   V5 = 6: 5 (1.0)
|   |   |   |   |   V5 = 7: 5 (1.0)
|   |   |   |   |   V5 = 8: 5 (1.0)
|   |   |   |   V4 = 4
|   |   |   |   |   V5 = 1: 5 (1.0)
|   |   |   |   |   V5 = 2: 5 (1.0)
|   |   |   |   |   V5 = 3: 6 (0.0)
|   |   |   |   |   V5 = 4: 6 (0.0)
|   |   |   |   |   V5 = 5: 6 (0.0)
|   |   |   |   |   V5 = 6: 6 (1.0)
|   |   |   |   |   V5 = 7: 6 (1.0)
|   |   |   |   |   V5 = 8: 6 (1.0)
|   |   |   |   V4 = 5
|   |   |   |   |   V5 = 1: 5 (1.0)
|   |   |   |   |   V5 = 2: 5 (1.0)
|   |   |   |   |   V5 = 3: 9 (0.0)
|   |   |   |   |   V5 = 4: 9 (0.0)
|   |   |   |   |   V5 = 5: 9 (0.0)
|   |   |   |   |   V5 = 6: 9 (1.0)
|   |   |   |   |   V5 = 7: 9 (1.0)
|   |   |   |   |   V5 = 8: 9 (1.0)
|   |   |   |   V4 = 6
|   |   |   |   |   V5 = 1: 5 (1.0)
|   |   |   |   |   V5 = 2: 5 (1.0)
|   |   |   |   |   V5 = 3: 9 (0.0)
|   |   |   |   |   V5 = 4: 9 (0.0)
|   |   |   |   |   V5 = 5: 9 (0.0)
|   |   |   |   |   V5 = 6: 9 (1.0)
|   |   |   |   |   V5 = 7: 9 (1.0)
|   |   |   |   |   V5 = 8: 9 (1.0)
|   |   |   |   V4 = 7
|   |   |   |   |   V5 = 1: 5 (1.0)
|   |   |   |   |   V5 = 2: 5 (1.0)
|   |   |   |   |   V5 = 3: 9 (0.0)
|   |   |   |   |   V5 = 4: 9 (0.0)
|   |   |   |   |   V5 = 5: 9 (0.0)
|   |   |   |   |   V5 = 6: 9 (1.0)
|   |   |   |   |   V5 = 7: 9 (1.0)
|   |   |   |   |   V5 = 8: 9 (1.0)
|   |   |   |   V4 = 8
|   |   |   |   |   V5 = 1: 5 (1.0)
|   |   |   |   |   V5 = 2: 5 (1.0)
|   |   |   |   |   V5 = 3: 9 (0.0)
|   |   |   |   |   V5 = 4: 9 (0.0)
|   |   |   |   |   V5 = 5: 9 (0.0)
|   |   |   |   |   V5 = 6: 9 (1.0)
|   |   |   |   |   V5 = 7: 9 (1.0)
|   |   |   |   |   V5 = 8: 9 (1.0)
|   |   |   V3 = 7
|   |   |   |   V4 = 1
|   |   |   |   |   V5 = 1: 5 (1.0)
|   |   |   |   |   V5 = 2: 5 (1.0)
|   |   |   |   |   V5 = 3: 5 (0.0)
|   |   |   |   |   V5 = 4: 5 (0.0)
|   |   |   |   |   V5 = 5: 5 (0.0)
|   |   |   |   |   V5 = 6: 17 (1.0)
|   |   |   |   |   V5 = 7: 5 (0.0)
|   |   |   |   |   V5 = 8: 17 (1.0)
|   |   |   |   V4 = 2
|   |   |   |   |   V5 = 1: 4 (1.0)
|   |   |   |   |   V5 = 2: 3 (1.0)
|   |   |   |   |   V5 = 3: 17 (0.0)
|   |   |   |   |   V5 = 4: 17 (0.0)
|   |   |   |   |   V5 = 5: 17 (0.0)
|   |   |   |   |   V5 = 6: 17 (1.0)
|   |   |   |   |   V5 = 7: 17 (1.0)
|   |   |   |   |   V5 = 8: 17 (1.0)
|   |   |   |   V4 = 3
|   |   |   |   |   V5 = 1: 4 (1.0)
|   |   |   |   |   V5 = 2: 4 (1.0)
|   |   |   |   |   V5 = 3: 6 (0.0)
|   |   |   |   |   V5 = 4: 6 (0.0)
|   |   |   |   |   V5 = 5: 6 (0.0)
|   |   |   |   |   V5 = 6: 6 (1.0)
|   |   |   |   |   V5 = 7: 6 (1.0)
|   |   |   |   |   V5 = 8: 6 (1.0)
|   |   |   |   V4 = 4
|   |   |   |   |   V5 = 1: 5 (1.0)
|   |   |   |   |   V5 = 2: 5 (1.0)
|   |   |   |   |   V5 = 3: 5 (0.0)
|   |   |   |   |   V5 = 4: 5 (0.0)
|   |   |   |   |   V5 = 5: 5 (0.0)
|   |   |   |   |   V5 = 6: 8 (1.0)
|   |   |   |   |   V5 = 7: 8 (1.0)
|   |   |   |   |   V5 = 8: 5 (1.0)
|   |   |   |   V4 = 5
|   |   |   |   |   V5 = 1: 5 (1.0)
|   |   |   |   |   V5 = 2: 5 (1.0)
|   |   |   |   |   V5 = 3: 5 (0.0)
|   |   |   |   |   V5 = 4: 5 (0.0)
|   |   |   |   |   V5 = 5: 5 (0.0)
|   |   |   |   |   V5 = 6: 11 (1.0)
|   |   |   |   |   V5 = 7: 11 (1.0)
|   |   |   |   |   V5 = 8: 5 (1.0)
|   |   |   |   V4 = 6
|   |   |   |   |   V5 = 1: 5 (1.0)
|   |   |   |   |   V5 = 2: 5 (1.0)
|   |   |   |   |   V5 = 3: 5 (0.0)
|   |   |   |   |   V5 = 4: 5 (0.0)
|   |   |   |   |   V5 = 5: 5 (0.0)
|   |   |   |   |   V5 = 6: 12 (1.0)
|   |   |   |   |   V5 = 7: 12 (1.0)
|   |   |   |   |   V5 = 8: 7 (1.0)
|   |   |   |   V4 = 7
|   |   |   |   |   V5 = 1: 5 (1.0)
|   |   |   |   |   V5 = 2: 5 (1.0)
|   |   |   |   |   V5 = 3: 5 (0.0)
|   |   |   |   |   V5 = 4: 5 (0.0)
|   |   |   |   |   V5 = 5: 5 (0.0)
|   |   |   |   |   V5 = 6: 12 (1.0)
|   |   |   |   |   V5 = 7: 12 (1.0)
|   |   |   |   |   V5 = 8: 8 (1.0)
|   |   |   |   V4 = 8
|   |   |   |   |   V5 = 1: 5 (1.0)
|   |   |   |   |   V5 = 2: 5 (1.0)
|   |   |   |   |   V5 = 3: 5 (0.0)
|   |   |   |   |   V5 = 4: 5 (0.0)
|   |   |   |   |   V5 = 5: 5 (0.0)
|   |   |   |   |   V5 = 6: 12 (1.0)
|   |   |   |   |   V5 = 7: 12 (1.0)
|   |   |   |   |   V5 = 8: 8 (1.0)
|   |   |   V3 = 8
|   |   |   |   V4 = 1
|   |   |   |   |   V5 = 1: 5 (1.0)
|   |   |   |   |   V5 = 2: 5 (1.0)
|   |   |   |   |   V5 = 3: 5 (0.0)
|   |   |   |   |   V5 = 4: 5 (0.0)
|   |   |   |   |   V5 = 5: 5 (0.0)
|   |   |   |   |   V5 = 6: 10 (1.0)
|   |   |   |   |   V5 = 7: 17 (1.0)
|   |   |   |   |   V5 = 8: 5 (0.0)
|   |   |   |   V4 = 2
|   |   |   |   |   V5 = 1: 4 (1.0)
|   |   |   |   |   V5 = 2: 3 (1.0)
|   |   |   |   |   V5 = 3: 17 (0.0)
|   |   |   |   |   V5 = 4: 17 (0.0)
|   |   |   |   |   V5 = 5: 17 (0.0)
|   |   |   |   |   V5 = 6: 6 (1.0)
|   |   |   |   |   V5 = 7: 17 (1.0)
|   |   |   |   |   V5 = 8: 17 (1.0)
|   |   |   |   V4 = 3
|   |   |   |   |   V5 = 1: 4 (1.0)
|   |   |   |   |   V5 = 2: 4 (1.0)
|   |   |   |   |   V5 = 3: 7 (0.0)
|   |   |   |   |   V5 = 4: 7 (0.0)
|   |   |   |   |   V5 = 5: 7 (0.0)
|   |   |   |   |   V5 = 6: 7 (1.0)
|   |   |   |   |   V5 = 7: 7 (1.0)
|   |   |   |   |   V5 = 8: 7 (1.0)
|   |   |   |   V4 = 4
|   |   |   |   |   V5 = 1: 5 (1.0)
|   |   |   |   |   V5 = 2: 5 (1.0)
|   |   |   |   |   V5 = 3: 5 (0.0)
|   |   |   |   |   V5 = 4: 5 (0.0)
|   |   |   |   |   V5 = 5: 5 (0.0)
|   |   |   |   |   V5 = 6: 8 (1.0)
|   |   |   |   |   V5 = 7: 8 (1.0)
|   |   |   |   |   V5 = 8: 6 (1.0)
|   |   |   |   V4 = 5
|   |   |   |   |   V5 = 1: 5 (1.0)
|   |   |   |   |   V5 = 2: 5 (1.0)
|   |   |   |   |   V5 = 3: 9 (0.0)
|   |   |   |   |   V5 = 4: 9 (0.0)
|   |   |   |   |   V5 = 5: 9 (0.0)
|   |   |   |   |   V5 = 6: 9 (1.0)
|   |   |   |   |   V5 = 7: 9 (1.0)
|   |   |   |   |   V5 = 8: 9 (1.0)
|   |   |   |   V4 = 6
|   |   |   |   |   V5 = 1: 5 (1.0)
|   |   |   |   |   V5 = 2: 5 (1.0)
|   |   |   |   |   V5 = 3: 10 (0.0)
|   |   |   |   |   V5 = 4: 10 (0.0)
|   |   |   |   |   V5 = 5: 10 (0.0)
|   |   |   |   |   V5 = 6: 10 (1.0)
|   |   |   |   |   V5 = 7: 10 (1.0)
|   |   |   |   |   V5 = 8: 10 (1.0)
|   |   |   |   V4 = 7
|   |   |   |   |   V5 = 1: 5 (1.0)
|   |   |   |   |   V5 = 2: 5 (1.0)
|   |   |   |   |   V5 = 3: 10 (0.0)
|   |   |   |   |   V5 = 4: 10 (0.0)
|   |   |   |   |   V5 = 5: 10 (0.0)
|   |   |   |   |   V5 = 6: 10 (1.0)
|   |   |   |   |   V5 = 7: 10 (1.0)
|   |   |   |   |   V5 = 8: 10 (1.0)
|   |   |   |   V4 = 8
|   |   |   |   |   V5 = 1: 5 (1.0)
|   |   |   |   |   V5 = 2: 5 (1.0)
|   |   |   |   |   V5 = 3: 10 (0.0)
|   |   |   |   |   V5 = 4: 10 (0.0)
|   |   |   |   |   V5 = 5: 10 (0.0)
|   |   |   |   |   V5 = 6: 10 (1.0)
|   |   |   |   |   V5 = 7: 10 (1.0)
|   |   |   |   |   V5 = 8: 10 (1.0)
|   V6 = 2
|   |   V5 = 1
|   |   |   V4 = 1
|   |   |   |   V1 = 1: 8 (0.0)
|   |   |   |   V1 = 2: 8 (0.0)
|   |   |   |   V1 = 3
|   |   |   |   |   V3 = 1: 17 (1.0)
|   |   |   |   |   V3 = 2: 7 (1.0)
|   |   |   |   |   V3 = 3: 12 (0.0)
|   |   |   |   |   V3 = 4: 13 (1.0)
|   |   |   |   |   V3 = 5: 12 (1.0)
|   |   |   |   |   V3 = 6: 12 (1.0)
|   |   |   |   |   V3 = 7: 12 (1.0)
|   |   |   |   |   V3 = 8: 12 (1.0)
|   |   |   |   V1 = 4
|   |   |   |   |   V3 = 1: 17 (1.0)
|   |   |   |   |   V3 = 2: 17 (1.0)
|   |   |   |   |   V3 = 3: 11 (1.0)
|   |   |   |   |   V3 = 4: 8 (0.0)
|   |   |   |   |   V3 = 5: 8 (1.0)
|   |   |   |   |   V3 = 6: 8 (1.0)
|   |   |   |   |   V3 = 7: 8 (1.0)
|   |   |   |   |   V3 = 8: 8 (1.0)
|   |   |   V4 = 2
|   |   |   |   V1 = 1: 11 (0.0)
|   |   |   |   V1 = 2: 11 (0.0)
|   |   |   |   V1 = 3
|   |   |   |   |   V3 = 1: 11 (0.0)
|   |   |   |   |   V3 = 2: 7 (1.0)
|   |   |   |   |   V3 = 3: 10 (1.0)
|   |   |   |   |   V3 = 4: 11 (1.0)
|   |   |   |   |   V3 = 5: 11 (1.0)
|   |   |   |   |   V3 = 6: 11 (1.0)
|   |   |   |   |   V3 = 7: 11 (1.0)
|   |   |   |   |   V3 = 8: 11 (1.0)
|   |   |   |   V1 = 4
|   |   |   |   |   V3 = 1: 8 (0.0)
|   |   |   |   |   V3 = 2: 17 (1.0)
|   |   |   |   |   V3 = 3: 11 (1.0)
|   |   |   |   |   V3 = 4: 12 (1.0)
|   |   |   |   |   V3 = 5: 8 (1.0)
|   |   |   |   |   V3 = 6: 8 (1.0)
|   |   |   |   |   V3 = 7: 8 (1.0)
|   |   |   |   |   V3 = 8: 8 (1.0)
|   |   |   V4 = 3
|   |   |   |   V1 = 1: 1 (0.0)
|   |   |   |   V1 = 2: 1 (0.0)
|   |   |   |   V1 = 3
|   |   |   |   |   V3 = 1: 17 (1.0)
|   |   |   |   |   V3 = 2: 17 (1.0)
|   |   |   |   |   V3 = 3: 1 (1.0)
|   |   |   |   |   V3 = 4: 1 (1.0)
|   |   |   |   |   V3 = 5: 1 (1.0)
|   |   |   |   |   V3 = 6: 1 (1.0)
|   |   |   |   |   V3 = 7: 1 (1.0)
|   |   |   |   |   V3 = 8: 1 (1.0)
|   |   |   |   V1 = 4
|   |   |   |   |   V3 = 1: 17 (1.0)
|   |   |   |   |   V3 = 2: 17 (1.0)
|   |   |   |   |   V3 = 3: 5 (1.0)
|   |   |   |   |   V3 = 4: 4 (1.0)
|   |   |   |   |   V3 = 5: 4 (1.0)
|   |   |   |   |   V3 = 6: 4 (1.0)
|   |   |   |   |   V3 = 7: 4 (1.0)
|   |   |   |   |   V3 = 8: 4 (1.0)
|   |   |   V4 = 4
|   |   |   |   V3 = 1
|   |   |   |   |   V1 = 1: 8 (0.0)
|   |   |   |   |   V1 = 2: 8 (0.0)
|   |   |   |   |   V1 = 3: 12 (1.0)
|   |   |   |   |   V1 = 4: 8 (1.0)
|   |   |   |   V3 = 2: 6 (2.0)
|   |   |   |   V3 = 3
|   |   |   |   |   V1 = 1: 8 (0.0)
|   |   |   |   |   V1 = 2: 8 (0.0)
|   |   |   |   |   V1 = 3: 11 (1.0)
|   |   |   |   |   V1 = 4: 8 (1.0)
|   |   |   |   V3 = 4: 5 (2.0)
|   |   |   |   V3 = 5: 5 (2.0)
|   |   |   |   V3 = 6: 5 (2.0)
|   |   |   |   V3 = 7: 5 (2.0)
|   |   |   |   V3 = 8: 5 (2.0)
|   |   |   V4 = 5
|   |   |   |   V3 = 1: 12 (2.0)
|   |   |   |   V3 = 2: 9 (2.0)
|   |   |   |   V3 = 3: 11 (2.0)
|   |   |   |   V3 = 4: 12 (2.0)
|   |   |   |   V3 = 5
|   |   |   |   |   V1 = 1: 8 (0.0)
|   |   |   |   |   V1 = 2: 8 (0.0)
|   |   |   |   |   V1 = 3: 10 (1.0)
|   |   |   |   |   V1 = 4: 8 (1.0)
|   |   |   |   V3 = 6
|   |   |   |   |   V1 = 1: 8 (0.0)
|   |   |   |   |   V1 = 2: 8 (0.0)
|   |   |   |   |   V1 = 3: 10 (1.0)
|   |   |   |   |   V1 = 4: 8 (1.0)
|   |   |   |   V3 = 7
|   |   |   |   |   V1 = 1: 8 (0.0)
|   |   |   |   |   V1 = 2: 8 (0.0)
|   |   |   |   |   V1 = 3: 10 (1.0)
|   |   |   |   |   V1 = 4: 8 (1.0)
|   |   |   |   V3 = 8
|   |   |   |   |   V1 = 1: 8 (0.0)
|   |   |   |   |   V1 = 2: 8 (0.0)
|   |   |   |   |   V1 = 3: 10 (1.0)
|   |   |   |   |   V1 = 4: 8 (1.0)
|   |   |   V4 = 6
|   |   |   |   V3 = 1: 12 (2.0)
|   |   |   |   V3 = 2: 9 (2.0)
|   |   |   |   V3 = 3: 11 (2.0)
|   |   |   |   V3 = 4: 12 (2.0)
|   |   |   |   V3 = 5
|   |   |   |   |   V1 = 1: 8 (0.0)
|   |   |   |   |   V1 = 2: 8 (0.0)
|   |   |   |   |   V1 = 3: 12 (1.0)
|   |   |   |   |   V1 = 4: 8 (1.0)
|   |   |   |   V3 = 6
|   |   |   |   |   V1 = 1: 8 (0.0)
|   |   |   |   |   V1 = 2: 8 (0.0)
|   |   |   |   |   V1 = 3: 12 (1.0)
|   |   |   |   |   V1 = 4: 8 (1.0)
|   |   |   |   V3 = 7
|   |   |   |   |   V1 = 1: 8 (0.0)
|   |   |   |   |   V1 = 2: 8 (0.0)
|   |   |   |   |   V1 = 3: 12 (1.0)
|   |   |   |   |   V1 = 4: 8 (1.0)
|   |   |   |   V3 = 8
|   |   |   |   |   V1 = 1: 8 (0.0)
|   |   |   |   |   V1 = 2: 8 (0.0)
|   |   |   |   |   V1 = 3: 12 (1.0)
|   |   |   |   |   V1 = 4: 8 (1.0)
|   |   |   V4 = 7
|   |   |   |   V1 = 1: 11 (0.0)
|   |   |   |   V1 = 2: 11 (0.0)
|   |   |   |   V1 = 3
|   |   |   |   |   V3 = 1: 11 (1.0)
|   |   |   |   |   V3 = 2: 9 (1.0)
|   |   |   |   |   V3 = 3: 11 (1.0)
|   |   |   |   |   V3 = 4: 11 (1.0)
|   |   |   |   |   V3 = 5: 11 (1.0)
|   |   |   |   |   V3 = 6: 11 (1.0)
|   |   |   |   |   V3 = 7: 11 (1.0)
|   |   |   |   |   V3 = 8: 11 (1.0)
|   |   |   |   V1 = 4
|   |   |   |   |   V3 = 1: 11 (1.0)
|   |   |   |   |   V3 = 2: 9 (1.0)
|   |   |   |   |   V3 = 3: 11 (1.0)
|   |   |   |   |   V3 = 4: 11 (1.0)
|   |   |   |   |   V3 = 5: 8 (1.0)
|   |   |   |   |   V3 = 6: 8 (1.0)
|   |   |   |   |   V3 = 7: 8 (1.0)
|   |   |   |   |   V3 = 8: 8 (1.0)
|   |   |   V4 = 8
|   |   |   |   V1 = 1: 11 (0.0)
|   |   |   |   V1 = 2: 11 (0.0)
|   |   |   |   V1 = 3
|   |   |   |   |   V3 = 1: 11 (1.0)
|   |   |   |   |   V3 = 2: 8 (1.0)
|   |   |   |   |   V3 = 3: 11 (1.0)
|   |   |   |   |   V3 = 4: 11 (1.0)
|   |   |   |   |   V3 = 5: 11 (1.0)
|   |   |   |   |   V3 = 6: 11 (1.0)
|   |   |   |   |   V3 = 7: 11 (1.0)
|   |   |   |   |   V3 = 8: 11 (1.0)
|   |   |   |   V1 = 4
|   |   |   |   |   V3 = 1: 11 (1.0)
|   |   |   |   |   V3 = 2: 8 (1.0)
|   |   |   |   |   V3 = 3: 11 (1.0)
|   |   |   |   |   V3 = 4: 11 (1.0)
|   |   |   |   |   V3 = 5: 8 (1.0)
|   |   |   |   |   V3 = 6: 8 (1.0)
|   |   |   |   |   V3 = 7: 8 (1.0)
|   |   |   |   |   V3 = 8: 8 (1.0)
|   |   V5 = 2
|   |   |   V3 = 1
|   |   |   |   V4 = 1: 17 (1.0)
|   |   |   |   V4 = 2: 17 (1.0)
|   |   |   |   V4 = 3: 17 (1.0)
|   |   |   |   V4 = 4: 9 (1.0)
|   |   |   |   V4 = 5: 12 (1.0)
|   |   |   |   V4 = 6: 12 (1.0)
|   |   |   |   V4 = 7: 12 (1.0)
|   |   |   |   V4 = 8: 12 (1.0)
|   |   |   V3 = 2
|   |   |   |   V4 = 1: 17 (1.0)
|   |   |   |   V4 = 2: 13 (0.0)
|   |   |   |   V4 = 3: 17 (1.0)
|   |   |   |   V4 = 4: 11 (1.0)
|   |   |   |   V4 = 5: 14 (1.0)
|   |   |   |   V4 = 6: 14 (1.0)
|   |   |   |   V4 = 7: 13 (1.0)
|   |   |   |   V4 = 8: 13 (1.0)
|   |   |   V3 = 3
|   |   |   |   V4 = 1: 11 (1.0)
|   |   |   |   V4 = 2: 11 (1.0)
|   |   |   |   V4 = 3: 17 (1.0)
|   |   |   |   V4 = 4: 8 (1.0)
|   |   |   |   V4 = 5: 11 (1.0)
|   |   |   |   V4 = 6: 11 (1.0)
|   |   |   |   V4 = 7: 11 (1.0)
|   |   |   |   V4 = 8: 11 (1.0)
|   |   |   V3 = 4
|   |   |   |   V4 = 1: 13 (0.0)
|   |   |   |   V4 = 2: 12 (1.0)
|   |   |   |   V4 = 3: 4 (1.0)
|   |   |   |   V4 = 4: 11 (1.0)
|   |   |   |   V4 = 5: 13 (1.0)
|   |   |   |   V4 = 6: 13 (1.0)
|   |   |   |   V4 = 7: 13 (1.0)
|   |   |   |   V4 = 8: 13 (1.0)
|   |   |   V3 = 5
|   |   |   |   V4 = 1: 11 (1.0)
|   |   |   |   V4 = 2: 11 (1.0)
|   |   |   |   V4 = 3: 4 (1.0)
|   |   |   |   V4 = 4: 7 (1.0)
|   |   |   |   V4 = 5: 11 (1.0)
|   |   |   |   V4 = 6: 11 (1.0)
|   |   |   |   V4 = 7: 11 (1.0)
|   |   |   |   V4 = 8: 11 (1.0)
|   |   |   V3 = 6
|   |   |   |   V4 = 1: 11 (1.0)
|   |   |   |   V4 = 2: 11 (1.0)
|   |   |   |   V4 = 3: 4 (1.0)
|   |   |   |   V4 = 4: 7 (1.0)
|   |   |   |   V4 = 5: 11 (1.0)
|   |   |   |   V4 = 6: 11 (1.0)
|   |   |   |   V4 = 7: 11 (1.0)
|   |   |   |   V4 = 8: 11 (1.0)
|   |   |   V3 = 7
|   |   |   |   V4 = 1: 11 (1.0)
|   |   |   |   V4 = 2: 11 (1.0)
|   |   |   |   V4 = 3: 4 (1.0)
|   |   |   |   V4 = 4: 7 (1.0)
|   |   |   |   V4 = 5: 11 (1.0)
|   |   |   |   V4 = 6: 11 (1.0)
|   |   |   |   V4 = 7: 11 (1.0)
|   |   |   |   V4 = 8: 11 (1.0)
|   |   |   V3 = 8
|   |   |   |   V4 = 1: 11 (1.0)
|   |   |   |   V4 = 2: 11 (1.0)
|   |   |   |   V4 = 3: 4 (1.0)
|   |   |   |   V4 = 4: 7 (1.0)
|   |   |   |   V4 = 5: 11 (1.0)
|   |   |   |   V4 = 6: 11 (1.0)
|   |   |   |   V4 = 7: 11 (1.0)
|   |   |   |   V4 = 8: 11 (1.0)
|   |   V5 = 3
|   |   |   V3 = 1
|   |   |   |   V4 = 1: 14 (0.0)
|   |   |   |   V4 = 2: 15 (1.0)
|   |   |   |   V4 = 3: 9 (1.0)
|   |   |   |   V4 = 4: 13 (1.0)
|   |   |   |   V4 = 5: 14 (1.0)
|   |   |   |   V4 = 6: 14 (1.0)
|   |   |   |   V4 = 7: 14 (1.0)
|   |   |   |   V4 = 8: 14 (1.0)
|   |   |   V3 = 2
|   |   |   |   V4 = 1: 15 (1.0)
|   |   |   |   V4 = 2: 16 (1.0)
|   |   |   |   V4 = 3: 17 (1.0)
|   |   |   |   V4 = 4: 14 (1.0)
|   |   |   |   V4 = 5: 15 (1.0)
|   |   |   |   V4 = 6: 15 (1.0)
|   |   |   |   V4 = 7: 15 (1.0)
|   |   |   |   V4 = 8: 15 (1.0)
|   |   |   V3 = 3
|   |   |   |   V4 = 1: 17 (1.0)
|   |   |   |   V4 = 2: 16 (0.0)
|   |   |   |   V4 = 3: 17 (1.0)
|   |   |   |   V4 = 4: 13 (1.0)
|   |   |   |   V4 = 5: 15 (1.0)
|   |   |   |   V4 = 6: 16 (1.0)
|   |   |   |   V4 = 7: 16 (1.0)
|   |   |   |   V4 = 8: 16 (1.0)
|   |   |   V3 = 4
|   |   |   |   V4 = 1: 17 (1.0)
|   |   |   |   V4 = 2: 17 (1.0)
|   |   |   |   V4 = 3: 17 (1.0)
|   |   |   |   V4 = 4: 14 (1.0)
|   |   |   |   V4 = 5: 14 (1.0)
|   |   |   |   V4 = 6: 13 (1.0)
|   |   |   |   V4 = 7: 13 (1.0)
|   |   |   |   V4 = 8: 12 (1.0)
|   |   |   V3 = 5
|   |   |   |   V4 = 1: 15 (1.0)
|   |   |   |   V4 = 2: 16 (1.0)
|   |   |   |   V4 = 3: 11 (1.0)
|   |   |   |   V4 = 4: 14 (1.0)
|   |   |   |   V4 = 5: 15 (1.0)
|   |   |   |   V4 = 6: 15 (1.0)
|   |   |   |   V4 = 7: 15 (1.0)
|   |   |   |   V4 = 8: 15 (1.0)
|   |   |   V3 = 6
|   |   |   |   V4 = 1: 14 (1.0)
|   |   |   |   V4 = 2: 14 (1.0)
|   |   |   |   V4 = 3: 11 (1.0)
|   |   |   |   V4 = 4: 13 (1.0)
|   |   |   |   V4 = 5: 14 (1.0)
|   |   |   |   V4 = 6: 14 (1.0)
|   |   |   |   V4 = 7: 14 (1.0)
|   |   |   |   V4 = 8: 14 (1.0)
|   |   |   V3 = 7
|   |   |   |   V4 = 1: 14 (1.0)
|   |   |   |   V4 = 2: 14 (1.0)
|   |   |   |   V4 = 3: 10 (1.0)
|   |   |   |   V4 = 4: 13 (1.0)
|   |   |   |   V4 = 5: 14 (1.0)
|   |   |   |   V4 = 6: 14 (1.0)
|   |   |   |   V4 = 7: 14 (1.0)
|   |   |   |   V4 = 8: 14 (1.0)
|   |   |   V3 = 8
|   |   |   |   V4 = 1: 14 (1.0)
|   |   |   |   V4 = 2: 14 (1.0)
|   |   |   |   V4 = 3: 10 (1.0)
|   |   |   |   V4 = 4: 13 (1.0)
|   |   |   |   V4 = 5: 14 (1.0)
|   |   |   |   V4 = 6: 14 (1.0)
|   |   |   |   V4 = 7: 14 (1.0)
|   |   |   |   V4 = 8: 14 (1.0)
|   |   V5 = 4
|   |   |   V4 = 1
|   |   |   |   V3 = 1: 14 (1.0)
|   |   |   |   V3 = 2: 15 (1.0)
|   |   |   |   V3 = 3
|   |   |   |   |   V1 = 1: 17 (1.0)
|   |   |   |   |   V1 = 2: 15 (1.0)
|   |   |   |   |   V1 = 3: 15 (0.0)
|   |   |   |   |   V1 = 4: 15 (0.0)
|   |   |   |   V3 = 4: 17 (2.0)
|   |   |   |   V3 = 5: 17 (2.0)
|   |   |   |   V3 = 6: 15 (2.0)
|   |   |   |   V3 = 7: 14 (2.0)
|   |   |   |   V3 = 8
|   |   |   |   |   V1 = 1: 14 (1.0)
|   |   |   |   |   V1 = 2: 13 (1.0)
|   |   |   |   |   V1 = 3: 13 (0.0)
|   |   |   |   |   V1 = 4: 13 (0.0)
|   |   |   V4 = 2
|   |   |   |   V3 = 1: 14 (2.0)
|   |   |   |   V3 = 2
|   |   |   |   |   V1 = 1: 16 (1.0)
|   |   |   |   |   V1 = 2: 15 (1.0)
|   |   |   |   |   V1 = 3: 15 (0.0)
|   |   |   |   |   V1 = 4: 15 (0.0)
|   |   |   |   V3 = 3
|   |   |   |   |   V1 = 1: 17 (1.0)
|   |   |   |   |   V1 = 2: 16 (1.0)
|   |   |   |   |   V1 = 3: 16 (0.0)
|   |   |   |   |   V1 = 4: 16 (0.0)
|   |   |   |   V3 = 4: 14 (0.0)
|   |   |   |   V3 = 5: 17 (2.0)
|   |   |   |   V3 = 6: 16 (2.0)
|   |   |   |   V3 = 7: 14 (2.0)
|   |   |   |   V3 = 8
|   |   |   |   |   V1 = 1: 14 (1.0)
|   |   |   |   |   V1 = 2: 13 (1.0)
|   |   |   |   |   V1 = 3: 13 (0.0)
|   |   |   |   |   V1 = 4: 13 (0.0)
|   |   |   V4 = 3
|   |   |   |   V3 = 1
|   |   |   |   |   V1 = 1: 11 (1.0)
|   |   |   |   |   V1 = 2: 8 (1.0)
|   |   |   |   |   V1 = 3: 8 (0.0)
|   |   |   |   |   V1 = 4: 8 (0.0)
|   |   |   |   V3 = 2
|   |   |   |   |   V1 = 1: 10 (1.0)
|   |   |   |   |   V1 = 2: 8 (1.0)
|   |   |   |   |   V1 = 3: 8 (0.0)
|   |   |   |   |   V1 = 4: 8 (0.0)
|   |   |   |   V3 = 3: 17 (2.0)
|   |   |   |   V3 = 4: 17 (2.0)
|   |   |   |   V3 = 5: 17 (2.0)
|   |   |   |   V3 = 6
|   |   |   |   |   V1 = 1: 11 (1.0)
|   |   |   |   |   V1 = 2: 10 (1.0)
|   |   |   |   |   V1 = 3: 10 (0.0)
|   |   |   |   |   V1 = 4: 10 (0.0)
|   |   |   |   V3 = 7
|   |   |   |   |   V1 = 1: 10 (1.0)
|   |   |   |   |   V1 = 2: 9 (1.0)
|   |   |   |   |   V1 = 3: 9 (0.0)
|   |   |   |   |   V1 = 4: 9 (0.0)
|   |   |   |   V3 = 8
|   |   |   |   |   V1 = 1: 10 (1.0)
|   |   |   |   |   V1 = 2: 9 (1.0)
|   |   |   |   |   V1 = 3: 9 (0.0)
|   |   |   |   |   V1 = 4: 9 (0.0)
|   |   |   V4 = 4
|   |   |   |   V3 = 1: 13 (2.0)
|   |   |   |   V3 = 2
|   |   |   |   |   V1 = 1: 14 (1.0)
|   |   |   |   |   V1 = 2: 13 (1.0)
|   |   |   |   |   V1 = 3: 13 (0.0)
|   |   |   |   |   V1 = 4: 13 (0.0)
|   |   |   |   V3 = 3: 13 (2.0)
|   |   |   |   V3 = 4
|   |   |   |   |   V1 = 1: 14 (1.0)
|   |   |   |   |   V1 = 2: 12 (1.0)
|   |   |   |   |   V1 = 3: 12 (0.0)
|   |   |   |   |   V1 = 4: 12 (0.0)
|   |   |   |   V3 = 5
|   |   |   |   |   V1 = 1: 14 (1.0)
|   |   |   |   |   V1 = 2: 13 (1.0)
|   |   |   |   |   V1 = 3: 13 (0.0)
|   |   |   |   |   V1 = 4: 13 (0.0)
|   |   |   |   V3 = 6: 13 (2.0)
|   |   |   |   V3 = 7: 13 (2.0)
|   |   |   |   V3 = 8: 12 (2.0)
|   |   |   V4 = 5
|   |   |   |   V3 = 1: 14 (2.0)
|   |   |   |   V3 = 2
|   |   |   |   |   V1 = 1: 15 (1.0)
|   |   |   |   |   V1 = 2: 14 (1.0)
|   |   |   |   |   V1 = 3: 14 (0.0)
|   |   |   |   |   V1 = 4: 14 (0.0)
|   |   |   |   V3 = 3: 15 (2.0)
|   |   |   |   V3 = 4
|   |   |   |   |   V1 = 1: 15 (1.0)
|   |   |   |   |   V1 = 2: 14 (1.0)
|   |   |   |   |   V1 = 3: 14 (0.0)
|   |   |   |   |   V1 = 4: 14 (0.0)
|   |   |   |   V3 = 5: 15 (2.0)
|   |   |   |   V3 = 6: 15 (2.0)
|   |   |   |   V3 = 7: 14 (2.0)
|   |   |   |   V3 = 8
|   |   |   |   |   V1 = 1: 14 (1.0)
|   |   |   |   |   V1 = 2: 13 (1.0)
|   |   |   |   |   V1 = 3: 13 (0.0)
|   |   |   |   |   V1 = 4: 13 (0.0)
|   |   |   V4 = 6
|   |   |   |   V3 = 1: 14 (2.0)
|   |   |   |   V3 = 2
|   |   |   |   |   V1 = 1: 15 (1.0)
|   |   |   |   |   V1 = 2: 14 (1.0)
|   |   |   |   |   V1 = 3: 14 (0.0)
|   |   |   |   |   V1 = 4: 14 (0.0)
|   |   |   |   V3 = 3: 16 (2.0)
|   |   |   |   V3 = 4: 15 (2.0)
|   |   |   |   V3 = 5: 15 (2.0)
|   |   |   |   V3 = 6: 16 (2.0)
|   |   |   |   V3 = 7: 14 (2.0)
|   |   |   |   V3 = 8
|   |   |   |   |   V1 = 1: 14 (1.0)
|   |   |   |   |   V1 = 2: 13 (1.0)
|   |   |   |   |   V1 = 3: 13 (0.0)
|   |   |   |   |   V1 = 4: 13 (0.0)
|   |   |   V4 = 7
|   |   |   |   V3 = 1: 14 (2.0)
|   |   |   |   V3 = 2
|   |   |   |   |   V1 = 1: 15 (1.0)
|   |   |   |   |   V1 = 2: 14 (1.0)
|   |   |   |   |   V1 = 3: 14 (0.0)
|   |   |   |   |   V1 = 4: 14 (0.0)
|   |   |   |   V3 = 3
|   |   |   |   |   V1 = 1: 16 (1.0)
|   |   |   |   |   V1 = 2: 15 (1.0)
|   |   |   |   |   V1 = 3: 15 (0.0)
|   |   |   |   |   V1 = 4: 15 (0.0)
|   |   |   |   V3 = 4: 15 (2.0)
|   |   |   |   V3 = 5: 15 (2.0)
|   |   |   |   V3 = 6
|   |   |   |   |   V1 = 1: 16 (1.0)
|   |   |   |   |   V1 = 2: 15 (1.0)
|   |   |   |   |   V1 = 3: 15 (0.0)
|   |   |   |   |   V1 = 4: 15 (0.0)
|   |   |   |   V3 = 7: 14 (2.0)
|   |   |   |   V3 = 8
|   |   |   |   |   V1 = 1: 14 (1.0)
|   |   |   |   |   V1 = 2: 13 (1.0)
|   |   |   |   |   V1 = 3: 13 (0.0)
|   |   |   |   |   V1 = 4: 13 (0.0)
|   |   |   V4 = 8
|   |   |   |   V3 = 1: 14 (2.0)
|   |   |   |   V3 = 2
|   |   |   |   |   V1 = 1: 15 (1.0)
|   |   |   |   |   V1 = 2: 14 (1.0)
|   |   |   |   |   V1 = 3: 14 (0.0)
|   |   |   |   |   V1 = 4: 14 (0.0)
|   |   |   |   V3 = 3
|   |   |   |   |   V1 = 1: 16 (1.0)
|   |   |   |   |   V1 = 2: 15 (1.0)
|   |   |   |   |   V1 = 3: 15 (0.0)
|   |   |   |   |   V1 = 4: 15 (0.0)
|   |   |   |   V3 = 4: 15 (2.0)
|   |   |   |   V3 = 5: 14 (2.0)
|   |   |   |   V3 = 6
|   |   |   |   |   V1 = 1: 16 (1.0)
|   |   |   |   |   V1 = 2: 15 (1.0)
|   |   |   |   |   V1 = 3: 15 (0.0)
|   |   |   |   |   V1 = 4: 15 (0.0)
|   |   |   |   V3 = 7: 14 (2.0)
|   |   |   |   V3 = 8
|   |   |   |   |   V1 = 1: 14 (1.0)
|   |   |   |   |   V1 = 2: 13 (1.0)
|   |   |   |   |   V1 = 3: 13 (0.0)
|   |   |   |   |   V1 = 4: 13 (0.0)
|   |   V5 = 5
|   |   |   V4 = 1
|   |   |   |   V3 = 1
|   |   |   |   |   V1 = 1: 13 (0.0)
|   |   |   |   |   V1 = 2: 14 (1.0)
|   |   |   |   |   V1 = 3: 13 (1.0)
|   |   |   |   |   V1 = 4: 13 (0.0)
|   |   |   |   V3 = 2
|   |   |   |   |   V1 = 1: 15 (1.0)
|   |   |   |   |   V1 = 2: 13 (0.0)
|   |   |   |   |   V1 = 3: 13 (1.0)
|   |   |   |   |   V1 = 4: 13 (0.0)
|   |   |   |   V3 = 3: 15 (2.0)
|   |   |   |   V3 = 4
|   |   |   |   |   V1 = 1: 17 (1.0)
|   |   |   |   |   V1 = 2: 17 (1.0)
|   |   |   |   |   V1 = 3: 15 (1.0)
|   |   |   |   |   V1 = 4: 17 (0.0)
|   |   |   |   V3 = 5: 17 (3.0)
|   |   |   |   V3 = 6: 17 (3.0)
|   |   |   |   V3 = 7
|   |   |   |   |   V1 = 1: 15 (1.0)
|   |   |   |   |   V1 = 2: 14 (1.0)
|   |   |   |   |   V1 = 3: 14 (1.0)
|   |   |   |   |   V1 = 4: 14 (0.0)
|   |   |   |   V3 = 8
|   |   |   |   |   V1 = 1: 13 (1.0)
|   |   |   |   |   V1 = 2: 13 (1.0)
|   |   |   |   |   V1 = 3: 12 (1.0)
|   |   |   |   |   V1 = 4: 13 (0.0)
|   |   |   V4 = 2
|   |   |   |   V3 = 1
|   |   |   |   |   V1 = 1: 14 (1.0)
|   |   |   |   |   V1 = 2: 14 (1.0)
|   |   |   |   |   V1 = 3: 13 (1.0)
|   |   |   |   |   V1 = 4: 14 (0.0)
|   |   |   |   V3 = 2
|   |   |   |   |   V1 = 1: 15 (1.0)
|   |   |   |   |   V1 = 2: 14 (1.0)
|   |   |   |   |   V1 = 3: 13 (1.0)
|   |   |   |   |   V1 = 4: 13 (0.0)
|   |   |   |   V3 = 3
|   |   |   |   |   V1 = 1: 16 (1.0)
|   |   |   |   |   V1 = 2: 16 (1.0)
|   |   |   |   |   V1 = 3: 15 (1.0)
|   |   |   |   |   V1 = 4: 16 (0.0)
|   |   |   |   V3 = 4
|   |   |   |   |   V1 = 1: 17 (1.0)
|   |   |   |   |   V1 = 2: 17 (1.0)
|   |   |   |   |   V1 = 3: 15 (1.0)
|   |   |   |   |   V1 = 4: 17 (0.0)
|   |   |   |   V3 = 5: 15 (0.0)
|   |   |   |   V3 = 6: 17 (3.0)
|   |   |   |   V3 = 7
|   |   |   |   |   V1 = 1: 16 (1.0)
|   |   |   |   |   V1 = 2: 15 (1.0)
|   |   |   |   |   V1 = 3: 15 (1.0)
|   |   |   |   |   V1 = 4: 15 (0.0)
|   |   |   |   V3 = 8
|   |   |   |   |   V1 = 1: 13 (1.0)
|   |   |   |   |   V1 = 2: 13 (1.0)
|   |   |   |   |   V1 = 3: 12 (1.0)
|   |   |   |   |   V1 = 4: 13 (0.0)
|   |   |   V4 = 3
|   |   |   |   V1 = 1
|   |   |   |   |   V3 = 1: 9 (1.0)
|   |   |   |   |   V3 = 2: 9 (1.0)
|   |   |   |   |   V3 = 3: 10 (1.0)
|   |   |   |   |   V3 = 4: 17 (1.0)
|   |   |   |   |   V3 = 5: 17 (1.0)
|   |   |   |   |   V3 = 6: 17 (1.0)
|   |   |   |   |   V3 = 7: 11 (1.0)
|   |   |   |   |   V3 = 8: 10 (1.0)
|   |   |   |   V1 = 2
|   |   |   |   |   V3 = 1: 9 (1.0)
|   |   |   |   |   V3 = 2: 9 (1.0)
|   |   |   |   |   V3 = 3: 9 (1.0)
|   |   |   |   |   V3 = 4: 17 (1.0)
|   |   |   |   |   V3 = 5: 17 (1.0)
|   |   |   |   |   V3 = 6: 17 (1.0)
|   |   |   |   |   V3 = 7: 9 (1.0)
|   |   |   |   |   V3 = 8: 9 (1.0)
|   |   |   |   V1 = 3
|   |   |   |   |   V3 = 1: 7 (1.0)
|   |   |   |   |   V3 = 2: 7 (1.0)
|   |   |   |   |   V3 = 3: 7 (1.0)
|   |   |   |   |   V3 = 4: 17 (1.0)
|   |   |   |   |   V3 = 5: 17 (1.0)
|   |   |   |   |   V3 = 6: 17 (1.0)
|   |   |   |   |   V3 = 7: 8 (1.0)
|   |   |   |   |   V3 = 8: 8 (1.0)
|   |   |   |   V1 = 4: 17 (0.0)
|   |   |   V4 = 4
|   |   |   |   V1 = 1
|   |   |   |   |   V3 = 1: 12 (1.0)
|   |   |   |   |   V3 = 2: 12 (1.0)
|   |   |   |   |   V3 = 3: 13 (1.0)
|   |   |   |   |   V3 = 4: 12 (1.0)
|   |   |   |   |   V3 = 5: 13 (1.0)
|   |   |   |   |   V3 = 6: 13 (1.0)
|   |   |   |   |   V3 = 7: 13 (1.0)
|   |   |   |   |   V3 = 8: 12 (1.0)
|   |   |   |   V1 = 2
|   |   |   |   |   V3 = 1: 11 (1.0)
|   |   |   |   |   V3 = 2: 11 (1.0)
|   |   |   |   |   V3 = 3: 13 (1.0)
|   |   |   |   |   V3 = 4: 12 (1.0)
|   |   |   |   |   V3 = 5: 13 (1.0)
|   |   |   |   |   V3 = 6: 12 (1.0)
|   |   |   |   |   V3 = 7: 12 (1.0)
|   |   |   |   |   V3 = 8: 11 (1.0)
|   |   |   |   V1 = 3
|   |   |   |   |   V3 = 1: 10 (1.0)
|   |   |   |   |   V3 = 2: 11 (1.0)
|   |   |   |   |   V3 = 3: 12 (1.0)
|   |   |   |   |   V3 = 4: 11 (1.0)
|   |   |   |   |   V3 = 5: 12 (1.0)
|   |   |   |   |   V3 = 6: 12 (1.0)
|   |   |   |   |   V3 = 7: 12 (1.0)
|   |   |   |   |   V3 = 8: 11 (1.0)
|   |   |   |   V1 = 4: 12 (0.0)
|   |   |   V4 = 5
|   |   |   |   V3 = 1
|   |   |   |   |   V1 = 1: 14 (1.0)
|   |   |   |   |   V1 = 2: 14 (1.0)
|   |   |   |   |   V1 = 3: 13 (1.0)
|   |   |   |   |   V1 = 4: 14 (0.0)
|   |   |   |   V3 = 2
|   |   |   |   |   V1 = 1: 15 (1.0)
|   |   |   |   |   V1 = 2: 14 (1.0)
|   |   |   |   |   V1 = 3: 13 (1.0)
|   |   |   |   |   V1 = 4: 13 (0.0)
|   |   |   |   V3 = 3
|   |   |   |   |   V1 = 1: 15 (1.0)
|   |   |   |   |   V1 = 2: 15 (1.0)
|   |   |   |   |   V1 = 3: 14 (1.0)
|   |   |   |   |   V1 = 4: 15 (0.0)
|   |   |   |   V3 = 4
|   |   |   |   |   V1 = 1: 15 (1.0)
|   |   |   |   |   V1 = 2: 14 (1.0)
|   |   |   |   |   V1 = 3: 14 (1.0)
|   |   |   |   |   V1 = 4: 14 (0.0)
|   |   |   |   V3 = 5
|   |   |   |   |   V1 = 1: 15 (1.0)
|   |   |   |   |   V1 = 2: 15 (1.0)
|   |   |   |   |   V1 = 3: 14 (1.0)
|   |   |   |   |   V1 = 4: 15 (0.0)
|   |   |   |   V3 = 6
|   |   |   |   |   V1 = 1: 15 (1.0)
|   |   |   |   |   V1 = 2: 15 (1.0)
|   |   |   |   |   V1 = 3: 14 (1.0)
|   |   |   |   |   V1 = 4: 15 (0.0)
|   |   |   |   V3 = 7: 14 (3.0)
|   |   |   |   V3 = 8
|   |   |   |   |   V1 = 1: 13 (1.0)
|   |   |   |   |   V1 = 2: 13 (1.0)
|   |   |   |   |   V1 = 3: 12 (1.0)
|   |   |   |   |   V1 = 4: 13 (0.0)
|   |   |   V4 = 6
|   |   |   |   V3 = 1
|   |   |   |   |   V1 = 1: 14 (1.0)
|   |   |   |   |   V1 = 2: 14 (1.0)
|   |   |   |   |   V1 = 3: 13 (1.0)
|   |   |   |   |   V1 = 4: 14 (0.0)
|   |   |   |   V3 = 2
|   |   |   |   |   V1 = 1: 15 (1.0)
|   |   |   |   |   V1 = 2: 14 (1.0)
|   |   |   |   |   V1 = 3: 13 (1.0)
|   |   |   |   |   V1 = 4: 13 (0.0)
|   |   |   |   V3 = 3
|   |   |   |   |   V1 = 1: 16 (1.0)
|   |   |   |   |   V1 = 2: 16 (1.0)
|   |   |   |   |   V1 = 3: 15 (1.0)
|   |   |   |   |   V1 = 4: 16 (0.0)
|   |   |   |   V3 = 4: 15 (3.0)
|   |   |   |   V3 = 5
|   |   |   |   |   V1 = 1: 15 (1.0)
|   |   |   |   |   V1 = 2: 15 (1.0)
|   |   |   |   |   V1 = 3: 14 (1.0)
|   |   |   |   |   V1 = 4: 15 (0.0)
|   |   |   |   V3 = 6
|   |   |   |   |   V1 = 1: 16 (1.0)
|   |   |   |   |   V1 = 2: 16 (1.0)
|   |   |   |   |   V1 = 3: 15 (1.0)
|   |   |   |   |   V1 = 4: 16 (0.0)
|   |   |   |   V3 = 7
|   |   |   |   |   V1 = 1: 16 (1.0)
|   |   |   |   |   V1 = 2: 15 (1.0)
|   |   |   |   |   V1 = 3: 15 (1.0)
|   |   |   |   |   V1 = 4: 15 (0.0)
|   |   |   |   V3 = 8
|   |   |   |   |   V1 = 1: 13 (1.0)
|   |   |   |   |   V1 = 2: 13 (1.0)
|   |   |   |   |   V1 = 3: 12 (1.0)
|   |   |   |   |   V1 = 4: 13 (0.0)
|   |   |   V4 = 7
|   |   |   |   V3 = 1
|   |   |   |   |   V1 = 1: 14 (1.0)
|   |   |   |   |   V1 = 2: 14 (1.0)
|   |   |   |   |   V1 = 3: 13 (1.0)
|   |   |   |   |   V1 = 4: 14 (0.0)
|   |   |   |   V3 = 2
|   |   |   |   |   V1 = 1: 15 (1.0)
|   |   |   |   |   V1 = 2: 14 (1.0)
|   |   |   |   |   V1 = 3: 13 (1.0)
|   |   |   |   |   V1 = 4: 13 (0.0)
|   |   |   |   V3 = 3
|   |   |   |   |   V1 = 1: 16 (1.0)
|   |   |   |   |   V1 = 2: 15 (1.0)
|   |   |   |   |   V1 = 3: 15 (1.0)
|   |   |   |   |   V1 = 4: 15 (0.0)
|   |   |   |   V3 = 4: 15 (3.0)
|   |   |   |   V3 = 5
|   |   |   |   |   V1 = 1: 15 (1.0)
|   |   |   |   |   V1 = 2: 15 (1.0)
|   |   |   |   |   V1 = 3: 14 (1.0)
|   |   |   |   |   V1 = 4: 15 (0.0)
|   |   |   |   V3 = 6
|   |   |   |   |   V1 = 1: 16 (1.0)
|   |   |   |   |   V1 = 2: 15 (1.0)
|   |   |   |   |   V1 = 3: 15 (1.0)
|   |   |   |   |   V1 = 4: 15 (0.0)
|   |   |   |   V3 = 7
|   |   |   |   |   V1 = 1: 15 (1.0)
|   |   |   |   |   V1 = 2: 14 (1.0)
|   |   |   |   |   V1 = 3: 14 (1.0)
|   |   |   |   |   V1 = 4: 14 (0.0)
|   |   |   |   V3 = 8
|   |   |   |   |   V1 = 1: 13 (1.0)
|   |   |   |   |   V1 = 2: 13 (1.0)
|   |   |   |   |   V1 = 3: 12 (1.0)
|   |   |   |   |   V1 = 4: 13 (0.0)
|   |   |   V4 = 8
|   |   |   |   V3 = 1
|   |   |   |   |   V1 = 1: 14 (1.0)
|   |   |   |   |   V1 = 2: 14 (1.0)
|   |   |   |   |   V1 = 3: 13 (1.0)
|   |   |   |   |   V1 = 4: 14 (0.0)
|   |   |   |   V3 = 2
|   |   |   |   |   V1 = 1: 15 (1.0)
|   |   |   |   |   V1 = 2: 14 (1.0)
|   |   |   |   |   V1 = 3: 13 (1.0)
|   |   |   |   |   V1 = 4: 13 (0.0)
|   |   |   |   V3 = 3
|   |   |   |   |   V1 = 1: 16 (1.0)
|   |   |   |   |   V1 = 2: 15 (1.0)
|   |   |   |   |   V1 = 3: 14 (1.0)
|   |   |   |   |   V1 = 4: 14 (0.0)
|   |   |   |   V3 = 4: 15 (3.0)
|   |   |   |   V3 = 5
|   |   |   |   |   V1 = 1: 15 (1.0)
|   |   |   |   |   V1 = 2: 14 (1.0)
|   |   |   |   |   V1 = 3: 14 (1.0)
|   |   |   |   |   V1 = 4: 14 (0.0)
|   |   |   |   V3 = 6
|   |   |   |   |   V1 = 1: 16 (1.0)
|   |   |   |   |   V1 = 2: 15 (1.0)
|   |   |   |   |   V1 = 3: 15 (1.0)
|   |   |   |   |   V1 = 4: 15 (0.0)
|   |   |   |   V3 = 7
|   |   |   |   |   V1 = 1: 15 (1.0)
|   |   |   |   |   V1 = 2: 14 (1.0)
|   |   |   |   |   V1 = 3: 14 (1.0)
|   |   |   |   |   V1 = 4: 14 (0.0)
|   |   |   |   V3 = 8
|   |   |   |   |   V1 = 1: 13 (1.0)
|   |   |   |   |   V1 = 2: 13 (1.0)
|   |   |   |   |   V1 = 3: 12 (1.0)
|   |   |   |   |   V1 = 4: 13 (0.0)
|   |   V5 = 6
|   |   |   V3 = 1
|   |   |   |   V1 = 1
|   |   |   |   |   V4 = 1: 13 (0.0)
|   |   |   |   |   V4 = 2: 13 (1.0)
|   |   |   |   |   V4 = 3: 10 (1.0)
|   |   |   |   |   V4 = 4: 12 (1.0)
|   |   |   |   |   V4 = 5: 13 (1.0)
|   |   |   |   |   V4 = 6: 13 (1.0)
|   |   |   |   |   V4 = 7: 13 (1.0)
|   |   |   |   |   V4 = 8: 13 (1.0)
|   |   |   |   V1 = 2
|   |   |   |   |   V4 = 1: 12 (1.0)
|   |   |   |   |   V4 = 2: 12 (1.0)
|   |   |   |   |   V4 = 3: 8 (1.0)
|   |   |   |   |   V4 = 4: 10 (1.0)
|   |   |   |   |   V4 = 5: 12 (1.0)
|   |   |   |   |   V4 = 6: 12 (1.0)
|   |   |   |   |   V4 = 7: 12 (1.0)
|   |   |   |   |   V4 = 8: 12 (1.0)
|   |   |   |   V1 = 3
|   |   |   |   |   V4 = 1: 11 (1.0)
|   |   |   |   |   V4 = 2: 11 (1.0)
|   |   |   |   |   V4 = 3: 8 (1.0)
|   |   |   |   |   V4 = 4: 9 (1.0)
|   |   |   |   |   V4 = 5: 11 (1.0)
|   |   |   |   |   V4 = 6: 11 (1.0)
|   |   |   |   |   V4 = 7: 11 (1.0)
|   |   |   |   |   V4 = 8: 11 (1.0)
|   |   |   |   V1 = 4
|   |   |   |   |   V4 = 1: 12 (1.0)
|   |   |   |   |   V4 = 2: 12 (1.0)
|   |   |   |   |   V4 = 3: 5 (1.0)
|   |   |   |   |   V4 = 4: 9 (1.0)
|   |   |   |   |   V4 = 5: 12 (1.0)
|   |   |   |   |   V4 = 6: 12 (1.0)
|   |   |   |   |   V4 = 7: 12 (1.0)
|   |   |   |   |   V4 = 8: 12 (1.0)
|   |   |   V3 = 2
|   |   |   |   V1 = 1
|   |   |   |   |   V4 = 1: 13 (1.0)
|   |   |   |   |   V4 = 2: 13 (1.0)
|   |   |   |   |   V4 = 3: 10 (1.0)
|   |   |   |   |   V4 = 4: 12 (1.0)
|   |   |   |   |   V4 = 5: 13 (1.0)
|   |   |   |   |   V4 = 6: 13 (1.0)
|   |   |   |   |   V4 = 7: 13 (1.0)
|   |   |   |   |   V4 = 8: 13 (1.0)
|   |   |   |   V1 = 2
|   |   |   |   |   V4 = 1: 12 (0.0)
|   |   |   |   |   V4 = 2: 12 (1.0)
|   |   |   |   |   V4 = 3: 8 (1.0)
|   |   |   |   |   V4 = 4: 10 (1.0)
|   |   |   |   |   V4 = 5: 12 (1.0)
|   |   |   |   |   V4 = 6: 12 (1.0)
|   |   |   |   |   V4 = 7: 12 (1.0)
|   |   |   |   |   V4 = 8: 12 (1.0)
|   |   |   |   V1 = 3
|   |   |   |   |   V4 = 1: 12 (1.0)
|   |   |   |   |   V4 = 2: 12 (1.0)
|   |   |   |   |   V4 = 3: 8 (1.0)
|   |   |   |   |   V4 = 4: 9 (1.0)
|   |   |   |   |   V4 = 5: 12 (1.0)
|   |   |   |   |   V4 = 6: 12 (1.0)
|   |   |   |   |   V4 = 7: 12 (1.0)
|   |   |   |   |   V4 = 8: 12 (1.0)
|   |   |   |   V1 = 4
|   |   |   |   |   V4 = 1: 11 (1.0)
|   |   |   |   |   V4 = 2: 11 (1.0)
|   |   |   |   |   V4 = 3: 5 (1.0)
|   |   |   |   |   V4 = 4: 9 (1.0)
|   |   |   |   |   V4 = 5: 11 (1.0)
|   |   |   |   |   V4 = 6: 11 (1.0)
|   |   |   |   |   V4 = 7: 11 (1.0)
|   |   |   |   |   V4 = 8: 11 (1.0)
|   |   |   V3 = 3
|   |   |   |   V1 = 1
|   |   |   |   |   V4 = 1: 14 (1.0)
|   |   |   |   |   V4 = 2: 14 (1.0)
|   |   |   |   |   V4 = 3: 10 (1.0)
|   |   |   |   |   V4 = 4: 12 (1.0)
|   |   |   |   |   V4 = 5: 14 (1.0)
|   |   |   |   |   V4 = 6: 14 (1.0)
|   |   |   |   |   V4 = 7: 14 (1.0)
|   |   |   |   |   V4 = 8: 14 (1.0)
|   |   |   |   V1 = 2
|   |   |   |   |   V4 = 1: 14 (1.0)
|   |   |   |   |   V4 = 2: 14 (1.0)
|   |   |   |   |   V4 = 3: 8 (1.0)
|   |   |   |   |   V4 = 4: 10 (1.0)
|   |   |   |   |   V4 = 5: 14 (1.0)
|   |   |   |   |   V4 = 6: 14 (1.0)
|   |   |   |   |   V4 = 7: 14 (1.0)
|   |   |   |   |   V4 = 8: 14 (1.0)
|   |   |   |   V1 = 3
|   |   |   |   |   V4 = 1: 13 (0.0)
|   |   |   |   |   V4 = 2: 13 (1.0)
|   |   |   |   |   V4 = 3: 8 (1.0)
|   |   |   |   |   V4 = 4: 9 (1.0)
|   |   |   |   |   V4 = 5: 13 (1.0)
|   |   |   |   |   V4 = 6: 13 (1.0)
|   |   |   |   |   V4 = 7: 13 (1.0)
|   |   |   |   |   V4 = 8: 13 (1.0)
|   |   |   |   V1 = 4
|   |   |   |   |   V4 = 1: 11 (1.0)
|   |   |   |   |   V4 = 2: 11 (1.0)
|   |   |   |   |   V4 = 3: 5 (1.0)
|   |   |   |   |   V4 = 4: 9 (1.0)
|   |   |   |   |   V4 = 5: 11 (1.0)
|   |   |   |   |   V4 = 6: 11 (1.0)
|   |   |   |   |   V4 = 7: 11 (1.0)
|   |   |   |   |   V4 = 8: 11 (1.0)
|   |   |   V3 = 4
|   |   |   |   V4 = 1: 15 (3.0)
|   |   |   |   V4 = 2
|   |   |   |   |   V1 = 1: 16 (1.0)
|   |   |   |   |   V1 = 2: 15 (1.0)
|   |   |   |   |   V1 = 3: 15 (1.0)
|   |   |   |   |   V1 = 4: 14 (1.0)
|   |   |   |   V4 = 3
|   |   |   |   |   V1 = 1: 10 (1.0)
|   |   |   |   |   V1 = 2: 8 (1.0)
|   |   |   |   |   V1 = 3: 7 (1.0)
|   |   |   |   |   V1 = 4: 5 (1.0)
|   |   |   |   V4 = 4
|   |   |   |   |   V1 = 1: 12 (1.0)
|   |   |   |   |   V1 = 2: 12 (1.0)
|   |   |   |   |   V1 = 3: 11 (1.0)
|   |   |   |   |   V1 = 4: 11 (1.0)
|   |   |   |   V4 = 5
|   |   |   |   |   V1 = 1: 15 (1.0)
|   |   |   |   |   V1 = 2: 14 (1.0)
|   |   |   |   |   V1 = 3: 14 (1.0)
|   |   |   |   |   V1 = 4: 14 (1.0)
|   |   |   |   V4 = 6
|   |   |   |   |   V1 = 1: 15 (1.0)
|   |   |   |   |   V1 = 2: 15 (1.0)
|   |   |   |   |   V1 = 3: 15 (1.0)
|   |   |   |   |   V1 = 4: 14 (1.0)
|   |   |   |   V4 = 7
|   |   |   |   |   V1 = 1: 15 (1.0)
|   |   |   |   |   V1 = 2: 15 (1.0)
|   |   |   |   |   V1 = 3: 15 (1.0)
|   |   |   |   |   V1 = 4: 14 (1.0)
|   |   |   |   V4 = 8
|   |   |   |   |   V1 = 1: 15 (1.0)
|   |   |   |   |   V1 = 2: 15 (1.0)
|   |   |   |   |   V1 = 3: 15 (1.0)
|   |   |   |   |   V1 = 4: 14 (1.0)
|   |   |   V3 = 5
|   |   |   |   V4 = 1
|   |   |   |   |   V1 = 1: 17 (1.0)
|   |   |   |   |   V1 = 2: 17 (1.0)
|   |   |   |   |   V1 = 3: 17 (1.0)
|   |   |   |   |   V1 = 4: 13 (1.0)
|   |   |   |   V4 = 2
|   |   |   |   |   V1 = 1: 17 (1.0)
|   |   |   |   |   V1 = 2: 17 (1.0)
|   |   |   |   |   V1 = 3: 17 (1.0)
|   |   |   |   |   V1 = 4: 13 (1.0)
|   |   |   |   V4 = 3: 17 (4.0)
|   |   |   |   V4 = 4
|   |   |   |   |   V1 = 1: 13 (1.0)
|   |   |   |   |   V1 = 2: 11 (1.0)
|   |   |   |   |   V1 = 3: 10 (1.0)
|   |   |   |   |   V1 = 4: 10 (1.0)
|   |   |   |   V4 = 5
|   |   |   |   |   V1 = 1: 14 (1.0)
|   |   |   |   |   V1 = 2: 13 (1.0)
|   |   |   |   |   V1 = 3: 13 (1.0)
|   |   |   |   |   V1 = 4: 13 (1.0)
|   |   |   |   V4 = 6
|   |   |   |   |   V1 = 1: 15 (1.0)
|   |   |   |   |   V1 = 2: 13 (1.0)
|   |   |   |   |   V1 = 3: 13 (1.0)
|   |   |   |   |   V1 = 4: 13 (1.0)
|   |   |   |   V4 = 7
|   |   |   |   |   V1 = 1: 14 (1.0)
|   |   |   |   |   V1 = 2: 13 (1.0)
|   |   |   |   |   V1 = 3: 13 (1.0)
|   |   |   |   |   V1 = 4: 13 (1.0)
|   |   |   |   V4 = 8: 13 (4.0)
|   |   |   V3 = 6
|   |   |   |   V4 = 1: 17 (4.0)
|   |   |   |   V4 = 2: 17 (0.0)
